-0.1881594062,0.1362569332,0.1468796581,-0.0997301713,0.1442338079,-0.1058998331,-0.0362279229,0.0061750589,0.0630710945,0.1678515822,-0.0814465359,-0.0837653428,0.0157967620,0.0706066266,0.0307482649,-0.1249594614,-0.0850771144,-0.0857304782,-0.0674360842,-0.0304021798,0.2146804333,0.0739907101,0.0760114193,0.0995907858,0.1504113376,0.1122986749,0.0806562603,-0.0211835131,-0.0762954354,0.0419209301,-0.1372307837,0.0811341628,-0.0897162408,0.1855995655,-0.1128701419,-0.0599399768,-0.0062230146,-0.1139978915,0.1653349251,0.1597500592,0.0623790585,-0.0562931709,0.0305510424,-0.0565046072,0.0151124820,0.0978037044,-0.0490097143,-0.0217765290,0.0358555764,-0.0563604049,0.1616741121,-0.0587435476,-0.0349980965,-0.0238038637,0.1030891091,-0.1229986846,0.0687460005,-0.0518952571,0.0094078807,-0.0384712294,-0.1350400001,0.0410845280,0.1014191732,0.0651116446,-0.0237270538,0.0492628701,-0.0402368829,-0.1464539617,0.0727101415,-0.1256455481,-0.0397982411,-0.1785909832,-0.0465132222,0.0936385766,0.0718349665,-0.0821667835,0.0059341700,-0.0134102711,0.0909155831,0.0302527677,0.1250619143,-0.0597506240,-0.1312658191,0.0813600421,0.0244343411,-0.0313319266,-0.0164774917,0.2027191818,0.0185190961,0.0519690774,-0.0543191656,0.0964865386,0.0411782563,-0.0386741720,-0.0131143946,0.0491512083,0.0481426828,-0.0621953793,0.0895341486,-0.1204677299,-0.1848849058,-0.1200844347,-0.1883924305,-0.0886764079,0.0033003152,0.0364068374,0.0845624506,-0.0319880992,-0.1348448396,0.0726625398,0.1130784899,0.1550158113,-0.0417776480,-0.0531767532,-0.0948260948,0.1125491858,-0.0625465959,-0.0398939997,0.0739774331,-0.1677746326,-0.0092817908,0.0797852576,-0.1652369648,-0.0704648346,0.0085052289,-0.1665211469,0.0302462913,-0.0901292637,0.0911330357,0.0056232754,-0.1025766209,-0.0353375301,0.0275674704,0.0789920241,-0.0160091259,-0.0866656452,-0.1544766277,0.1790479869,0.0849899575,0.0260516293,-0.0559118390,-0.0865466446,0.0961460471,0.0618458837,0.1379719079,-0.1247006431,0.0340884328,-0.1184171289,-0.0194734298,0.1776241958,-0.0364123397,-0.0389739424,-0.0263160504,-0.0259414427,0.0179325081,0.0873969346,-0.1979437768,0.0343385339,-0.1182975546,-0.0531947538,0.0464885160,-0.1967602223,-0.1408003867,0.1244411841,0.0374985598,-0.1646217257,-0.0131139308,-0.0663790554,0.1463317275,-0.2100464106,0.0138624124,-0.0570933670,0.0495612919,-0.1107936576,0.0604613237,0.1205827743,-0.1262064129,-0.0159417074,-0.1811900884,-0.0547308661,0.0078444080,0.1656643003,-0.0586213022,-0.0905164331,-0.0382492989,-0.1001478955,-0.0174769815,0.0106251324,0.0602893047,0.1043469012,0.0180645715,-0.0543113314,0.0632597059,-0.0019812554,0.0121036964,0.1699387729,-0.1477136910,0.1165598407,-0.0175362583,0.0421219394,0.0014693317,0.0214432310,-0.0016485892,0.0169763584,0.0016870409,-0.1477630734,-0.0093707629,0.0101389736,0.1390054673,0.0808656290,-0.0382938348,0.0174513403,-0.1721273512,0.1413648576,0.0060729082,-0.0752038211,0.0851415247,0.0265531205,-0.1558064222,0.1340397447,-0.0562786907,-0.1071163639,0.0154748354,0.0094632851,0.0641988218,-0.0104068248,0.0417559296,-0.1527572572,-0.0233866367,-0.0817624182,-0.0302136485,-0.0155583275,0.0036694699,-0.0872907043,-0.0355815329,-0.1227932870,-0.0689005777,0.0863617957,0.0292575955,0.0702022314,0.0832994953,0.1051842570,0.0744420364,0.1653782576,-0.0824191570,0.0696709603,-0.0923680216,-0.0129348878,0.0107460078,0.1548747867,-0.1662025303,0.0788261518,-0.0416818224,-0.0246920064,0.0258732028,-0.0983311683,-0.0076739909,-0.0812966004,0.0665268227,0.0907266438,-0.0996773914,-0.0440711156,0.1245480925,-0.0345194787,0.1660227776,-0.1243726164,0.0316382051,0.0014330265,0.2043554783,-0.0611012988,0.0006750964,0.1437114477,0.0747470632,0.0938268825,0.0305572655,0.1121689677,0.0048058932,0.0848440602,0.0019646077,-0.0687159970,-0.0808282197,0.1046031043,-0.0373308733,0.0559792295,-0.0230100155,-0.0120200254,0.0228724461,-0.1140051484,-0.0216039550,-0.1689687818,-0.1711496413,-0.1297604293,-0.0475443453,-0.0120546203,0.0558057129,-0.1169546470,0.0495195575,-0.0785490647,0.0603026077,-0.0292119905,0.0347961932,-0.1284380108,0.0227778479,0.0144308908,0.1896412224,0.1636232138,0.0302449092,0.0116625242,0.1866414994,-0.0229482781,-0.0867340341,-0.1294099838,0.0232152902,-0.0053669666,0.0579524897,-0.0793975070,0.0208348632,0.1225753427,-0.1358443946,-0.0451710448,0.0289479420,-0.0133484667,0.0153985582,0.0047943112,0.1133450568,0.1363296956,0.0917390585,-0.0446890928,0.0735528097,-0.0270311963,-0.0444355011,-0.0173994731,-0.0025197472,-0.1756116301,-0.0169141013,-0.0187739339,-0.0049990057,0.0816760063,-0.0036165097,0.0300572570,0.0064562070,-0.0009805217,0.0580943301,0.0141370017,0.0370051935,0.0332458280,0.1867930889,0.1258677840,0.0906169713,-0.0247514173,-0.0363888144,0.0629167333,-0.0345799364,0.1239086911,-0.0257140808,-0.1099280640,-0.1504733711,0.0019708925,-0.0916352049,0.1533623338,-0.1252396852,0.0883202553,0.0855467394,-0.0351148508,0.1784048826,0.0247289371,0.0461790264,-0.1201960221,-0.0245106854,0.1229772568,-0.0463738814,0.0369914770,0.0561549291,0.0384968184,-0.0317131020,0.0145560112,0.0078860037,-0.0538794138,0.0368423611,0.1408769935,-0.0532099679,-0.0449790284,-0.0284242742,-0.0423477888,0.0892398655,0.1795242578,0.0121674296,-0.0323215947,0.0139201805,0.0313126221,0.1165745258,-0.1180826649,-0.0826980919,0.0828070864,0.0440124832,-0.1095409766,-0.0191806443,0.0052025737,0.0212911349,-0.0781987458,0.1009543762,0.0131192664,0.0183152854,-0.1340790242,-0.0051380359,0.1099999174,0.1268798560,-0.1040406227,-0.0576481372,-0.0505437516,-0.0626182780,0.0022569157,0.1161911339,-0.0299700983,-0.0101679070,0.0419885181,0.0263587348,0.2033353746,0.0318808146,-0.0193149578,-0.0032175854,0.0539084151,-0.2024178356,-0.0188518465,0.0936950669,0.0404218733,0.0649207607,-0.0931772217,0.0542369336,-0.0220024586,-0.0833555385,-0.2028966695,-0.0751114413,-0.0067812311,-0.0168063417,-0.0233625509,-0.1022975743,0.1008183882,0.0996014476,-0.2140775025,-0.0141396336,0.0117743732,0.0950741991,0.0827254429,0.0397925228,0.1587679237,-0.0908325464,0.1158465296,0.1593363434,-0.0285851769,-0.1292831153,0.0460251011,0.0651315898,0.0579626709,0.0205070600,0.0419498719,-0.0327251256,-0.1317119300,0.1623169780,0.0558926798,0.0123199448,-0.1255813092,-0.0040667765,-0.0131836804,0.0889648646,-0.0073846844,0.1680713594,0.0648287609,-0.2168729901,-0.0415475480,-0.0394517817,-0.1104885414,0.0790016204,0.0455989689,-0.0203709602,-0.0285391640,-0.1457381696,-0.0471785292,0.0793692097,-0.0073099807,0.0047826483,-0.0883035883,-0.0395910814,0.1042600870,-0.0328790322,0.0353740528,0.1078284383,0.0478730910,-0.0524657220,0.0267998949,0.0472512953,-0.1162333563,-0.0327225253,0.1192365065,-0.0994464457,-0.0499414317,0.0053550103,-0.2149370164,0.0360507481,0.1314119548,-0.1767057478,-0.0816692784,-0.1821754873,-0.0192130394,-0.0489815623,-0.0193658862,0.0453733541,0.0106939031,0.0745629221,0.0432791747,-0.0599445254,0.0114349481,-0.1443936825,-0.0534342527,0.0562778674,0.0192233156,-0.0194978490,-0.0667228401,0.0723223016,-0.0567741767,0.0325233936,-0.0605283454,0.0502194799,0.0249922108,0.1960000843,0.1281341463,-0.1074020490,0.0393801033,0.0488699675,-0.1125903726,-0.0347515084,-0.0900710374,0.0027208100,-0.0858821273,0.1109074354,-0.0585564598,-0.0935047418,0.1026768610,-0.1337424964,-0.0970822871,0.0235055797,0.1456680149,0.0131440694,0.0152063305,0.0235578958,0.0717756376,-0.2140046060,0.1801952571,-0.1075666472,-0.0505029969,0.0367671661,0.0689736009,0.0802901313,0.0799375102,-0.0338722803,0.0120335622,-0.2060861588,-0.0340904035,-0.0429102965,0.0379168391,-0.0512395315,-0.0169121288,-0.0851031393,0.1365557909,0.0697536767,-0.0252910350,0.1394333243,0.0266693737,0.1191519350,0.0073830863,0.0238533579,0.0360929072,-0.1360134631,-0.1317316294,-0.1315006763,0.0836089775,0.1886612773,-0.0858014673,0.1220529675,-0.1482010633,-0.0680063069,0.0508051738,0.0318447798,-0.0965454057,0.0985396430,-0.1108417436,0.2195959836,0.0134541104,0.0075243670,-0.1004685387,0.0268604010,-0.0028580378,0.0379626527,0.1084750667,0.0963117406,-0.0323462524,-0.1357297152,-0.0642648712,0.0799965039,0.0983945206,-0.1210331693,-0.0785100460,-0.0111051332,-0.0609799586,-0.0133143757,0.1902037412,-0.1030995473,-0.0715630352,0.0446453281,-0.1433621049,0.0522542447,0.0100139733,0.0508081205,0.0976702347,-0.1611647457,-0.1423045695,-0.0849532112,-0.1329657882,-0.0097161802,0.0582004227,0.1086576059,-0.0287111793,0.0768216178,0.1712674499,0.0917337686,0.0184898935,-0.0218248051,-0.1350678205,-0.0444073752,-0.0296009537,-0.0594978817,0.0409076326,-0.0552405566,0.0243942533,0.1937938631,-0.1010445356,-0.1342477202,0.0927272364,-0.0744902566,-0.0239886716,0.1114071235,0.0576602332,0.0896074250,-0.0739620104,-0.1383141279,-0.0902928784,0.0538965277,0.0117723765,0.1113670543,0.0149057722,0.1525655240,-0.0777795166,-0.0573223829,-0.0918215588,0.1383145750,-0.0189193543,0.0262579937,-0.1485883445,-0.0367000997,0.1603539735,0.0007196301,0.0070350133,0.0060935831,-0.0162179507,-0.0095928060,-0.1175887212,0.1783277392,-0.0415510125,0.0854765773,0.0408688188,0.0950527862,-0.0347878449,0.0423894078,-0.1356247663,0.0200688858,-0.0155271208,-0.0602704659,-0.0042123902,0.0791361257,0.0651638880,-0.1236776412,0.0426123217,-0.0644281656,0.0608986877,0.0071925307,0.0543796159,0.1264027208,-0.0121551510,0.0727224126,-0.1092007160,-0.0531479605,-0.0452738106,-0.0718484446,-0.0145181688,-0.0487993024,-0.1145430058,0.1211644113,-0.0439779349,0.0456662141,0.1057173610,0.0702136457,0.0934594348,0.0113656297,-0.1378072351,0.0036114389,-0.1068140119,-0.0944144204,0.0584814698,0.0843361840,0.0911896452,-0.0126091717,-0.0373162776,-0.0873811170,-0.0479043797,0.0362372361,0.1469648629,-0.0260936897,0.1025814041,0.1009687334,0.0885535404,0.1522544324,-0.0684071928,0.0460908860,-0.0439887382,0.0230867378,0.1765438914,0.0133539885,0.1026222482,-0.1614609063,0.1327004880,-0.1465381086,-0.1188792363,-0.0832363144,-0.0799616352,0.0713514537,0.1086494923,0.1106324121,-0.0462090150,0.1008274034,0.0686518326,0.1518279910,-0.0259741340,-0.0374759883,-0.1191126108,0.0981917232,-0.1166164950,-0.0189983826,-0.0411092453,0.0259288885,0.0170125850,0.1426705271,-0.0072251516,0.1041248217,-0.0961010754,-0.0462528355,0.0328658000,0.0630475208,-0.0997911319,-0.0118696317,0.0300793815,-0.0891276374,-0.0257782545,-0.0476171337,-0.0536572710,-0.1253903359,-0.0887698233,0.0895005763,-0.0608539172,-0.0030690134,-0.0769158900,0.1858925223,-0.0700588897,-0.0556128621,0.0198295172,-0.1036337912,0.1183406189,0.0396602415,-0.0176945385,-0.0086336397,0.0014676133,-0.0712286010,-0.1894534826,-0.2039223313,-0.0250112973,-0.1169053689,-0.0830982924,0.0334517732,-0.0980870947,0.1357690096,-0.0220003836,0.0436484404,0.0419717170,0.0017281597,0.0512500033,-0.0416197702,-0.1419862211,0.0186622906,-0.0736432970,-0.0158004742,0.0015803163,0.0867463127,0.1083819494,0.0994252488,0.0401120670,0.0392949954,0.1597872376,0.1117237806,0.0190570150,0.1126418710,0.0334634222,-0.0424275659,-0.0374873802,-0.0400314629,0.0662122667,-0.0157009102,0.0043554455,0.0951052308,0.1230761558,0.1231715754,-0.0236962344,0.0124982027,-0.0036955066,-0.0598958433,0.0679209307,-0.0889050737,-0.1216578111,-0.0034439168,-0.0478248261,0.0068518128,-0.0045835823,-0.0270875227,-0.0317953341,0.0171479285,-0.0017926845,0.1763570607,-0.0378227457,0.0969105065,0.0793368518,-0.0707192123,-0.0500151962,-0.0619573072,0.0109532205,-0.1757702678,0.1256146878,-0.0204887912,0.1480432749,-0.1675370336,0.0979519784,0.1605252177,-0.0233999863,-0.0503264479,0.0152948741,0.0072710244,0.0343070775,-0.0178195797,-0.1200495213,0.0102664288,-0.0419940911,0.0031978223,-0.1268790066,-0.0495364293,0.0198250972,-0.1595819890,0.1143181100,0.0062994100,0.0350549221,-0.1066375449,0.1751096547,0.1218537390,0.0168655775,-0.1500280052,-0.0498597324,0.0259834249,-0.0322486311,0.0139446557,0.0029130178,0.0945562571,-0.0029416031,0.0044885497,0.0013921993,-0.0032822052,-0.1037257239,0.1317539066,-0.0620360784,-0.0562892258,-0.0912868157,0.0718657225,-0.0920886472,-0.1525984108,0.0345147476,-0.1302657574,0.1580049843,-0.1150167584,0.1236479804,-0.0673226938,-0.0037476316,0.0323933102,0.0865852088,-0.0229658764,-0.1352818608,0.1484096646,-0.0361679792,-0.0143972058,0.0618204437,0.0212364122,0.0791183263,0.1193247437,-0.0120291244,-0.1414743960,0.0178742409,0.0362096280,-0.1119961441,0.1421624571,-0.0862122998,0.0144207887,-0.1226998866,-0.1464857757,-0.0543262772,0.0567833073,-0.0441384427,0.0152711133,-0.0441926494,-0.0832063407,0.0780228078,-0.1455514431,0.1402046680,0.1528684050,0.0058823014,-0.0655205846,0.0014896106,0.0220814031,0.1321619749,-0.0808966681,0.0135846585,-0.0010372606,0.1324931830,-0.1109558567,-0.0921832770,-0.0826507509,0.0593968369,-0.0886752531,0.1048364267,-0.0707701296,-0.0668046921,0.0476568826,-0.1163201779,0.0699201822,-0.0176885724,-0.0396826826,0.1017742604,0.0861644000,-0.1207844540,-0.1024425775,-0.1610332131,-0.1389342248,-0.1245627627,0.0688686892,0.0752251521,0.1720010638,-0.1233772561,0.1093177944,-0.1197617203,0.0147430608,0.1097695455,0.0941788405,0.0446531735,0.0809774920,0.0401470251,0.0162258353,0.0029479081,-0.0152273662,-0.1261335909,0.0176127646,0.0357688814,0.1377581656,0.0767840073,-0.0731364936,-0.0974623710,-0.0164914485,0.0024998407,-0.1489201337,0.0202073846,-0.0034926324,0.1002143845,-0.0956501886,0.1480776966,0.0468587801,0.0981491357,-0.0714195743,-0.0031532140,0.0642719045,0.0835651234,-0.0485222898,0.0591112748,-0.0454088040,-0.0816671923,-0.1255164444,0.1681241691,0.1071783602,0.0250404924,-0.1511351913,-0.0428707153,0.0330686755,0.1072697267,-0.1025391072,0.1116030961,0.1011412665,-0.1160052046,0.0427012295,0.2600471377,-0.1546808630,0.0094623854,-0.0213941168,0.0317419246,0.0478351563,-0.0671280101,0.0331787579,-0.0213827603,-0.0797409341,-0.0692981407,0.1510401517,-0.0069282046,-0.0936574936,0.1553136855,0.0813464746,0.0753068551,0.1138647869,0.0024287242,-0.1531617045,-0.0526770949,0.1410750151,0.0080152899,0.0247603152,0.1105466262,-0.1228835881,-0.0379486755,0.0337545536,0.0953784361,0.1379816234,-0.0836935714,0.0467497483,-0.0511876047,0.0500164591,0.0036635764,-0.0183534585,-0.1443137676,-0.0828869492,-0.0430850424,0.0303637274,0.0887068659,0.0157150794,0.0719615743,0.0982585326,0.0224989336,0.0282178428,0.0629568547,0.1376324445,0.1440084428,-0.1199951172,-0.1164030284,-0.1062976420,-0.2029738873,0.1515853852,0.0930377916,0.0152166309,0.0006584892,-0.0067977430,0.0229638591,0.1223560050,-0.0274172481,0.1663282216,0.0027021195,0.0496184155,-0.0317486711,-0.0712278634,-0.1524957269,0.0537387170,0.0164694954,0.1105924323,-0.0198083911,0.0261842925,-0.0336569995,-0.2010651678,0.0078209238,0.1131382510,0.1093439236,-0.0343715586,-0.2254893482,-0.0794047788,0.1644344777,-0.0636690408,0.1756385267,-0.0896402076,-0.0226481352,-0.0039740945,-0.0329143405,-0.0372836702,0.0967308655,-0.1322871596,0.0519019105,0.0318747461,0.1200476587,-0.0581899732,0.0387111828,0.0005902800,-0.0064139604,-0.0139575843,0.1308082938,-0.0676966831,-0.0375146009,-0.0870469734,-0.1116516143,-0.0122701004,-0.0871317089,-0.1527157724,0.0261542015,0.1176035255,0.1027993187,0.0573151670,-0.0482476875,0.0864446387,0.1045563146,-0.0298135243,-0.2535426617,0.0768036768,-0.0627847239,0.0471852534,-0.1190562248,0.0537165701,-0.0097993286,0.1014117151,-0.0218278207,0.1516323090,-0.0763175786,-0.0482955202,0.0890384912,-0.1489732862,-0.0001050446,-0.0041356720,-0.0486391746,0.0902798101,0.0847140625,-0.0099701006,0.0033924542,-0.1656354815,0.0609564967,0.0033297637,0.1009840369,-0.0581401922,-0.1786071211,0.1045666337,-0.0299915131,0.0368640460,-0.0499419086,0.0314313807,0.0156794321,0.1221551001,-0.1941332072,0.0570502803,-0.1624434739,0.0048157289,-0.0799372867,-0.1100626141,-0.0399937481,-0.0143927019,-0.0217655897,-0.0130043281,-0.1176143214,-0.0180870257,-0.0276806802,0.0290619060,-0.1056383401,0.0639726818,-0.0178017747,0.0423483513,-0.1368850023,0.0625353456,0.0946815312,-0.0550989993,-0.0036768725,-0.0506298095,0.0139647471,0.0971888602,0.1130054891,-0.1545350701,0.0047115744,-0.0158439036,-0.1328020394,0.0061507211,0.0813649893,-0.0639631823,0.1261674315,0.0562262945,-0.0153739173,0.1290587336,-0.0863230377,-0.1234491691,0.1059203073,0.0584216677,-0.1297585368,-0.0545879267,-0.0904497653,-0.1226205528,0.0210802220,-0.1868980229,-0.0255029686,0.1082768664,0.0866513923,0.0244324207,0.1520980000,0.0310139693,0.0098240664,0.0832091197,0.1292603016,0.1354738772,-0.0163697414,0.0241794828,0.0379904211,-0.1007886007,-0.0862184316,-0.2092416286,0.1110822409,-0.0900208130,-0.0857176781,0.0555456541,-0.0241918266,0.0267666411,-0.0745289624,-0.0545999594,0.1111754999,0.0491651520,-0.1052286103,0.1843833476,0.0571192428,-0.0754502937,0.0401505940,0.0413739458,0.1080337390,0.0175212137,-0.0687868595,0.0166198332,0.0665505156,0.0014138641,-0.1864403337,0.1195621416,-0.0717549771,0.1130396202,-0.0165277738,-0.0290505756,-0.1078528464,0.0993728638,0.0416874811,0.1758853197,0.0210328456,0.0129287224,0.0436338745,-0.1718580723,-0.0296631847,0.1368508488,0.1337118596,-0.0127698286,-0.1038151458,0.0618827865,-0.0043219798,0.0614812747,0.1598694474,0.0333216228,0.0831099451,0.0375366472,-0.0644238666,-0.1520024985,-0.0859814286,0.0192279145,-0.1380319148,0.0972018540,0.1789762378,-0.0925310254,0.0424542688,0.0062775267,-0.0769094601,-0.1264346987,0.1571279913,0.0530814826,0.0827407017,0.1723326445,-0.0200367123,-0.0283323247,0.0065321941,0.1473252326,0.0032487218,-0.0349616706,0.0188121852,-0.0778432786,-0.0303221159,-0.0305295736,0.0233605560,-0.0396293849,-0.0125040384,0.0328328982,0.0165978260,0.1193121746,0.1926265061,-0.0028223791,-0.0208903905,-0.0830687806,-0.0267217811,-0.0350442305,0.0921694189,0.0023983293,0.1513180584,0.0116958851,-0.2113049477,0.0441466980,-0.0443473123,0.0628945306,0.1616530120,-0.0736101940,0.0861097723,0.0604676418,-0.0187892951,-0.1464468986,0.0455514863,-0.0366525054,-0.1807404459,-0.0123390881,-0.0363263488,0.0755509213,0.0651364699,0.0510495082,0.1231044382,0.1242805123,0.1316419989,-0.0406484902,0.1431827545,0.0468863323,-0.0293061156,0.0311459228,0.1198322773,0.1232205778,-0.0076775388,0.0852970555,0.1775684953,-0.0450702421,-0.0254997425,-0.1004247665,-0.0275955014,0.0532305986,-0.0849584341,0.1917662621,-0.0324593484,0.0249718055,0.1002535447,-0.0219713561,-0.0013715862,0.0548274703,0.0502783917,0.0506141856,-0.0234491415,0.0355129540,-0.0998575613,0.1137774959,-0.1686453372,0.0032764962,-0.0870585367,-0.1446438730,0.0750892609,0.1219942495,-0.0117977243,0.1387441754,0.0235271156,-0.0109311128,-0.0412756503,0.0317254551,-0.0850238577,0.0732045919,-0.0500336476,0.0900931284,-0.0650482476,0.0491590910,0.1447376311,-0.1527199596,-0.1203422472,-0.0013918834,-0.0805016235,-0.0023119675,0.0073595378,0.1005877033,0.0614830665,0.0639835969,-0.0620524064,0.0841988251,-0.0318374373,-0.1076503247,-0.0156041021,-0.0825837776,0.0337415598,0.0401098132,-0.0324405693,-0.1333078593,0.1400750130,-0.0390098989,-0.0532497391,0.0567261949,0.0246264469,-0.0757615045,-0.1885503829,0.0345752500,-0.0299724620,-0.1193855628,0.0763982534,-0.0902746841,0.0268904157,-0.1106182486,-0.0575494729,-0.0602257662,-0.1664530933,-0.0067870109,0.1618298143,0.1536781639,0.1263654977,0.0668647736,-0.0299387071,0.0155388657,0.0645232126,-0.0288551133,0.0822384506,0.0167419109,-0.0739018321,-0.0724478811,0.1208197922,-0.0077335462,-0.0354410633,-0.0417056978,0.0841107592,0.0606358722,0.0920288414,-0.1583145708,-0.0614243895,-0.0627379641,-0.0222424045,-0.1404824555,-0.1319719106,0.0446148105,0.0900941193,-0.1733024865,0.0833175406,0.0429984629,0.0042518573,0.0802607238,-0.0740816891,0.1059532538,0.1611564010,0.1262000650,0.0570766218,0.1452601105,-0.0280580427,0.2094388902,0.0135803837,-0.0074203298,-0.1376396269,0.0276427492,0.1448572874,-0.1400541663,-0.0983525515,0.0379042365,-0.0110824825,-0.0890306160,-0.0224897265,-0.0288983900,0.0682045966,-0.0420270115,-0.1763223410,0.0286699999,-0.0845901892,-0.0437229350,-0.0562516004,0.0666455552,-0.0343080238,0.0165747795,-0.0219718330,0.1264564544,-0.1156153828,-0.0934479982,0.0848659128,-0.1711848229,-0.1113384366,-0.0067784083,-0.1044718772,0.0778914541,-0.0233972631,0.0498192273,-0.0292638633,0.0871336833,0.0033345572,0.0034727207,0.0526415557,0.0979672074,-0.0447737873,-0.0084606558,0.0203569550,0.0741078854,-0.0214001909,-0.1121290252,0.1100594923,-0.1614026278,0.0997482687,0.0067004827,-0.0311220754,0.1455901861,-0.0275421832,0.0504709035,-0.0925359055,-0.1418794245,-0.0026797205,0.0243817605,0.0927805379,-0.0134732733,-0.0592766106,-0.1652826667,-0.0038249281,-0.1219706535,0.0374014527,0.0286976900,-0.0222637821,0.0259673893,0.0138635021,-0.1176299751,-0.0591476560,0.0367040001,0.1074274257,0.0370082594,0.1279969066,0.0517918430,-0.0600209348,-0.0156804491,-0.0144958282,0.0224279612,-0.1506049931,-0.0364237353,0.0684929639,-0.0538097061,0.0260907356,0.0173431206,-0.1523679793,-0.0777975395,-0.0693944842,-0.0035469525,-0.0570909530,0.0089934217,0.1115837619,0.0538440272,0.1239556670,-0.0188154466,0.0090329526,-0.0954512656,0.0935766101,-0.0409911536,-0.1514749080,-0.0800999627,-0.0197542217,-0.0015674372,0.0621519610,-0.0320189781,-0.0470143929,-0.1936801821,0.0849810541,0.0471456237,-0.0773835108,0.1238313690,-0.1048681140,0.0037619278,-0.0460993014,-0.1962249279,-0.0388353951,-0.0927981585,-0.0576485805,0.1819716990,0.0453301556,0.1792618185,-0.0418753698,0.1325736046,0.0129481843,0.1362649053,-0.0544072241,0.0242504124,-0.0124167092,-0.0228697322,0.1053214520,0.1965959966,-0.0536911823,-0.0655799359,0.0492110923,-0.0001961205,0.0953005031,0.0246657673,-0.0253435764,-0.0085049439,-0.0553245321,0.0098313754,-0.0025893983,0.1645494998,-0.0515045747,0.0298541933,0.1170256212,0.1228135601,-0.0140592614,0.1818091571,0.0600114949,-0.0093403636,0.0533741601,0.0172693711,-0.0860114470,0.1859806776,-0.0133121666,-0.1279888749,0.1151234657,-0.1004216969,0.0182240773,0.0248219185,-0.0026213019,0.0085327150,-0.1544208080,-0.0382773802,-0.1372534037,0.0669624209,-0.0731681362,0.0055696261,0.0634355471,0.0807925388,0.0752264038,-0.0311853625,0.0434106067,-0.1022471413,-0.1355196983,0.0742681101,0.0393202119,-0.0460646003,0.0002024085,0.0522356592,0.0813298523,-0.0028316702,-0.0699896142,-0.2268724144,-0.0349095315,0.0474843793,0.1262163669,-0.1327837259,0.1894868463,0.0791010633,-0.0287738387,-0.1497644037,-0.0242016036,-0.1234457046,-0.0860593617,0.0578298941,0.0761616677,-0.0637226477,0.0025461514,-0.0282303002,-0.0335066244,0.0334600694,-0.0829358995,0.0392909609,-0.0375762433,0.1078034341,0.0702019930,-0.0697610602,0.0584029295,0.0273093674,0.1267619431,0.0330629721,0.0446456783,-0.1206577122,-0.0848162621,-0.0248212144,0.0073999767,0.1154305637,-0.0585506447,-0.0376403034,0.0227353964,-0.0369934551,-0.0998296514,0.0315391198,0.0845229700,-0.0362507962,-0.0991049781,-0.0742020532,-0.1233830452,0.0453259908,-0.0353286862,-0.0122727109,-0.0016120054,-0.1030074731,0.0568155982,-0.1188730225,0.0155115342,0.0552014112,0.0440151952,-0.0126522100,0.0208876207,0.1293118745,0.0289834626,0.1424441934,-0.1190603003,-0.0957626104,-0.0830349997,-0.0998862162,0.1095349044,0.1344154179,0.0192060638,-0.1702967882,0.0776318982,0.0151431896,0.1138440371,-0.0953821465,-0.1895443797,-0.0139207505,0.0636721030,-0.1722651273,0.0424839444,-0.1927353889,-0.1046077162,0.0926388428,-0.0409713946,0.0794218630,0.0606506094,-0.0646517649,0.0237714332,0.1412830204,0.0426541083,-0.0529755391,0.0190081578,0.0839402229,0.0459202304,0.0605370589,-0.0703808069,0.0097224573,-0.0601791330,-0.2530275881,-0.0569968820,-0.0270868205,-0.0602368675,-0.1698428094,0.0202220473,-0.1796961129,0.0986620635,-0.1540399045,-0.0577622764,-0.0204513483,-0.1415896416,0.0057160333,-0.0730088055,-0.1542251557,0.0736918226,-0.0177514404,0.0470458046,0.1012372375,0.1343717575,0.0551784076,0.0703416839,0.0813624784,0.0237157512,-0.0130938329,-0.0671849623,-0.1003725678,-0.0439568348,-0.0442916080,-0.0993444249,0.0470743850,0.1460347921,0.0338426195,0.0748357028,-0.0846483335,-0.1597991437,0.0509208851,-0.0869969726,0.0573761985,-0.1098625734,-0.0325686373,-0.1467549205,0.0616522245,0.0043004579,0.0489325263,-0.1615990847,0.0232310034,-0.1195645854,0.0762778744,-0.0211801808,0.0106905727,-0.1069530547,-0.1866527200,0.1060058400,-0.0899823681,0.1052049547,0.1745689362,-0.0487327874,-0.0195215493,-0.0266642775,0.0774230585,0.1509097815,0.0358444639,0.0456248559,-0.1452838778,0.1281843036,0.0251474846,-0.0329083726,-0.1644046456,0.0039592884,0.0007408387,-0.0324429795,0.0200674832,0.0948437005,-0.0781892911,0.0241227448,0.0264339391,-0.0097649191,-0.0296622571,-0.0757302642,0.0086805727,-0.1328599006,-0.0426836535,0.1686048061,0.1217362657,0.1024053171,0.0535023957,-0.0836809799,-0.0483509265,0.0851453245,0.0259247497,0.0263292361,-0.0651604608,-0.0233571567,0.0125527745,0.0340511687,-0.0490217172,0.0218661465,-0.0126953265,0.0327677764,0.1364232451,0.0759162381,-0.1736677736,0.0187064782,-0.1709249914,0.0769222006,0.1425236464,-0.0103316782,-0.0760449916,-0.2050346881,0.0866197571,-0.1275827140,0.1026326567,0.0057592709,-0.0418046415,0.0106350444,-0.0215142779,-0.1134192273,0.0909632295,0.0142558357,-0.0153681897,-0.0439835005,-0.0015462037,-0.0443680212,0.0585687160,0.0637687594,0.0443069488,0.0440899059,-0.0772072449,0.1527730972,-0.1145589426,0.1080285683,0.1608821005,0.0086336965,-0.0398740172,-0.0108385440,-0.0136480862,0.0694277734,-0.0849744603,-0.1462796777,0.1441313475,0.0936498716,0.0807984248,-0.1516871452,-0.0732890591,-0.1351223737,-0.0516010709,0.0263878796,0.0646073520,-0.1792045087,-0.0318474881,0.0199422576,-0.0200076308,0.0586128160,-0.0868878514,-0.1013906226,0.0429972447,-0.0049766526,0.0321533121,0.1697192043,-0.0350269154,0.1271008849,-0.0573303439,-0.0489805415,0.0682055205,-0.0990296006,0.0971681848,-0.1196314394,-0.0635801703,-0.0562074222,-0.0166655425,-0.0887873173,-0.0452517048,-0.1300966740,-0.0626121312,-0.0697073191,-0.1021074057,-0.1527957767,0.0229418054,-0.0610669889,-0.1309280694,0.1267944276,0.1545426846,0.0014452898,-0.0073553622,0.1056048423,0.0369046777,0.0651106983,0.0223864075,0.0583233759,-0.0540527143,0.1181992516,-0.0454897396,0.0133820530,-0.0540450625,0.1006178185,-0.0019895167,0.0863747522,0.0476852059,0.1118851155,-0.0513866208,0.1259278506,-0.0123412637,-0.0131544191,0.0304335523,0.0174032729,0.1741054505,0.1499495059,-0.0725093558,0.1443251371,0.0726458877,0.0835456327,-0.0298722293,-0.0022444192,-0.0118073570,-0.1302267164,-0.0081857294,-0.0692835003,-0.0599998161,-0.0152674085,0.1491220593,0.0399271138,-0.0473000892,0.1192568317,-0.1679130644,-0.1233097240,0.0675318539,-0.0372367390,-0.0200153086,0.1166021451,0.0846266299,-0.0440506786,-0.0021974859,-0.0408754833,0.1709037274,0.0528839193,0.1054592058,0.0035975566,0.1194379404,0.0138517665,0.0700809360,-0.1206983104,0.1278587580,-0.0357593261,-0.0830062702,-0.0166616496,-0.0816086531,-0.0844611824,-0.0080650821,0.0612820014,-0.0314467400,-0.0268791504,-0.1240722165,-0.1017302722,-0.0579304025,-0.0799195096,-0.0033118345,0.0545987934,-0.0042076763,0.0508022942,0.0963509455,0.0500002764,-0.0909313336,-0.0531698167,0.0627381653,0.0792103186,0.1664949954,-0.0183679853,-0.0700143129,0.0103853056,-0.0918430984,-0.1220860705,-0.1102889255,-0.0101301176,-0.0104422523,0.1253042221,0.0630434081,0.1710101217,0.0638883114,0.1645206213,-0.0024297850,0.1089720353,-0.0295702405,0.1552038491,-0.0778746679,0.1383814812,-0.0441763587,0.1227202863,0.0066179405,0.1238570362,-0.1279622763,0.0313107409,-0.0417863056,0.0609326214,-0.0424547195,0.0812003687,-0.1062291861,0.0372156501,-0.0222338662,-0.1090778708,0.1528465748,-0.1257294267,0.0563890450,-0.0728653520,0.0766003653,-0.0143746827,-0.0382959694,-0.0022613090,-0.0427404158,-0.0281519555,-0.0056290566,-0.0191961098,0.0614583530,-0.0448514633,0.1221702248,-0.1328590810,0.1020921618,-0.0032495121,0.0158112776,-0.1845077723,0.0336951725,0.0304594599,-0.0994898602,0.0191600565,0.1191811338,0.1858758628,-0.1513733566,-0.1736406088,0.0543659590,0.0413855650,0.0224019829,-0.0103145782,-0.0690292642,-0.1068029255,0.0697221756,-0.1236661971,0.0322985984,-0.0158114973,0.0032630011,0.1126865968,0.1435951740,0.0947968066,-0.1130639240,0.0214357562,0.0050143907,0.0621440001,-0.0070470544,-0.0378115736,-0.0433270484,0.1033897027,0.0131581444,-0.1525167078,-0.1131965667,-0.2082823515,-0.0273432583,-0.0725631416,-0.0445083976,0.0162535943,-0.0621198677,0.0144061716,0.0165519975,-0.0594298504,0.0596065111,-0.0889654458,-0.0566961430,0.1295376420,0.1059014127,-0.1396995634,-0.0897922665,-0.0065922909,-0.0127295004,0.0601560958,0.1380567253,-0.0863226950,0.1119833514,0.0171665531,0.1116666123,0.0997475088,-0.1016915366,0.1104108468,-0.0970159546,-0.0227124467,-0.0219040196,0.0724655911,-0.0392420702,-0.1099298447,-0.0415092558,-0.0130435750,0.0451177917,-0.1240854338,0.0193963330,0.1320590526,0.0757755712,0.0305976532,-0.0538657568,-0.0645472109,-0.1500207037,-0.1166475341,0.1046972424,-0.1894240081,0.0520278178,0.1609349102,0.0009666160,-0.0004762514,-0.0790680125,0.0804900676,0.1493087858,-0.0994620696,0.0453875400,0.0735038817,0.1006559283,-0.0508731268,-0.0059676748,-0.0448151566,0.0354449712,0.0714044869,-0.0529259592,-0.0820318609,-0.1086795032,0.0183756184,-0.0048624342,0.1418223083,-0.0672757700,0.0403012894,-0.0752274543,-0.0026661658,-0.0991720185,0.0439598076,-0.0130065288,-0.1417132914,-0.2059541941,-0.0867784917,-0.1504160762,0.0419998989,0.0172317866,-0.1251636446,-0.0315663032,-0.0482423156,-0.1013019085,-0.0193815567,0.0548318028,-0.0685714036,-0.0854220837,0.0644591153,0.0289985240,0.0480306521,-0.0651003867,-0.1008663848,0.0602158420,0.0100262715,0.0269429106,0.0377821289,0.0056379666,-0.0998851657,-0.1137288511,-0.1110643744,-0.0685857609,-0.0052169459,0.1459955275,0.0780718625,0.0904604569,-0.0169493742,0.1039145142,-0.0515213385,0.0020862909,0.0598488823,-0.1620098650,-0.0143932356,-0.1036729291,0.0394231007,0.0529776923,-0.1433280259,0.0994389951,0.0611293353,0.0650156811,0.1055961400,-0.0672175363,0.0269302689,0.0557958595,0.0412448831,0.0611607768,-0.0445999391,0.0173930340,0.0594279580,-0.0027649251,0.0767598301,-0.0058418568,0.0375262983,0.0908912644,-0.0296812709,-0.1876317710,-0.0277504232,-0.0874371752,-0.0327327512,-0.0216052067,0.0160212498,0.0159299094,0.0272452664,-0.1069667637,0.0516419075,-0.1339051872,-0.1136598215,0.1386768669,-0.0245124120,0.0764390528,-0.0675346479,0.0148013541,-0.0671249852,-0.1587092280,-0.1280196905,0.1732582450,0.0328389518,0.0429221541,0.0423534997,-0.0129861198,0.0410373583,-0.0025815899,-0.1909364462,-0.0218387861,-0.0282185785,0.0048479973,0.0869859159,-0.1759341359,0.0147872390,-0.0213921387,0.0005340294,0.1143822148,0.0937622711,-0.0327463523,0.0605215840,0.0736552104,0.0095092561,0.0632127598,-0.1357765049,-0.0601328798,-0.0749213174,-0.1188913733,-0.0142050320,-0.0458477698,-0.1657828838,-0.0235018674,0.0645503253,0.0475973822,0.0822551697,0.1766558737,-0.0383476056,-0.0010791668,0.0295584202,0.1603489518,-0.0278788377,-0.0601628572,-0.0004279502,0.1435818076,-0.1919699609,-0.0642260462,0.0104998983,0.1640295237,0.0694491491,-0.1969748437,0.1366525292,-0.0106608430,-0.0607404523,0.1011485308,0.0583023205,-0.1670401394,0.1380098313,0.0635022819,-0.0501421802,-0.1861489564,-0.0799234807,0.0193886533,0.1663605869,0.0333016701,0.0443004631,-0.1808202267,-0.1056484953,-0.1325571835,0.1008742750,-0.0797830001,-0.0822116211,-0.0467268601,0.0855270922,-0.0399950258,0.0702018738,0.0305921156,0.0890271887,-0.0830679908,0.0575620532,0.0128401471,0.0946993902,0.0224374123,-0.0582185686,-0.0065378305,-0.0747039393,0.0799798667,-0.0650593564,-0.0413508192,0.0259090122,-0.1465708464,-0.0771176592,-0.1211341396,-0.0308384150,0.0640671924,0.0661152899,0.0716755316,0.0483783372,0.0443247147,-0.1329728514,0.0062205107,-0.0965927541,0.0684447661,0.0781906992,-0.0629554912,0.0696603879,-0.1285943240,-0.0825971812,-0.0492699407,-0.0276710913,-0.0218176991,0.0025208129,-0.0339480042,-0.0921387598,0.1818447411,-0.0530967005,0.0188410021,0.0617216416,-0.0250684600,-0.0376929790,0.0679781139,-0.1162843630,-0.1637827307,0.0332682207,-0.0181610975,0.0871668160,-0.1913210750,-0.0182174798,-0.1009970829,0.1552218199,-0.0642464384,0.0639060885,0.0952265933,-0.0673296452,0.0230451766,0.1444524229,0.0279803108,0.0101316096,0.0019958098,-0.0891156644,-0.1576905847,-0.1120433956,0.0513481647,-0.1547553092,-0.0985925645,0.0174605027,-0.0721416324,0.0618337691,-0.1483891606,-0.0985279679,-0.1147812083,-0.0038766165,-0.1183326617,-0.0323165357,-0.1946329027,0.0591036938,-0.0695060566,0.1248336881,0.0722360760,0.0157014988,0.1719549596,-0.0118243219,0.0422449671,-0.0975135714,-0.0674428642,-0.0630744472,-0.0854014531,-0.1049579531,0.1899499148,-0.1069881618,-0.1807099879,0.1379651576,-0.1083895192,-0.0648155883,-0.1530186087,0.0488925278,0.0576448888,-0.0696890727,0.1193428487,-0.0091973254,0.0205855072,-0.0655637085,-0.1479465812,0.0245465357,-0.0059065418,-0.0434484705,0.0202271063,0.1352970898,-0.1805485934,-0.1446693391,-0.1115472317,-0.0438842587,-0.1283089370,-0.0135841491,-0.1214777827,0.1177227646,0.0848119035,0.0248710085,-0.0708357692,-0.1507197917,-0.1391249597,-0.0053015882,0.0627434403,-0.0232001990,0.1457147449,-0.0638965890,-0.0846344531,0.0596053712,-0.0758711323,-0.0360822119,-0.0503786914,-0.0930198133,0.0868957192,0.0829875320,0.1489004195,-0.1024928689,0.0153519837,0.0005571737,0.0606361888,0.0418809727,0.1316178590,-0.0053484049,0.0366718620,-0.1104619801,0.1159077883,-0.0674416348,-0.0319163240,-0.0325187147,-0.0496281125,-0.0354344994,-0.0725157782,-0.0120501975,-0.1178021505,0.0195820108,-0.1186919436,-0.0025136077,0.0052386443,-0.0210943744,-0.1386295110,-0.0375875346,-0.1084176153,0.0562811308,0.0485314354,0.0587881655,-0.0767078474,-0.0989953876,0.0641999468,0.0102289580,0.1677987576,0.0930662528,0.0346280970,0.0147470487,-0.0250166953,0.0267920308,-0.1150710508,0.0544143915,-0.1284924299,0.0697591528,-0.0126608843,0.0175770316,-0.1015415788,-0.0063123219,0.0503083915,-0.0430769697,0.0402610041,0.0279766992,0.0252549760,-0.1355296224,0.0640009567,-0.0951041728,-0.1616149992,-0.0421258472,0.1637222022,-0.0528321639,0.1070625111,0.0484651998,-0.0362120755,-0.0849446580,-0.0698910132,-0.0224266835,0.0052347640,0.1372794360,0.0845619813,0.1294981092,-0.0319861285,-0.1108182669,-0.0068363105,-0.1755405962,-0.0493432358,0.0581374429,0.1125735417,0.0399835184,-0.0682330951,-0.1234889850,-0.0636682361,0.0207002144,0.0637436137,0.0285683367,-0.0795457512,0.0357054099,0.0083417986,0.0994706750,-0.1929342151,-0.0554105341,0.0392092578,-0.0341041647,0.0861815289,0.0189724490,0.0272420421,-0.0433270708,0.0140768401,0.1318380833,-0.0920681283,0.0969269723,-0.0866937935,-0.0312087368,0.0073420564,0.1016538069,0.0201366544,0.0541909933,-0.1148667708,-0.0008780875,0.0628807843,-0.1827718914,0.1301205158,0.0803286582,0.1106989831,-0.0485251062,-0.0941759571,-0.0406262726,-0.0504477136,0.1750586033,-0.0105571244,0.0840641707,0.1141946092,-0.0125539508,0.1221088544,-0.0662009194,0.0340186097,-0.0126697384,0.0096703926,0.0610530935,-0.0059211818,-0.1674743891,-0.1211578548,-0.1697825342,0.1643978953,0.1194604337,-0.1325259209,-0.1778325588,0.0413518213,-0.0119579993,0.0650238469,0.0185404401,-0.1443068683,0.0837721080,-0.0554992296,-0.0134930676,0.0896818042,0.0401136093,-0.1870009899,-0.0386842899,0.1047558933,0.0272389241,0.0261491127,0.0403723866,-0.1298735440,-0.0369413681,0.0594601147,0.1079065949,0.0983382389,0.0724221766,0.0960793197,-0.0549216829,-0.0150068542,-0.0573595017,0.0415846854,-0.1994105577,0.0488836616,-0.1023255512,-0.0931664780,0.0057256478,0.0008177186,-0.1178150475,-0.1277270019,0.0492672622,0.0355380401,0.1648942381,0.0523687899,-0.0438881330,0.0408012159,0.0242451020,0.0218628924,-0.1653581113,0.0934460387,-0.0024316590,0.0634667724,-0.1810146421,-0.0451801531,-0.1527589262,-0.0749983639,-0.1065458581,-0.0711356476,-0.0826899782,-0.0939993337,0.0767909884,0.0442778133,-0.0202226900,-0.0677928254,-0.1049513444,-0.1500443518,-0.2021712363,-0.0192408562,-0.0007882870,0.0982732400,-0.0662713051,0.0870333761,-0.1936322898,0.0329712182,-0.1357661933,-0.0577492416,-0.0175260101,-0.0319100693,-0.0485723205,-0.1528854966,-0.0482503884,0.0431623347,0.0080117481,-0.1156132072,0.1376827955,-0.0941019356,0.0246115364,-0.0908668786,-0.0131896641,-0.0640345737,-0.0151173538,0.1213872358,0.0309594609,-0.0715409294,-0.0591234080,-0.1037139967,-0.1514199972,0.0589579865,-0.0618698150,0.0516766645,0.0761042908,0.0232631322,0.0027798519,0.0063881110,0.1419256032,-0.0536940172,0.1342177689,0.0560854301,-0.1281767637,-0.1250685751,-0.0489156917,-0.1292261332,-0.0645210966,0.0824352279,0.0785669908,-0.0359043442,-0.1309417188,0.0698562339,-0.0843922272,-0.0044422895,-0.0990838557,0.1084521413,-0.0412612483,-0.0941471457,-0.0668326616,-0.0437188931,0.0267996490,-0.0567325950,-0.0076326234,0.0352488197,0.1590353549,-0.0484151281,-0.0011149109,0.0967261568,-0.0099888304,-0.1556635648,0.0786010027,-0.0776846185,-0.1545322239,0.0969497338,-0.0468377061,0.0888419375,-0.2009939551,0.0356984846,0.0289018787,-0.0274584703,-0.1629407108,-0.0234486759,-0.0140368957,0.0567541085,0.0605284385,0.0944008380,0.0391795188,-0.0192501526,0.1265853047,-0.0889676139,0.0286300220,0.0034658448,-0.0693081617,0.0416213833,-0.1380780488,-0.0103648556,-0.0730569735,-0.1450064033,0.0134490449,0.0244996250,-0.0557017624,-0.0731984675,-0.0954045951,0.0183229651,-0.0857617930,-0.0246955268,-0.0155241201,-0.1034641713,0.1341296285,0.0683670938,-0.0846433416,0.1377657354,-0.1858514100,0.0342755429,0.0392819978,-0.0877187401,-0.0359878838,-0.0846061930,-0.0517025925,0.0665920451,0.0118361274,-0.1336189061,-0.0952492952,-0.0035780531,0.0724775195,0.0274227764,-0.0465654582,-0.0348003171,0.1257005185,-0.0708378851,-0.0905428231,0.0362303406,0.0170142874,-0.0693708286,0.0912496969,-0.1327566355,0.0052511180,0.0774136335,-0.0105888462,0.0323990509,-0.0024393669,0.1114011705,0.1736492813,0.0271659903,-0.0863340870,0.0434085093,-0.1405497789,0.0603267252,0.1402563602,-0.0192210525,0.0683164820,-0.0333974287,0.1420514882,0.0464870222,-0.0351388417,-0.1032885015,-0.0976544395,-0.1027022451,-0.1297244728,-0.0546771176,0.0829858780,0.0643464699,-0.0876725838,-0.0050828876,0.0457686633,-0.0591573790,0.0068185851,-0.0310462266,0.1674896628,0.0402672961,-0.0959497094,-0.0554991551,-0.0560666993,0.0808409676,0.0522387139,-0.0042852578,0.1418581903,0.0975031182,0.0702953860,-0.0470497943,-0.0292584021,0.0243924651,0.0380072221,0.0030727990,-0.1811258942,-0.0456481203,-0.0878624991,0.0442656167,-0.0170381926,-0.0906300694,0.0348381847,-0.1868011951,-0.0769966021,0.0856198147,0.0535189360,0.0706052929,0.0857310370,-0.1362964958,0.0298191495,0.1443789154,0.1816663593,0.0983211398,0.0415352695,0.0198717508,0.0507189147,-0.0503694192,0.1487259120,0.0003871151,-0.0941448584,0.0019791997,0.0785226375,-0.1157208607,0.0275846310,-0.1085886210,-0.0933779776,0.0852058381,0.0339301564,-0.0967153683,-0.0470570251,-0.0981473327,0.0641156733,0.0992499888,0.1336444467,0.0683607161,-0.0578433722,0.1470788717,-0.0227448456,0.0716539696,0.1187358871,0.1725080013,-0.0107373847,-0.0093959756,0.0097336583,0.0793719292,0.0571827814,0.0210871454,-0.0415839814,0.0066318894,0.0334239192,0.0977383032,-0.1152032912,-0.0982641727,-0.0021346530,-0.1955356449,-0.0875516087,0.0725476071,-0.0138228387,-0.0161748640,-0.0027919149,-0.0826171860,0.0414590426,-0.0690144300,-0.0646172836,0.2261430323,0.0817224011,-0.0719888583,-0.1515335292,0.0298686512,0.1419456601,-0.0156404749,-0.0147520369,0.0835281163,0.0620844625,-0.0739940256,-0.1509898901,0.0153766237,-0.0984148905,-0.0828892514,-0.0638043284,0.0703297034,-0.1007094234,-0.0476832576,-0.0101458961,0.0473123901,0.0116213858,0.1008282080,0.0115043791,-0.0268821307,0.0933353305,0.1005695686,-0.1116680726,-0.0230163150,0.1752788872,-0.0597684234,0.0779156163,-0.0857096389,-0.1380611956,0.0111771375,0.0219958555,0.0557265766,-0.0352324843,0.0098882858,-0.1021517888,-0.1527735591,-0.0198662616,0.1160367578,-0.0507657714,-0.2066600323,0.0100640887,0.0706238449,-0.0335906148,0.0429560542,0.0304706078,0.0473239273,-0.0735369921,0.0680341944,-0.0568603724,0.0277439356,0.0266746804,0.0032127157,0.1042999998,-0.1783516854,-0.1052138656,0.0743112117,0.0688162595,-0.0863469467,-0.1541009545,0.2103714496,0.0041174507,0.1412280053,-0.1070811376,-0.0535103083,0.1427859217,0.1402717680,-0.0804346278,0.1621047258,0.0607322529,-0.0398151763,-0.0028689734,-0.0600478724,-0.0197620094,-0.0652616397,-0.2003376782,0.0284348745,-0.0721164569,0.0682735369,-0.0693832487,0.0683563575,-0.0344620943,-0.0959903151,-0.1637635678,0.1048578992,-0.1512200087,0.1070294082,-0.1418909580,0.0667871013,0.0991188288,0.0287655331,0.0938417763,-0.1450521648,-0.0576147698,0.0582021959,-0.1049500853,-0.0456962548,0.0413281135,0.1016901955,0.0318579227,0.0701206848,0.1422209889,0.0297246519,0.1368551999,-0.0401437804,0.1385083944,-0.1393906772,-0.0243991520,-0.1686822772,-0.0560115613,-0.0234653596,-0.0435107835,0.2144414037,0.1992773116,-0.0395438857,0.1333223283,-0.1154989451,0.0228476133,-0.1705895215,-0.0153516559,-0.0507363826,-0.0762698948,0.0819530189,0.0041198712,0.1169893816,0.0505209565,0.1713363379,-0.1019299626,0.1512729079,0.0605845116,0.0767210796,-0.0172258765,0.0459880233,0.1631395370,0.0784085244,-0.0840273798,-0.1983630657,0.0956070423,0.1890158504,-0.0196929798,-0.0262406990,-0.0473764278,0.0372544490,-0.0509433113,0.1277116835,-0.0159990061,-0.0528160520,0.0184173826,0.0008501431,0.1739238948,-0.0552652925,-0.0673422068,0.0208091158,-0.0063869939,-0.0301454775,-0.0448586792,0.1111627445,-0.0499587208,-0.0847165659,-0.0895851105,-0.0609114207,-0.0687823147,0.1435845345,0.0872226581,-0.0334644020,-0.0883611888,-0.0845517367,-0.0023248964,0.1889411360,-0.1706566513,-0.0010940311,-0.0653139874,0.0297974907,0.1102196947,-0.0961119905,-0.1152698919,0.1311770976,0.0105652995,-0.0953735858,0.1481614113,0.1289941818,-0.1227391809,-0.1716596931,-0.0133121265,-0.0429862291,-0.0206217282,0.0855456814,-0.0072578341,-0.0101535898,-0.1689192504,0.0978560597,0.0782934576,0.0735003799,-0.0228469260,-0.0049200174,-0.0344498344,-0.0513432585,0.1171911657,0.0358985253,0.1666986346,-0.0990588292,0.1463336647,-0.0104817403,-0.1492839456,-0.1623617113,0.0082739461,-0.0884586424,-0.0075099911,0.0461273342,-0.0027619491,-0.0407290719,0.0130556058,0.0449236035,-0.0162342694,0.1442966461,-0.0180322323,-0.0874740556,0.1343921274,0.1344289482,-0.0755290240,0.0955311060,-0.0094825448,-0.1451375186,-0.0309031066,0.0367438756,-0.0360502079,-0.0437256992,0.0653067231,0.1599659771,0.0479174480,0.0767381191,0.0483947322,-0.0328344591,0.1711390764,0.0767618418,0.0828699395,-0.0868861601,0.1400274932,-0.0650184676,0.1936352104,-0.0569549873,0.0554269664,0.1479216516,0.0425672866,-0.1560542285,-0.0253526568,-0.0137731768,-0.1116652116,0.0598900504,0.0701232031,0.0135450559,-0.1437234581,0.0307032000,-0.1082607955,0.0780412778,0.0838576928,0.1553750634,-0.0479514413,-0.0302426722,-0.1238818020,0.1021109819,0.0061074188,-0.1096114069,-0.1940437555,0.0195272006,-0.0457043089,-0.0798445120,0.0870876461,-0.1189633757,0.0036649471,-0.1022394449,0.0798980445,-0.1054004878,0.0996402130,-0.0824810192,0.1732619703,-0.0150934458,-0.0645654351,0.0548814833,0.1520836204,-0.0818153098,-0.0161069129,-0.0714986771,0.0853744820,-0.1633947194,0.0544921122,-0.0899900123,0.0800275952,-0.0307192691,-0.1323128492,-0.0790252313,0.0686887801,-0.0037512346,-0.0571950041,-0.1266807914,-0.0924467891,-0.1008622348,-0.0358309448,0.0168515127,0.1185630709,-0.1231509894,0.1694740057,0.1590888351,0.0211764798,0.0374111719,-0.0008386685,0.0107524144,0.1019974425,0.1188723296,-0.0652632415,-0.0084328353,0.0931556523,-0.1731872857,0.1250697225,0.0887415186,0.1245551929,-0.0098652989,-0.0287659634,0.1465417147,-0.0740768835,0.0261731688,0.0048851110,-0.0041415426,-0.0526320636,0.0077283373,-0.0757298246,0.0472964384,0.1421817243,0.1154050604,-0.0610845461,0.0725903139,0.0364897847,-0.0350610167,-0.0545858555,0.1155508757,0.0953971818,0.1302748919,-0.0326190330,-0.0877265707,0.0587031357,-0.1137966961,-0.0479669124,-0.0035929221,-0.1707805544,0.0268481839,-0.0677922294,0.0350263081,-0.1071772724,-0.0256120041,0.0163291804,-0.0318562537,-0.1514656097,0.1627789140,-0.1252736002,-0.1554832906,0.0056267385,0.0218073763,-0.0194099285,-0.1766402274,-0.1081019491,-0.0763357356,-0.0586456917,-0.1430135071,-0.0015499223,0.1470666230,-0.0869392976,0.0408192016,0.1694876999,-0.0529559366,0.1159916222,0.1029661968,-0.0682436153,0.0532798469,-0.0113425432,0.1005333662,0.1636201143,-0.0982363597,-0.0267200153,-0.0027331216,-0.1316431761,0.0236106105,0.0755461380,-0.0978826582,0.1610067189,0.0199107938,0.0071734646,0.0444854833,-0.0424727574,0.1741547883,0.0736873001,-0.1694996059,-0.1353426576,-0.0422226153,0.0862326249,0.1190878451,-0.0812978595,0.0214774329,-0.0950185880,-0.0117828380,-0.2322689891,-0.1484103650,-0.0079783527,0.0504726842,0.0942758992,0.1718733609,-0.1879883558,-0.1622702628,-0.1805428118,-0.0529894568,0.0182789192,-0.0948018804,0.1505015641,-0.0812186524,0.0468159430,0.0277679432,0.0448116139,0.0495525338,-0.1168200076,-0.0470365621,-0.0912510082,0.0185116939,-0.0501029752,-0.1774387509,-0.1919693202,-0.0532806106,-0.0442295372,0.1031961367,0.1194027886,0.1215751097,-0.0510107055,-0.1748867333,-0.1181534827,-0.0037378119,0.0175940599,0.1647987217,-0.0372816138,0.2208995372,0.0350000672,0.1149524748,-0.1077862009,0.0981332883,0.1091964319,-0.1227758452,-0.0166107919,-0.0699687600,-0.0626069084,0.0538675040,0.0534723774,-0.0013469903,-0.0614824854,0.0909630135,-0.1034349427,-0.0063742138,0.1670837998,0.0045794481,0.0190387256,-0.0295669101,0.0408643298,-0.0357147530,0.0078979181,0.1644017547,0.1402433664,-0.0924557820,0.0727773234,0.1422635615,-0.1429998279,-0.0789715946,-0.0272784475,-0.1533073783,-0.1639830321,0.0259722639,0.1693051159,0.1716377139,-0.0920018181,0.1184847578,0.1242726669,-0.0424201563,0.0368644111,0.1352228969,-0.1386118233,-0.0666445270,-0.1006746292,0.0006576168,-0.0225021392,0.0643484816,0.1365629733,-0.1151474193,-0.0724797696,-0.0714243501,0.0798137933,-0.0076319338,0.0356307514,-0.0770253018,0.0363440067,-0.1050675884,-0.1120482013,-0.1282668412,-0.0431575291,0.0965218171,0.0813081339,-0.0224623531,0.0769404545,0.0792439356,0.0370350704,-0.0628360733,0.1044349000,-0.1567835510,-0.0944018066,0.0427889936,-0.0857046470,-0.0312956274,0.1772348285,-0.0018472683,0.1436509639,0.1481097639,0.0155539019,-0.1222207993,0.0261064637,-0.0179361403,0.0988199040,0.0927294716,-0.0261222105,0.0683673993,0.0648416281,0.0925728232,0.0769420490,-0.0998651534,-0.1357591748,-0.1256164312,-0.1502489150,-0.0049674562,-0.1592005938,0.0344249569,0.1530715525,0.1592988521,-0.0086909402,0.1731419265,-0.0811997354,-0.1856480092,-0.1033539101,0.0106902793,-0.0952463746,0.0568811856,-0.1148028523,-0.1317327619,-0.0612856597,0.0910440534,-0.0049644164,0.1491947919,-0.1319368035,0.0625951439,0.0895152241,0.0616668984,-0.1806557775,0.0162642393,0.1257762164,0.0679908842,-0.1563722044,0.0607245006,0.1758462340,0.0284811556,0.0376444198,0.0728531033,-0.0491328128,-0.1188517362,0.0434114337,-0.0155215738,-0.1393542141,-0.0064329160,-0.1952906549,-0.1099998355,-0.1086935699,-0.1420729011,-0.0787834078,-0.0033176276,-0.0228725560,-0.0463386886,-0.1702240109,-0.1516230106,-0.0366592668,0.0305096544,0.1196423844,0.0687373728,-0.0175474361,0.0344459265,-0.0121247321,0.0029093546,-0.1651611775,0.0857823119,0.1716289222,-0.1011602357,0.1282581687,-0.0004509412,-0.0687797666,-0.2216485143,-0.1177463531,0.0257344134,0.0478482805,0.1198126897,0.0837628320,0.0566827022,-0.0443280526,-0.0497629941,0.0523654409,-0.0864336565,-0.0233129878,0.0330387205,-0.1359128952,-0.1595968157,-0.0340159163,0.1932894289,0.0147093581,-0.0786223859,0.0105514703,0.0695450455,0.0788802058,-0.0010060985,-0.0148534225,-0.0878114253,-0.1147720814,0.0451439321,0.0783031508,-0.0767879412,-0.1049207374,0.0302351210,0.0264054388,0.1026458144,-0.0195145085,-0.0044785249,-0.0061917612,-0.0839943439,-0.0399214998,0.0611492991,0.0218444429,-0.0953194425,-0.0421627983,0.1109912619,-0.0402974375,0.1624087095,0.0020576385,0.0030456022,-0.0439000092,0.0226580426,-0.0245664380,0.0639828965,0.1267013103,-0.0250170082,0.0737446770,0.0732538700,-0.1542457789,-0.0552117079,-0.0687920749,-0.0870235413,0.0773487091,0.0389292203,-0.0348643325,0.0691405907,0.0560383312,0.2078313828,0.0248545967,-0.0526225381,-0.1088238284,-0.0078784786,-0.0281889867,-0.0602423586,-0.0176801346,-0.0630681440,0.0256494023,-0.0456600115,0.0164335314,-0.0896273851,0.1004982963,-0.0463043749,0.1141880378,0.0560871959,-0.1079501882,-0.0627038851,-0.1225856841,-0.0416570641,-0.1277091801,0.0952041671,-0.0546074323,-0.0116236359,0.0053354772,-0.0916787758,-0.1856042445,0.0058596283,0.0640290752,-0.0386328399,-0.0244168304,0.1364730000,0.0790728778,-0.0331059285,0.0284935255,-0.0454009250,0.0892864838,0.1237770617,0.0175178796,0.2095732540,0.0458178259,0.0320568234,-0.0276107695,-0.1808636785,-0.0268844441,0.0534215011,-0.1028261259,0.0598382428,-0.0312125850,-0.0901196450,-0.1610093266,0.0570411123,0.0433628932,0.0239835624,-0.1023562402,0.0089387204,-0.0099064456,-0.0413221642,0.0610205904,-0.0478114262,-0.1257254183,-0.0268620178,0.0743520409,-0.0759840235,0.1298747361,0.0129814027,-0.1322548836,-0.0316547751,0.0448404849,0.1235730499,0.0316125676,0.0741077885,0.0500246771,-0.0697478279,-0.2227188498,-0.1923013330,-0.0121122608,0.0571114682,-0.0858438089,0.0184732229,-0.0518690906,0.0347346552,-0.1054111943,-0.0263147745,-0.0991214290,-0.0042643449,-0.0130166532,-0.1740870476,0.0412578620,-0.0131836776,0.1004783809,-0.0080017783,0.0675839111,-0.0178362522,0.0096417796,0.0558076240,0.0099230194,-0.0092275413,-0.0607130416,-0.0617442019,0.0939012989,-0.0540381745,0.0209261011,-0.0087213973,-0.1126959622,-0.0454930812,0.0285035316,0.0767020509,0.0000290084,-0.0313439108,0.0367391855,-0.1242418066,-0.0199502353,0.0274255443,0.0425303020,0.0652431324,0.0225253962,-0.1273311228,-0.1180776730,-0.0479725786,0.0025665525,0.1236813739,0.0568702221,0.0156410933,0.0466118939,-0.1481553465,0.0767452344,-0.0859146118,0.0542097762,0.1055410430,-0.0055220486,-0.0142837996,-0.0342197903,0.0083099930,-0.0878652334,0.0857814550,-0.0516459420,0.0830715075,0.0109245311,0.1238079742,0.0430009253,0.0261921715,0.0277165044,0.0137557993,-0.0333146863,0.0333265103,0.0578390099,-0.0229944550,-0.1987446994,0.0033830844,-0.0683521926,-0.0010930913,-0.0738513544,-0.1187655628,0.0441185124,-0.0030463852,0.0178775303,-0.0565525182,0.0826900899,-0.0736658201,-0.0939747095,-0.1052077934,-0.1344011575,0.1725011468,0.0212728456,-0.0078899274,-0.0307540335,0.0351339132,-0.1035411805,-0.1473024637,0.0308409538,-0.1124909893,-0.0930493623,0.0982718840,-0.0682945400,0.0370906666,0.1121239066,0.1153761074,-0.0061739152,0.0518036373,-0.0511880778,0.0336414389,-0.0476512425,0.0355099700,-0.0086709494,0.0708835721,0.0954225287,-0.1112310290,-0.1060664281,0.0246737003,0.1636048853,-0.1455581784,0.1523845196,0.0713658705,0.0047945553,0.0419203341,-0.0408285446,-0.1254207641,-0.0633296818,-0.0492501333,0.0630379617,0.0859012902,0.0241901428,0.1439826190,-0.0485871546,-0.0089698564,0.1553227454,-0.0520760939,-0.0349185988,0.0490456857,-0.0591393262,-0.1264192164,-0.0866601542,-0.0560771227,0.0479057580,0.1553562731,0.0470907614,0.0187826827,-0.0251964051,-0.0737377554,-0.0755431876,-0.1364482492,-0.0372021124,-0.0219916049,-0.0198609065,0.0274634436,0.0879276022,-0.1461403966,0.1391979307,0.1909598410,-0.0781098008,-0.0413640551,-0.1132010520,-0.1296972036,0.0170200672,0.0909546092,-0.0105881495,-0.0068539036,0.0600173660,0.0106572984,-0.0686947256,-0.1098704338,0.1401769072,0.0106180077,0.1021004096,-0.0699758381,-0.0660683513,0.2020321488,0.0059665996,0.0533441156,0.0241090208,0.1726926565,-0.0196771603,-0.0312157366,-0.1159364954,0.1604714841,-0.0552021712,-0.0302146282,0.0102780294,-0.1457208693,0.1490904242,0.0752868503,-0.0287857801,0.0206491016,-0.0602991171,0.0677600875,0.0313215703,0.0604050383,-0.0449176393,-0.0880393013,-0.0694501251,0.0943806991,0.0076025953,-0.0725528523,-0.0688369200,-0.0448626094,-0.0554540455,0.1002849415,0.0391002037,-0.0314514190,-0.0620479845,0.0196743626,0.0821914896,-0.0649351105,-0.0116742225,0.0449110232,0.0234986320,0.1174602732,-0.0795925483,0.1090383083,-0.1705643237,-0.1475155950,-0.2007815838,0.0106454827,-0.0272451863,0.1044771820,-0.0889514759,-0.1075910181,0.1014136598,-0.0650845990,-0.1832135320,0.0462477021,0.0921219811,-0.1025233194,0.0999476984,-0.0505733863,0.0042846999,0.0733742937,0.0697666854,-0.0307313930,0.1009856462,-0.0772907510,0.1088898629,-0.0437797084,0.0308020785,0.1581085771,0.1202961206,-0.0449823774,0.0245842487,0.1591612697,-0.0855760798,-0.0237735100,-0.0789070725,-0.0829578936,-0.0781378821,-0.0344556905,-0.0922193453,0.0729001611,0.1142393649,0.0060489462,0.0152498642,0.0791728944,-0.0806896910,0.1055034101,0.0919100791,-0.1063703895,0.1056063101,-0.0575649962,0.1240639538,-0.1755255163,0.0547749512,-0.0107644154,-0.0747358501,-0.0592820533,-0.1411202401,0.0601890311,-0.1698231697,0.0930414051,-0.1141985208,0.1564523131,0.0234320462,-0.0280611180,-0.0476591326,0.0781215280,-0.0409812033,-0.0343768559,-0.2157034129,0.0240234565,-0.0221459698,-0.0922463909,0.0062542809,0.0274383854,0.0098352386,-0.1512031704,-0.1248093024,0.0372488387,-0.0486082435,0.0686644539,-0.0120915342,0.1185844019,-0.0640297234,-0.0402459987,0.0128038432,-0.0144653423,0.0413391814,0.0615886413,0.1143116206,0.0067991428,-0.1097604185,-0.0372465998,-0.0701790377,-0.1606977582,-0.1603320092,0.0466183349,0.0082905013,-0.1804111749,-0.0123369349,0.0492991991,0.0730183870,0.1281272322,0.0759559944,-0.1515332758,0.0758776516,-0.1269669533,-0.0272023156,-0.1106510982,-0.0731251091,0.1631123871,0.0187737830,-0.1035883054,-0.0969143808,0.1525276899,-0.1784866005,-0.0682019219,-0.0380856395,-0.1212010086,-0.0164961517,0.1264340878,0.1472005695,0.0016741100,-0.1313194633,-0.1809965074,-0.0121788969,0.0086369682,0.1406408846,0.0231790747,0.0143110994,-0.0273910165,0.0524291284,0.1132544354,-0.0194046013,0.0854582191,0.2084777951,0.0009482645,0.0112844761,-0.0427596569,0.0188731737,-0.0026524884,0.0453416444,0.0982958898,0.0480339229,0.1785479039,0.0973249078,0.0390948951,0.0080372896,-0.0414603129,0.0717057213,-0.0041161124,0.0373319089,0.0720386058,-0.0326473191,0.0401264578,0.0669637322,-0.0083802789,-0.0936471447,0.0779668689,-0.1477686018,0.1753121614,-0.0204233658,-0.0265942793,0.0466385074,0.0098838350,0.0019552761,0.1057545021,-0.0565204099,0.0682281628,-0.1349877864,0.0724428818,-0.0839730427,0.0811861381,0.0014591296,-0.0873053670,0.0786819085,0.0858694986,-0.0240454040,0.1751873195,0.0180297382,0.0228802674,0.0534677505,-0.0723034143,0.1067623422,-0.1068724617,0.0454122759,0.0113722393,-0.1052444950,0.0659010410,-0.1239556149,-0.0233420376,0.0837141871,0.1048278362,-0.0307149496,0.0199611634,0.0524641983,-0.0463937633,-0.1916005909,0.0146400081,0.0554890148,-0.0022648063,-0.1376106590,-0.0199898779,-0.0866290629,0.0441471078,0.0653011575,0.0978495255,-0.1090861037,0.0148225827,-0.1455230564,-0.1574750096,-0.0252722017,-0.0682535544,-0.1216495335,0.0795698836,0.1762868017,-0.0901123732,0.0378977694,-0.1884047538,-0.0928408131,-0.0414804444,0.0745536238,0.0817229971,0.1284430772,0.1005979553,0.0039358381,-0.0511522368,-0.1567990035,0.0234743766,0.1568177938,-0.1349147707,0.0337214731,0.1307092160,-0.0032446526,-0.0363372900,-0.0927241668,0.1753308624,-0.1524238139,0.1885236949,0.0214261338,0.0496517457,-0.0375210047,0.0564510971,-0.0964033231,-0.0663322359,-0.0599033237,-0.0243647005,-0.0411310382,0.1054614261,-0.1207178086,0.0502993427,0.0953149050,0.0294701289,-0.0843239576,-0.1112764999,0.1556514651,0.1093728691,-0.0563160852,-0.0815730318,0.0369079076,-0.0736443549,-0.0142141180,-0.0583974496,-0.0524524897,0.1649840176,0.0106529472,-0.0661786124,0.0521891117,-0.0434917733,0.0194254536,0.0695594698,0.0562816337,-0.0917868987,-0.0531662479,-0.0542279556,0.0395052433,-0.0733268633,-0.0294338744,-0.1562070101,0.1532450169,0.0972395763,0.0622835197,0.1152151078,-0.1228549406,-0.1501170993,-0.0207261089,-0.0831820667,-0.0205050427,0.0368553773,0.0031901705,-0.1867343038,0.0214219503,0.0662832484,0.0803850070,-0.0020930241,-0.1221432462,-0.0261603389,-0.0375503227,-0.1434275210,0.0479481965,0.0048913895,0.1082085148,-0.1467949003,0.1005832031,-0.1015168279,-0.1390666813,-0.1463601291,-0.0094391853,-0.1415881813,-0.0281632822,0.0949341357,0.0986083448,0.0691076145,-0.0672281608,-0.0719939321,0.0859547779,0.1079109684,0.1479426473,-0.0811473951,0.0740422979,0.0269132983,0.0345168114,-0.1512140632,-0.0057588443,-0.1859935224,0.1198230982,-0.0051364684,-0.0066488814,0.1331530809,0.1165600270,0.0575732067,-0.0252272673,-0.1330124140,-0.0947188437,-0.0223146435,-0.1111054420,-0.0142582189,0.1758663058,0.0390931703,0.0670473054,0.1204848737,0.0789594129,0.0335266814,-0.0027235211,0.0193791818,-0.1310858727,0.0804088935,-0.0162687376,-0.0005972511,0.1036082134,-0.0335990228,-0.0260390323,0.0745361373,0.0457060747,-0.1209615171,0.0029183966,-0.0828247070,0.1264348477,0.0152643723,-0.1204248667,0.0323110446,0.1211371273,0.1179182976,-0.0269462131,0.0892008692,0.0592108332,0.0906837806,-0.1461880058,0.1928415149,0.0491676517,-0.0298688468,0.0154652214,0.0053884024,0.0189007185,-0.1003412157,0.0696882680,0.1065016165,-0.0972993597,0.0110538295,-0.0324831940,-0.0662837625,-0.0664877594,-0.0535212159,-0.0494112708,0.0778000057,0.0634807795,0.1507941931,-0.0090883756,0.0586816519,0.1224471256,0.0089196507,-0.0050631231,-0.0228046980,-0.1200382635,-0.0842309967,0.1836539060,-0.0820265263,0.1316566169,0.1833514422,-0.0365785509,-0.0915069208,0.0951801613,0.0485423654,0.0273105223,0.1751516461,0.1753643304,0.0710321590,0.2040216178,-0.0584548265,0.0724694505,0.0170207620,-0.1677385569,-0.0480856299,-0.0975035802,-0.0170879327,-0.0546059869,-0.0882341489,0.0531028956,0.0743638873,-0.1001802161,-0.1642160267,-0.0384870321,-0.0932510793,0.0490695238,-0.1452210248,0.0291502662,-0.0587560534,-0.0318550617,-0.1636126488,0.0037666364,0.0238843504,0.0243921056,-0.0197701678,-0.0049573141,0.0236170702,0.1229547709,-0.0127336625,-0.0152543718,0.0226908904,-0.0510360561,0.0538725294,-0.1709838659,-0.1282832325,-0.0478578731,-0.0466767065,0.1485819221,0.0094667142,-0.0017463793,0.0049969358,0.0228726231,-0.0005116614,-0.0597314835,-0.0328829698,0.1056180000,0.0907536969,0.0297745913,0.1014641300,0.0111580119,-0.0205986984,-0.1142842323,-0.0066437144,0.1110724807,-0.0149608096,-0.0369920880,0.1384070963,0.0407347642,0.0184683949,-0.1384484321,-0.1706931591,-0.0875194520,0.0041261036,-0.0412457325,-0.0386443548,0.0918502510,0.0349620506,-0.0003397021,0.0946591273,-0.0503964908,-0.0215398502,0.0559086390,-0.0842341483,0.1349382550,-0.1453105062,0.0657078251,-0.0705753788,-0.1454937905,-0.0539901406,-0.1218501702,-0.1429381520,0.0887051001,-0.1613074541,0.0239143446,0.0714493170,0.0213730335,-0.0646227151,-0.0461444482,0.0154697457,-0.1328246146,0.0415785946,-0.0864383429,-0.0126161920,-0.0918298289,0.0038385782,-0.1229930073,-0.0682329759,-0.0409218855,0.0909812897,0.0954971686,0.0308120269,0.0758257508,-0.0086886035,0.1226693988,-0.0316923261,0.1160183623,0.1485646814,0.0933093429,0.1663054824,-0.0586101413,0.0780419931,0.1486278772,0.0460242666,-0.1429304630,0.0527272820,0.0474782102,-0.0301002860,0.0896331146,-0.0770839900,0.1815264821,-0.0167322811,0.2181928754,-0.0857307464,0.0610955730,-0.1942216158,-0.1596842110,0.0306018479,-0.1162400842,0.1634528041,0.1723219156,-0.0159043800,-0.0411732569,0.0165295936,-0.0091320947,0.1106053293,-0.0669442713,-0.0451421663,-0.0408080742,-0.0706017986,0.0293906592,-0.0916430801,-0.0113032311,-0.0275216922,-0.1963003725,-0.0610424876,-0.1698026359,-0.1212872043,0.1421764046,-0.0682292208,-0.0423024856,0.0180043802,0.0230384469,-0.0344097130,0.0634263903,-0.1731234789,0.0355776250,0.0449287742,-0.0800534710,-0.0728853494,-0.0076258504,-0.0573467314,0.0085962964,0.1674505621,0.0351818576,-0.1038314253,-0.0929818451,-0.0209132917,0.0031138449,0.0440924540,0.0872062296,-0.0099910880,0.0672451556,-0.0900351778,-0.0531926975,0.0995224714,-0.1715421528,-0.0116279032,-0.0360460058,0.0394620858,-0.0211359244,0.1147718951,-0.0001250147,-0.0428356305,0.0726232231,-0.0894047245,0.0495452806,0.1620893180,0.0052429000,-0.0691685304,0.0317385904,0.0714355260,0.1337272674,0.0843742564,0.0431487337,-0.0115261227,-0.1327119321,0.0691630915,0.0041296170,0.0472819582,-0.0172932856,-0.0237962827,-0.0201522671,0.0380955338,-0.0979219377,-0.1099412590,-0.0378782600,0.0482414067,-0.0232845843,0.0167173631,0.0514959656,0.1026677936,0.1063216031,0.0406788439,-0.0139556853,0.1831822395,0.0037378310,-0.0076259556,0.2054063976,0.1032206640,-0.1402528584,0.0617940165,-0.0088260667,0.0036589133,0.0698179528,-0.1728703976,-0.0270111598,0.1911719590,-0.0913995430,-0.0609477460,-0.1502169818,-0.0930984169,-0.1359633803,0.0358640403,0.0176598392,0.0020317121,-0.0093573323,0.0487690382,0.0415880606,0.0271983128,-0.1882993281,-0.1757493168,-0.1345566362,0.0411016271,-0.0137689784,0.0490487181,-0.0894984230,-0.1368099302,-0.1536146849,-0.0232702196,0.0892278925,0.1811137944,-0.1441527903,0.0358433761,0.0906708241,-0.2363888770,0.0966821089,0.0006529576,0.1334006041,0.1787422746,-0.0591416880,0.1078930795,-0.2231864184,0.0661458448,0.1938612312,0.0206480362,-0.0440878607,-0.0431470461,-0.0607081242,0.0195012242,0.0636133105,-0.0838448256,-0.0247781128,0.1414293200,-0.0701345801,0.1670201570,0.0795178264,-0.0622953624,-0.0594890863,-0.1558392048,-0.0882134289,0.1348542422,-0.1075392887,-0.0564226992,-0.0145623730,0.0053856676,-0.0805712268,0.0564994551,0.0090121161,-0.1357228160,-0.0146537554,-0.0411387943,-0.0808917955,0.1578265131,0.0559819639,0.1357160956,-0.1560259908,0.0665239990,0.0369826220,-0.1152933985,0.0184323844,0.0126071060,-0.0987391770,-0.0172092766,-0.1059445813,-0.1122999191,0.1414615512,0.0843239725,-0.0847415105,-0.1308389902,-0.0665087849,0.1336430758,-0.0165185779,-0.0141802458,0.1860880703,-0.1096290722,-0.1234728843,-0.0279315691,0.0036571256,-0.1267472953,-0.0448465459,0.0202465579,0.0747141168,-0.0332979187,-0.1076299101,-0.0151040535,0.0361859836,-0.1851226985,0.1436985582,-0.2105204761,0.0684894547,-0.1368701309,-0.0155954491,0.0587039739,0.0777736455,0.0170688424,0.0621967018,-0.1747108400,-0.0265616737,0.0244237352,0.1064973250,0.0256328881,-0.1152875051,0.0759926215,0.0078950031,-0.0637763739,0.1799248755,-0.0834076330,0.2226577550,0.0729478672,0.1123315319,0.0561002865,-0.0187718160,0.1595717221,0.0874439776,-0.1061233580,0.1174031049,-0.1536501199,0.1384180486,-0.0443750098,0.0822415650,-0.2014797330,0.1067996100,0.0505211242,-0.0713407621,-0.0217112061,-0.0475267209,-0.0050486727,-0.1372674406,-0.0012945133,0.0506671220,-0.0272754598,0.1130767614,0.1313430965,0.0366324931,0.1350398362,0.0062153237,0.0097426344,-0.1722380519,0.0346941128,-0.0474824086,0.0459639728,0.0543135479,0.0255467333,0.0913623497,0.0438406803,-0.1572602093,0.0662199929,0.0467041992,0.0164594762,0.0736101493,-0.0385488607,-0.0359270014,0.0866613016,-0.0472223721,-0.0796233863,0.0414913781,0.0166508444,-0.1218056753,0.0435103811,-0.0613200180,-0.0536273681,-0.1450109184,0.0314658694,-0.0735870153,0.0213267487,0.0413994342,-0.0078258421,0.1132097170,-0.1574136168,0.0725944862,0.0213711374,0.0822164267,0.1439393610,0.0469767787,-0.0489268675,0.0635596290,-0.0229455587,-0.0021060922,0.0348677784,0.1017213315,-0.0732747391,-0.0206051935,0.0219747666,0.1335882694,0.0861762390,0.0187291019,-0.1445236206,-0.0582077801,0.0790725425,-0.0510906391,-0.0869271681,0.0646168143,0.0489636995,0.0547910221,0.0740671381,0.1771549582,-0.0240851622,-0.0588681065,-0.0562007986,-0.0576244518,0.0705964565,0.0223480277,-0.0913413391,0.0453626886,0.0520115867,-0.0036830993,0.0209692661,0.0437423289,0.1175050661,0.0356609449,0.0137296543,-0.1853774339,-0.0537874699,-0.1376183629,-0.1341262162,-0.0128989676,0.0177898128,0.0224825144,-0.0708646327,0.0652369782,-0.0099630663,-0.0370566286,0.0136302784,-0.0255948063,0.0502999052,-0.0257151965,0.1079630181,-0.1557556540,0.1302614659,-0.0816218033,0.0935461745,0.0557985492,0.0989153385,0.0173824150,-0.0697684437,0.0318286531,-0.0488058478,0.0443922766,-0.0806272700,0.0417180657,-0.1467605978,0.0510170683,0.0572085753,0.0161491986,-0.1724783629,0.0522692390,-0.0760368854,-0.0797682256,-0.1063735560,0.0675882176,0.1296297759,-0.0949370936,0.1381253004,-0.0853298530,0.0430119075,0.0184041206,0.1296975762,0.1100510284,0.1442756653,-0.0133045949,-0.0654664785,-0.0749025270,0.0086539518,-0.0876357779,0.0766478628,0.1230404451,0.0344659314,-0.0407068618,0.0275621470,-0.0131117105,0.1570104212,0.0403445140,-0.0805436000,-0.1045994833,0.1298731118,-0.0918651670,0.1595489681,0.1811896861,0.1471077800,0.0177336000,0.0169773456,0.1334543973,0.0818842873,0.0132476287,-0.0964357480,0.0788758993,-0.0383174270,-0.1168110371,0.0870397240,-0.1194220707,-0.1116402671,-0.0618363060,-0.0680301860,0.0108141815,0.1252886206,-0.0259122942,0.0297273174,-0.0157110989,-0.0556353815,-0.0675190985,0.0404744633,-0.1322705150,-0.1365383118,0.0012275371,-0.1002311632,0.0274479724,0.1374434680,-0.0902095214,-0.0685262680,-0.0249608122,0.0600525364,-0.1447103322,-0.0768358931,-0.0297703091,-0.1785286814,0.1222680286,0.0455404334,0.0367610455,-0.1458509564,-0.0119965719,-0.1493682265,-0.0417879224,-0.0847942978,-0.0154407443,0.1331336051,-0.0511442535,-0.0886917487,0.0039044130,0.0345530510,-0.0640217811,0.1787130088,-0.1358898878,-0.1223174036,-0.0296335854,0.0799489543,0.1143135279,-0.1322530806,0.0150650237,-0.0104654348,0.1781091094,-0.0663036108,-0.0765013546,0.0514241308,-0.0350697786,0.0881762356,0.0446867086,0.1498444378,0.0769718960,-0.1037653163,-0.1268329918,-0.0813568532,0.0417989567,0.0152955176,0.0262098033,0.0830417648,0.0250887070,-0.0625175089,-0.0672621503,0.0164672993,0.0449663140,0.0316762440,0.0218621828,-0.1492536813,-0.0070899846,-0.0275902357,-0.0352538228,0.0846505910,-0.0314674303,0.1770782173,-0.0573893599,-0.1081817821,0.0551236309,0.1059117615,-0.0887657776,-0.0078085987,0.0418527983,-0.0832749531,-0.0225451961,-0.0782565325,0.0415066704,-0.0617614575,0.1444642842,-0.0418502726,0.0901279002,0.0736320615,0.1075314879,0.0415516421,-0.0065174731,-0.0424121656,-0.1137738898,-0.0535645783,0.0912458152,-0.0331772007,0.0077687274,-0.0383232087,0.0793423578,0.0646070689,-0.0598025024,0.0817560479,-0.1149527356,-0.0208844021,-0.0791328624,0.1231692359,0.1825040281,-0.1722105145,-0.1053523272,0.0201562941,-0.0021289380,-0.0453906618,-0.0387442000,-0.0830854401,-0.1314246356,0.0995061323,-0.1001425311,0.2005454749,-0.1613783985,0.1448411047,-0.0321172141,0.0283919517,-0.0801310912,-0.1051825136,0.1355862767,-0.0852506533,-0.0516814999,0.0121540241,-0.0649299547,0.0705126524,-0.0584657006,0.0648444593,-0.0866831243,0.0495815314,0.0204874072,-0.0045024212,-0.0434708782,0.0507537462,0.1485869437,0.1936186552,-0.0701590776,0.0507770739,0.0397786126,0.0094884727,0.0237039123,-0.1763226092,-0.0918176919,-0.0574713424,0.1087236479,0.0042173965,0.0421857797,-0.0156640559,0.0944690332,0.0206580795,-0.0767854154,0.1497014910,0.1208290905,0.1071147323,-0.0550313443,0.1822217107,-0.0405689254,-0.1233195588,-0.0220125541,0.0060927914,-0.1622695327,-0.0826415047,-0.0745735392,0.0469799191,-0.1510781944,-0.0008602830,-0.0821562335,0.0437391363,0.0135010937,0.0782481581,-0.0115436325,-0.1148876920,0.0168152191,0.0348042697,-0.0750926360,-0.0411091074,-0.1045381278,0.0561469011,-0.0528040603,-0.0804744586,0.0929559469,0.1202038899,-0.0290560313,-0.0330184326,0.0804149508,-0.1940166056,0.0579205938,0.0305873342,0.1899212003,0.1570273340,-0.1252468228,0.0508618765,-0.1254830807,-0.0670206323,-0.0524267256,0.0968679860,-0.1051149964,-0.1846818030,0.1909200400,0.1476797163,-0.0910751745,-0.0707662106,-0.0230416656,-0.0848482847,-0.0131244902,-0.1413386762,0.1748977005,-0.0775702074,-0.0567488484,0.0915992633,-0.1371899545,0.0087073576,-0.1652803868,-0.0260152165,-0.0630601123,-0.1508602351,-0.0424688160,-0.0559813678,0.1313070208,0.1248947531,0.1346243918,0.0426744483,-0.0211912319,0.1811769307,-0.0555183329,0.0195594598,-0.0797034130,-0.0456118733,0.1674139500,0.0596594363,-0.1667907536,-0.0866320953,0.0670727044,-0.0587799326,-0.0122758551,0.1735775471,-0.0641277060,0.0819578916,-0.1259619147,-0.1903656423,0.0943686664,-0.0606729202,0.0523314364,-0.0503698103,0.0534729362,0.1299561113,-0.1149590537,0.0432857461,0.0174100325,-0.0205007400,-0.0092372615,0.0430427380,0.0826623216,0.0576220416,-0.1038524881,0.0753258914,0.0291405879,0.0535641611,-0.0430204794,0.0825739801,-0.0300505254,0.0083807241,-0.0169610977,-0.1942228973,0.0973157212,-0.0907129869,0.0582940839,0.1003103107,-0.0839710310,-0.0019332328,-0.1119575724,-0.0540490746,0.0022059013,-0.0867325515,-0.0359817557,0.0562441833,-0.1300289333,-0.1153081432,-0.0490587316,-0.0607525781,-0.0293552633,0.1881547421,-0.0218639150,-0.1149981990,-0.1214954928,0.1337405592,0.1209881529,-0.1419859976,-0.0631236732,0.0657346249,-0.0529551692,-0.1346291900,0.0238966923,-0.0587640889,0.0594691299,-0.0121956114,-0.1405406743,0.0092106657,0.0143307792,-0.0579697937,-0.1482375264,-0.1676028669,0.0145659931,-0.1513580829,0.0725648701,0.0833918899,0.0002765777,-0.0296399016,-0.0515304692,0.1722093970,-0.0007784580,-0.0671062022,-0.1266755164,-0.1154395714,0.0094066327,0.1544915289,-0.0278045554,0.1478748024,0.0661386400,0.0810196623,0.0728249252,0.0935824215,-0.1787830442,-0.0899292231,-0.0019703624,-0.0315055102,-0.0825672895,-0.1456647366,0.0384267196,-0.1194443926,-0.2010702044,0.0675914288,0.0327126905,-0.1134228110,-0.1254856586,-0.0003683664,0.0916935802,0.1967393011,-0.0318913646,0.0707721040,-0.0196217392,-0.0555532239,0.0651472434,-0.0377188772,0.0252404287,-0.1168768406,0.0729658604,0.0879405811,-0.0076056579,-0.1148961484,-0.0075194789,-0.0200636461,-0.0388529077,0.1338237971,-0.0334054269,-0.0885913447,-0.0031715063,-0.0068208030,-0.0935612544,0.0435977653,-0.1224380732,-0.0161112193,0.0437892750,0.1021321490,0.0376567468,-0.0387248136,0.0391768329,-0.1139962301,-0.0699305236,0.0353619456,0.0610728934,0.1601785123,-0.1519677937,0.0003882785,0.0206399746,-0.0152023891,0.0817521736,-0.0328592882,-0.1516989321,-0.0453623533,-0.0615805611,0.0000896883,0.1090290472,-0.1646162271,-0.2009401768,-0.0319948345,0.0367374420,0.0679064393,-0.0400327556,-0.0040522274,0.0696128458,-0.0332445875,-0.0153361214,-0.0744731650,0.0401056968,0.0708442256,-0.0020438195,0.0604096055,-0.0624471679,0.0631045997,0.0528263487,0.0214229431,0.1850187033,-0.0440004915,0.0065798783,0.1210648045,-0.0877692550,0.0827076882,-0.0922306925,-0.0505927391,0.0809670016,0.0536351539,0.0357698128,-0.0501633845,0.0779073015,-0.1063812822,-0.0919520408,-0.0684644505,0.0483920053,0.0434541851,0.0464476161,-0.1472027898,-0.0767594427,-0.0794520825,-0.0472148135,-0.1170663759,0.0959430337,0.0330975242,0.0332788453,-0.0209486056,0.0387487821,0.0084169572,-0.0017487833,-0.1365650892,0.0060218587,-0.0205114596,-0.0839565322,0.1672481000,0.1206596941,-0.0839079246,0.1312711239,-0.0157272518,0.1965662539,0.0275837649,0.0533857457,-0.0528188497,0.0156300105,0.0383076370,-0.0409510322,0.0231962968,0.0288137179,0.1281726509,0.1623946428,-0.0394834802,-0.0330205970,-0.1305295378,-0.0216213502,0.0835938603,-0.1055142507,-0.2540939450,-0.1118692607,-0.1201412529,0.0427905954,0.1670515984,-0.0670451149,-0.0141757047,0.1226029471,-0.0425358452,0.1080296040,0.1794033796,-0.0247942936,0.0315211117,0.0084321871,-0.0682117343,-0.0510700494,0.0318068750,0.0343791731,0.0875576809,-0.1047402918,-0.2155521363,0.0280570667,-0.2164240181,0.0563624166,0.0361090526,-0.0044017914,-0.0359744616,-0.0751273781,-0.0053808922,-0.1520787627,-0.0973953679,0.0641605556,-0.0707582161,-0.0366727710,-0.0033754078,-0.1753388643,-0.1404481977,-0.0543260425,-0.0706760436,-0.0179369524,-0.0275314860,0.0747189447,-0.0347590260,-0.1400698721,-0.1725543737,-0.0350818448,0.0021006942,0.0301339570,0.1188900992,0.0080942847,-0.0880626962,0.0459628254,0.1971433908,0.0315395817,-0.0272798836,-0.1087336242,-0.1077241153,0.0311354510,-0.0842306688,0.0529295653,-0.0362173356,0.1280963570,-0.1082656011,-0.0397475250,-0.0469261967,0.1042901278,-0.1743513048,0.0309433583,0.1311766058,-0.0241290107,0.0164716542,-0.1036280245,0.0921759680,-0.0988579839,0.2012998611,-0.1043568701,-0.0023700846,-0.2102811188,-0.0581196137,0.1365203559,0.0396200381,0.0349458307,-0.1774286479,0.1177192181,0.0176081881,-0.0604347885,-0.0902829692,-0.0483359843,-0.1367290765,0.0979429632,-0.0747168884,0.1499697119,-0.1387961507,-0.1171780154,0.0264878273,-0.0423589684,-0.0078844177,-0.0450253040,-0.0400895253,-0.0034416383,-0.0393519327,0.0842321441,0.0485662408,-0.1872786433,-0.0939775556,-0.1636223644,0.0269503035,-0.0068085245,-0.0815513879,-0.0074391635,0.1015610173,0.0537930764,-0.1060624197,0.1153777391,-0.0528734401,0.0646065697,0.1286321580,-0.0994224921,0.0712345690,0.0707442835,-0.1364509314,0.0836152211,-0.0280120019,-0.0292057469,-0.1701020896,-0.1004033759,0.0624591000,-0.0568314977,0.0495949276,0.1626899540,-0.0438499600,-0.1183669865,0.0157865584,-0.0435078517,-0.0385684185,0.0406299680,0.1510051042,0.1348691285,0.0493411161,0.0650761724,0.2032535672,-0.1114386246,-0.0433095917,-0.0238394793,-0.0183452182,0.0848975107,0.0543532521,0.1124133393,-0.1415850520,0.0449196547,-0.1398839355,-0.0303833727,-0.1421439201,0.0779746994,-0.0904004276,0.0242067222,0.1523410529,-0.0694982186,-0.1013506129,0.0271014031,0.0883599743,-0.1169379354,0.0797272846,-0.0307531431,-0.0031989512,-0.0726022944,0.1411335319,-0.1225395799,0.0267951638,0.0630739778,-0.0097235823,0.0408798493,-0.0344722345,-0.0014118731,-0.0459378436,0.1231608018,-0.0271391645,-0.0635691136,0.0760729089,0.0367034338,-0.0218543634,0.0918437093,0.0912511945,0.0266788322,0.1206222326,0.1013226286,0.0304765552,-0.0857868493,0.0375397056,0.1161190718,-0.0811961964,0.0906201676,0.0031903672,0.0552356392,0.0122934142,0.0536659025,-0.0972340479,0.0149945030,-0.0936620608,-0.0712881833,-0.0937384367,0.0170727950,-0.2029818743,0.0719150975,-0.1561552286,0.0012089416,-0.1420572251,0.0935982168,-0.0812910944,0.1266480684,0.1081899703,-0.0422640629,0.0492152497,-0.0240859222,0.0972257257,0.0955835134,0.1189691722,0.0713177770,0.0402959101,0.0041924296,-0.0310013592,0.0461654030,-0.0201807451,0.0595847592,-0.0720802173,-0.1775915176,-0.1014445499,-0.0035115350,0.0732304528,0.0914940163,0.0486508273,-0.0778683573,0.1132535636,0.0860259458,-0.0497735105,0.0100517776,0.0184497237,-0.0478069112,0.0569074042,0.1268239915,-0.2334175110,0.0239615925,-0.0728650242,0.0212709252,0.0633795038,-0.0642881468,-0.0415906608,-0.0995962694,-0.1048672125,-0.1361801624,0.0131357713,-0.0454075523,0.1054979861,-0.0009021736,0.0731668770,0.0248176660,0.0147438711,0.1048439294,-0.2019752115,0.0505545177,-0.1548700333,-0.0139746070,-0.1901290864,0.0677429214,0.0987041369,-0.0580248050,-0.0096148793,-0.0626646131,-0.0143260714,-0.0522333533,0.1279222071,-0.0504591987,-0.0655849576,-0.0298402235,0.0590837337,0.0785636827,-0.1216049865,-0.0636741742,-0.0615889318,-0.0332283042,-0.0644538477,-0.0273901224,0.0245426334,0.0832295120,0.0370517746,-0.1855592579,0.0836900845,0.0639861077,-0.0376676843,-0.1351706982,-0.0425720625,-0.1680372208,-0.1523693055,0.0841595531,0.0169616975,-0.1049690172,0.0740420520,0.0592500567,0.0574660264,-0.0237339474,-0.0400341935,-0.0593750663,-0.2016575783,-0.1230638400,0.1955000758,-0.0815354511,0.1108220294,-0.0742464587,0.1635593921,0.0192689765,0.0355417244,-0.0052910559,-0.0984733552,-0.1031888276,-0.0619609505,0.1155928001,-0.0747167766,-0.0088854572,0.0166229364,0.1203970984,0.0530071631,0.0905443802,0.1504160911,-0.0887304470,0.1536372006,0.0368396342,-0.0368626937,0.1680969149,-0.0304137580,-0.0394532233,0.0410339721,-0.1158145443,-0.1053161621,-0.0861506015,0.0291691180,-0.1116141304,-0.0604603998,0.0629371628,-0.0724216253,0.0289808866,0.0582674146,0.0240878612,-0.0742062256,-0.0801221728,-0.0203632265,0.1722589582,0.0217239317,-0.0789596587,-0.0113921724,0.1146674007,-0.0191309899,-0.1180273890,0.0552576147,-0.1991999894,0.0051168157,-0.0536610782,0.1837189943,0.1175460890,-0.0799682736,0.1584513634,0.0033773957,-0.0997755453,-0.0395343229,-0.0261141695,-0.0004790723,-0.0183570776,-0.0547175892,0.0575287268,-0.0332479104,-0.0892729014,0.0514361300,-0.0013381834,-0.0923155993,-0.0665547475,-0.0547112897,-0.0434808917,0.0002184937,-0.1558320969,0.0264906231,0.1249947995,-0.0457287952,0.0349591747,0.0456130952,-0.1069224775,-0.0162046701,-0.0063598654,0.1412014365,0.0621505491,-0.0925584808,0.0737028793,0.0269832164,0.1383706033,-0.0344034731,-0.0415370390,0.1945206076,-0.0374267586,-0.0420959145,0.0501426421,0.0936565846,0.0334720351,0.0672220588,0.0450468846,-0.1835230440,0.0202941168,0.1636835039,0.1324411482,0.0996981859,-0.1548132747,0.0569371656,-0.0577790067,0.0219846144,0.1062174365,0.0186658837,-0.0205554087,-0.0187093168,-0.0555496663,0.1566350609,0.0162359383,-0.1646136492,-0.1436922401,0.0399336517,0.1003776342,-0.0255134143,-0.1464777142,-0.1929415464,-0.1065939516,-0.1336944848,-0.0128530087,0.0749134123,0.0798201337,-0.0072216899,0.1585854441,-0.0943820551,-0.1195730790,0.0688437298,-0.0917097554,-0.1051039174,-0.0148940478,-0.0540209711,-0.0748093799,0.1692376435,-0.0017442057,0.1185331047,0.0024446177,-0.0522005968,0.0949425474,0.1609258652,0.1002638862,0.0932487398,0.0118295513,0.0651716962,0.0365007520,0.0096741943,0.0662831515,-0.0320658647,0.0840839371,0.0476977900,0.1462505013,0.0181833394,-0.0042452337,0.0163750891,-0.0194079615,-0.0305671189,-0.0906126052,0.0550563261,0.1748003364,0.0106841018,0.1217776984,0.0497349501,0.0025860257,-0.0602471866,-0.0337976404,0.0793266445,0.1551780701,-0.0258042719,0.0824730024,0.0930861160,-0.0052945591,-0.0188204627,-0.0527927950,-0.1412506998,0.0392706506,0.0277118534,0.0468222089,0.2058487386,-0.1013192013,0.1242057905,-0.0836767480,0.0085016452,-0.1524145752,0.1203059256,0.0726484060,-0.1149221361,-0.0546218194,0.0432832539,-0.0280592535,-0.0224808063,0.1222904772,-0.0571858622,-0.0681213289,0.0360015854,0.1000743955,-0.0517674200,-0.0539027415,-0.1394416392,-0.0479513220,0.1022690386,0.1394782513,0.0342466496,0.0242203828,-0.1386041641,-0.0168551207,0.0378208943,0.0382775292,-0.0300599709,0.0484080501,-0.0281061810,0.0407311991,-0.0436940119,-0.0632334948,-0.0143903149,-0.0275757201,0.1479033381,-0.0127152177,-0.1003771424,-0.0020736414,-0.0152769433,0.0190927573,-0.0484748334,0.0846752748,0.0782164410,-0.1110753864,-0.0709326491,0.0576786883,-0.1144405305,-0.0364254564,-0.0308335200,0.1185111552,-0.1210215539,0.0698872358,0.0767796487,-0.1915667206,0.0222455580,0.0566260219,0.0546732396,-0.1386888176,-0.0308636520,-0.0016394136,0.0959794745,0.0911481753,-0.1225372031,-0.0954235271,-0.1981143802,-0.0618105978,-0.0097590266,0.0253312904,-0.0584848970,-0.1171734780,0.0095598763,0.0520513691,0.1479133964,0.0528737716,0.0211091600,-0.0389064513,0.1493900716,-0.0158348158,0.0521264672,-0.0670631304,-0.0424073339,0.0167850591,0.1041262671,0.1662616879,0.2067815810,-0.1476339251,-0.0121247396,-0.0731495023,0.1010080501,0.1990457475,0.0577289984,0.0982276425,-0.0282437988,0.0009352150,0.0894371942,-0.0024615678,-0.1515265256,0.0308109820,-0.1525904834,-0.0899349675,-0.0826033801,-0.0218688417,0.1514114439,0.0109441727,0.0071662408,-0.0292656235,0.1562142521,0.0886670575,-0.0918959230,-0.0798452199,0.0121686785,0.0203748532,-0.1296608150,-0.2077143341,0.0515708737,-0.1506327242,0.1612128913,-0.1163910255,-0.0524820201,-0.0111696199,0.0266853459,0.0845205709,0.0065031191,-0.0758068711,0.0945269316,0.1489769071,-0.0640880167,0.1965930909,-0.1624136269,-0.0079003433,0.0161899067,-0.0522701070,0.0024290329,0.0382281542,-0.0030589073,0.1576512158,-0.1114619300,-0.0528580509,-0.0096526686,-0.0956132710,-0.1835149527,-0.1061773598,0.1788163036,0.0044719046,-0.0180821735,0.0977941528,-0.0784845948,-0.0096733877,0.0870989114,-0.0248417333,-0.0362733677,0.0071900864,0.0702068359,-0.0208393410,0.2284720540,-0.0731459185,-0.0733797401,0.0184210502,-0.0327611715,0.0129003283,-0.0121903326,0.1010449231,-0.0068881055,0.1559332013,0.0417979062,-0.2005091310,-0.0358242169,0.0958516523,0.1166532785,-0.0670054704,0.0819689259,0.1517034322,0.1170677096,0.1040911525,-0.1021276116,0.1217068359,0.0132405674,-0.1831062883,0.0260702595,-0.0259925853,-0.0047495663,-0.0411807112,-0.0447169617,-0.1654364020,-0.0339570306,0.0284064785,-0.0025442133,0.0845086202,-0.0573508851,0.0274967272,0.0611979775,-0.0088409670,-0.0239612684,0.1377017051,-0.0259556118,-0.1431896389,-0.0365029536,0.0303192772,0.0369365253,-0.0479381345,-0.0799889416,-0.0703035146,-0.1243969649,-0.0280792806,0.0850955993,-0.0327253155,0.0791057721,0.0713379309,-0.0328946151,-0.0317343362,0.0232577864,-0.1688498557,0.0344257541,-0.2119275630,-0.0377312116,0.0480434597,-0.1014965400,0.0111985197,0.0819249302,0.1005813703,-0.0424755029,0.1155080125,0.0155881252,-0.0699830949,0.0160742439,0.0364728905,0.0819959566,-0.0154327843,0.0151732275,-0.0327431969,0.0653211847,-0.0144256633,-0.1038709059,-0.1779990941,0.0346961394,0.0802459642,-0.0299922600,-0.0188096352,0.1538813859,0.1145385727,-0.1585073918,0.0767125189,0.0794150829,0.0936745107,-0.0281158555,0.0241395589,0.1793491393,0.1707808524,-0.0586794652,-0.0462421365,0.0654641464,0.1174925268,-0.0393680818,-0.0641706139,-0.1107947454,-0.0516975783,-0.0186292697,-0.0604781434,0.0732487515,0.0278873872,-0.1194870025,-0.0733865574,0.0826145709,-0.0598023906,0.1042572483,-0.1216658130,-0.0502433851,0.0847657025,-0.0847063363,0.0983876586,0.0199297629,0.0629667342,0.0307804570,0.0462746099,-0.1218615621,0.0873998627,0.0815896317,0.0740748867,-0.0694495961,0.0279342048,-0.0458967537,0.0194257125,0.0089949397,-0.0343849212,-0.0927780941,0.0062811659,-0.1230280176,0.0203786474,-0.1346069127,-0.0226496682,-0.0236713272,0.0846077204,-0.0417440683,-0.0755516663,-0.0583559759,-0.0432053432,-0.0836997926,-0.0102543244,0.1347780973,-0.1864234805,-0.0213915799,-0.1413701624,0.0344189890,-0.0478265919,-0.0278557576,0.1997731626,0.0970618129,0.1545664668,-0.0544987991,0.0059390939,0.0373382196,-0.0080514131,0.1428132206,0.0764767230,0.0263836998,-0.0227064956,-0.0661066622,-0.0211914405,0.1839528680,-0.0801791400,-0.0056922669,0.0202402622,0.1063147560,-0.0675415918,0.0132727064,0.0031822152,-0.1371874511,-0.0962163061,-0.0707543865,-0.0933525041,0.0204241406,-0.0246208049,-0.1614179760,0.0571056493,-0.0142524894,-0.0300255474,-0.0658189878,-0.1827708930,-0.0584995709,-0.1046045870,0.0021981692,-0.1542982757,-0.1280649900,0.0464556925,0.0003686291,-0.2344569564,-0.0442274772,-0.0607828610,-0.0521748401,-0.1131870598,-0.0255857706,0.0587821193,-0.0225066114,-0.0529028587,0.0486523323,0.0759710148,-0.0353503153,-0.0256125294,0.0401455052,0.1092374176,-0.0711951181,-0.0751459524,0.0983120203,-0.1283855438,-0.0127718253,0.0183104817,-0.0534422025,0.0258181766,0.0428942703,-0.0314223543,-0.1285480559,-0.0181833617,0.1375268698,0.1057103276,0.2168559879,-0.1361332685,0.0286518801,0.0608614311,0.0317057557,0.1192011908,0.0670466125,0.0476976000,-0.0594853759,0.0455247685,-0.1185977161,0.1101169810,-0.0293196272,-0.0227874555,0.0217573084,-0.0172848646,-0.0137453265,-0.1590786427,0.0843683481,0.0019320388,0.0643663555,0.0926696509,0.0749464631,-0.1111919656,-0.0285440646,-0.0043682395,-0.0611439869,-0.1640263051,-0.0118616857,-0.1263836920,0.1506117731,-0.0847370774,0.0712514818,0.1824560910,0.0798851326,-0.0335369892,-0.0943522975,-0.0428811945,-0.0259297118,-0.0219235420,-0.1921007037,-0.0042405026,-0.1200611740,0.0802697837,-0.0207550470,-0.0990916714,0.0346325599,0.0482063666,0.1022282690,0.0401309840,-0.0075638960,0.1235029846,0.0484212264,-0.0623967163,0.0192058440,-0.0044393293,0.1569144428,0.1454543918,0.0229174737,-0.0166488755,-0.0556822270,-0.1478397548,0.0150736254,-0.0255270638,-0.1314175278,0.0909347609,-0.0149367955,0.1694704294,-0.0639443174,-0.0011296180,0.0120492559,0.0904626623,-0.0622331984,0.0718623921,-0.0336025767,0.0734709352,0.0427556001,0.0868188664,-0.0137735531,-0.1193194911,0.0192833859,0.0248121712,0.0249989256,0.0336553454,0.1269092262,-0.0357673131,0.0618152618,0.0176690575,-0.1143450737,0.0520023070,0.0159777813,0.0233134534,-0.1535919607,0.0095717972,-0.0797078535,0.1140989661,0.0452029556,0.0792331919,-0.0595223568,0.1510361135,-0.0284386091,-0.0285555404,-0.1544576287,-0.2044491321,-0.0616263337,-0.0011474389,0.0242556054,-0.0711658373,0.0386202373,-0.0797090307,-0.0263281651,-0.0379882716,0.0322236866,0.0633492246,-0.0064667407,0.0418497026,-0.0890086740,0.1008974537,0.1343600303,0.0754571110,-0.0903328359,-0.0558696911,0.1952543706,0.1713642627,0.1249328032,-0.0109569691,-0.0591240674,-0.0658717304,0.0493871495,-0.0727323741,0.0215647109,-0.1029377431,-0.0372556672,0.0923401192,0.0147697330,0.0133806355,-0.0475235507,0.0177638642,-0.0191965774,-0.0323430412,0.0660042688,-0.1198846176,0.0444165207,0.0800744519,-0.0281391405,0.1437034309,-0.1174085960,-0.1177894697,0.0702422857,0.0224911012,-0.1019846201,-0.0088240663,0.0919928327,-0.0313762389,-0.0184061490,-0.1818479449,0.2030280977,-0.1014042422,0.0848875865,0.0696129873,-0.1728057712,0.0295163952,-0.1273375899,0.1221561357,-0.0236601178,-0.0092742657,0.1725012362,0.1002566516,-0.0419941731,0.0799882486,-0.1498891413,-0.0150454752,0.0354068466,0.0924064443,-0.0650972947,0.1445422173,-0.1337917894,0.0595887974,0.0232621171,-0.0798851773,0.0419758111,-0.2201262414,0.1012760475,0.0398695134,-0.1678928137,0.0629950017,0.0004704476,-0.0926610604,0.0313956849,-0.0686485097,0.0000880012,0.1054823399,0.0095100310,0.0951769724,0.0142473122,-0.1047415286,-0.0810194090,-0.0926282629,0.0503168926,-0.0201239977,0.0019582738,-0.0459754728,-0.1138226092,0.1302490085,0.0471789278,-0.0348596796,-0.0361128375,0.1110813320,-0.1496873945,-0.0313331746,-0.0063846395,-0.0432517342,0.0681189448,-0.0840548947,-0.0301248450,0.0396955945,-0.2024319768,-0.0412218198,0.0539598055,-0.0578062907,0.1521046013,-0.0857624859,0.0977474377,0.1191486642,0.0935546905,0.0429145955,-0.0008431911,0.1646007001,0.0501636714,-0.0564335324,0.0209365357,-0.0389337540,-0.0375613011,-0.1097059771,0.1740280837,-0.0548373275,-0.0292609092,0.1202527657,-0.1596910954,0.0579379909,-0.0594690219,-0.0872642994,0.0026945712,-0.0910657719,0.0230113491,0.0703507811,0.1911261529,-0.0193513818,0.0431862250,0.0504371002,-0.0291364491,0.0094961943,0.0868544132,0.0332897045,-0.0252348091,-0.0319359675,0.1052583978,0.1136045605,-0.1194044277,-0.1768189073,-0.1874985397,-0.0531434640,-0.1362224966,0.0129428338,-0.0281553920,-0.1139990091,-0.0960314199,-0.1295017749,0.0278869905,0.0493151434,-0.0780522451,-0.0164596234,0.0615656078,0.0897067413,0.0087993341,0.1050120890,-0.0040135607,-0.1746793836,0.0634753034,-0.0120721543,-0.1598517448,0.0871274248,-0.0723945871,0.1028776541,0.0070705633,0.1058314964,0.1223414764,0.0212803409,-0.1171277165,0.0685310662,-0.0947989076,0.1116531491,0.0158109479,0.0578738786,0.0100296708,-0.1132863015,-0.0199157521,-0.1386651099,0.1327352077,0.2097098678,0.0609763712,-0.0825139135,-0.0917990059,-0.1069492549,-0.0685601160,-0.0157973375,0.0980047286,0.0972616449,0.1382766664,-0.0045845476,-0.0426227525,0.0170502681,0.0022819743,0.0717550740,-0.0192606784,0.0204554703,-0.0286171697,0.0201433748,0.0037883611,0.0251941849,-0.0346749872,-0.1443931460,-0.0476045646,0.1336623728,0.0360324718,-0.0986192226,-0.0635568872,-0.1816639453,0.0483153574,-0.0263485145,0.1610884368,-0.0140417796,0.1845226735,0.0848767906,0.0673459917,0.0387314595,-0.0074380469,0.0752407908,0.1254230440,-0.0353707932,-0.0051893359,0.0173168033,0.1292734295,0.0294686370,0.0315559320,0.0917368755,0.1376289874,-0.0732148662,-0.0970003307,0.0459500626,0.0609651655,-0.0586688742,0.1182782650,0.1818410009,0.0155087272,-0.0904711336,0.0468028560,0.0461326540,-0.0820597336,0.0253816415,0.0722954199,-0.0012133076,0.0785866603,-0.0915732011,-0.1078128740,-0.0384172350,-0.0985031947,0.0235205516,0.0801148638,-0.0781987309,0.1042489931,-0.1849687248,0.0071921162,0.0162821896,0.0419473834,0.0738472268,0.0983301252,0.0075857011,0.0206150599,-0.1236074045,0.0872343332,0.0413652360,0.0848653764,-0.0442407466,-0.0480886325,0.0108282017,-0.0806558952,-0.1194534898,0.0903096274,0.0415868871,-0.0540346988,-0.0084870821,0.0504481606,-0.0502975062,-0.0739420950,0.0200449098,-0.0636771917,-0.0289378371,0.0634539947,0.0665045083,-0.0296240766,-0.0876860321,0.0299452730,0.1478428841,-0.1829877347,-0.1090032309,0.0573362820,-0.0376590751,-0.0509870388,-0.0179485921,-0.0019159022,0.0815154016,0.0383703820,0.0409074873,0.0034421934,-0.1080887318,0.0252034012,-0.0743166134,0.0846761987,-0.0022095540,0.0024831339,0.0219844580,0.0393291265,0.0004969757,0.1473668516,-0.1221781895,-0.0046913088,0.0952670202,-0.1376444697,-0.1089621112,-0.0213193428,-0.0615753420,0.0033268714,0.1719272286,0.0124464752,-0.0893895626,-0.1518724561,0.1460336000,0.0188876837,0.0404179841,-0.0069001392,-0.0973303318,-0.1223577410,-0.0056074187,0.0135571361,-0.0395899750,0.0180911440,-0.0146709299,0.0467302911,-0.0165547989,-0.0981863067,-0.0227255709,-0.0135480165,0.0237576105,0.0874760300,0.0814392120,-0.0624893233,0.1114062890,0.0782786161,-0.1503356397,-0.0100611886,0.0276026987,-0.1064612120,0.0284243599,0.0721883476,0.0189009476,0.0131590515,-0.1172869205,-0.1700477153,-0.0180195048,-0.1837557405,0.0049166586,-0.1435024291,0.1768740714,-0.1000816897,0.1319655478,-0.0652510524,0.0236664135,0.0131018190,-0.0545969941,0.0152062364,-0.0768351555,0.0711265430,-0.0527801178,0.0061817328,0.1181470752,0.0027489180,0.0413511358,-0.1650426537,0.1018168852,0.0632474571,0.0218105093,0.0189178362,0.0148531506,0.1150798649,0.1852100194,-0.1720422655,0.0573692247,0.0651997253,0.0100092068,0.1588615775,-0.1503186077,-0.0814123452,-0.0287708044,0.0611367933,0.0503514446,0.0344121680,-0.1553780288,0.0457405299,0.0867820010,0.0227481462,-0.1135035157,0.0561848208,0.0900621712,-0.0522550195,0.0003539395,0.0001593772,0.1492066979,0.1135013774,0.0777261779,0.1266894042,0.1383606493,0.1409046948,-0.1027752161,-0.0702832937,-0.0460220054,-0.0977215320,0.0264888722,0.0835568458,-0.0404969864,0.0417846180,-0.2046230435,0.0757278278,-0.1061656699,-0.1697229743,0.0782579333,0.0456720404,0.0291501917,0.0165732782,0.1062560230,-0.0195799395,-0.0245624166,0.0172035806,0.0381369218,-0.0584702082,0.0084260833,-0.2055605352,0.1789317429,-0.0761334449,0.0402246378,0.1138307527,0.0174512994,-0.1381939501,-0.0334547870,0.1948780715,0.1179883257,0.2149848491,0.1104541197,-0.1427145004,0.1148476377,0.0753175020,-0.0396238528,-0.0265524462,-0.0467316434,-0.1105818003,0.1180559769,-0.0945371911,0.1210281476,-0.1555911154,-0.0379306376,-0.1057263762,-0.0476509891,0.0639162511,0.1097753718,0.1135905683,-0.1292398423,0.0802584812,-0.0386670232,-0.1027591005,-0.0724084526,0.1665799916,0.1067818105,0.0610323399,0.0068992162,-0.0459884331,-0.1112365946,0.0231871121,-0.0498052947,0.0140213408,0.0167856049,0.0283291042,-0.0594757348,-0.0152762365,0.0565697476,0.1235491782,0.0475430116,0.0319693983,0.0376465358,0.0815413594,-0.0055775987,0.0064747143,0.1404847503,-0.0608669668,-0.0379189216,0.0964241177,-0.0050424919,-0.2396473885,-0.0551505126,-0.0572294705,0.1200259775,0.1022438332,-0.0094853258,-0.0621092953,-0.0137161482,0.2064630985,0.0017806225,-0.0598941073,0.1693501920,-0.0095830383,-0.0558138825,0.0726552084,-0.0487292521,0.1133061424,-0.1757903248,0.0747920275,-0.0815511793,-0.0925255418,0.0092439055,0.0850740373,-0.0384847634,-0.1559078991,-0.0136882020,0.0013101654,0.0371547081,-0.0997298136,-0.1695640981,-0.0915148109,-0.1245756596,-0.1065360904,0.1330361217,-0.0331585668,-0.0045118444,-0.0629031807,-0.0467322059,0.0406897776,-0.1100004911,-0.1517070979,0.0802767947,0.1156020835,-0.0340000950,0.0934983194,-0.0806907415,0.0767726824,-0.1047921777,-0.0815395713,-0.0595200062,0.0207509324,0.0046885251,0.0324580222,-0.0120703448,-0.1233612597,0.0174241867,-0.0038396528,-0.0638375729,0.1141260788,0.1222617999,-0.0197370183,-0.0872256458,-0.1090669334,-0.0928607509,-0.0437705554,-0.0008925043,0.0991533250,0.0075419191,-0.0223892797,-0.1788318455,0.0893298760,-0.1315739900,0.0352197960,-0.0551021285,0.0115310438,-0.0530526564,-0.1866630465,0.0102691250,0.1377677768,0.1314058453,0.0182365868,0.0747015476,0.1708038598,-0.1900793016,-0.0693107396,-0.1875525713,0.0514275357,0.0224081818,0.1079109684,-0.0570266135,0.0648479611,-0.0242292676,-0.1139855534,0.1333576143,-0.0124420980,-0.0000195179,-0.0427268744,-0.0002897825,0.1138897240,0.0260137264,0.0930461511,0.0232275818,0.0344854370,-0.0418076292,-0.1336472183,-0.0337833092,-0.0661100969,0.1962600052,0.0905578583,-0.0507121682,0.1236281842,-0.0421523340,0.2062272280,-0.0047799703,-0.0547297932,-0.0954804346,-0.0250292234,0.1746293902,-0.0664390326,0.0544547811,0.0763894916,0.0270813387,-0.0262698121,-0.0479611047,-0.1147116646,-0.0424032733,-0.0325905457,-0.0458717197,-0.0444112644,0.1155185029,-0.0761731416,-0.1587029099,0.0027476277,0.0820003226,-0.0924717486,-0.1486064643,-0.1331426203,-0.1246610507,0.0530816503,0.1197041199,0.0846849009,-0.1729598492,-0.0630027354,-0.0099284910,0.0095905857,0.0653277487,0.0400698483,0.1873203367,0.0906022638,-0.0234710593,-0.0423649438,0.0168080013,0.0375570133,0.0580128133,0.0107946303,0.0897354037,0.0274007097,0.1003576443,0.0408896022,-0.1820256114,0.0617857315,0.0259723105,0.0254685581,0.0434781201,-0.0970180631,0.1251123846,-0.1551495492,0.1009402946,-0.0431818888,-0.0511791855,0.0103221852,0.1328574419,-0.1231784374,0.1171210334,0.0712441429,-0.1230143681,-0.0478116274,0.1036612689,0.0230829287,0.0421905555,-0.0578825064,-0.0305401981,0.0968308225,0.0803920329,0.0680561438,0.0191713609,-0.0792563185,-0.0450543053,-0.0852783918,-0.0299414862,0.0010581079,0.0610572435,0.0812530071,-0.1634292305,0.0211947095,-0.0390964262,-0.0927807540,0.0998086780,-0.0523403995,-0.0254531205,-0.0060620829,0.1990144998,-0.0027204859,0.1143462658,-0.0665824115,0.0724469572,0.0199439265,0.0944800302,-0.0198460855,-0.0272484701,-0.0476126000,0.0301276315,0.1188778281,0.0507259369,0.0978718176,-0.0319451690,-0.1417936236,0.0099650184,-0.0018633916,-0.1062422171,-0.1457590163,0.0233597066,0.1088298857,-0.0484293289,-0.1195688248,-0.0066719893,0.0110944062,-0.0791265517,-0.0134372087,0.0178348646,0.0916147977,-0.0709139630,-0.0837793127,-0.0815581456,0.0835940763,0.0789200887,0.0142182456,-0.1617289037,0.0761535466,0.1591768712,-0.0412108935,-0.1575309038,0.0048112855,-0.0376128964,-0.0029323550,-0.0281220246,0.0462641679,0.0346413068,0.0353595726,0.0321549028,-0.0184009951,0.2107912451,-0.1387783885,0.1604696810,-0.1036012247,-0.1222070158,0.1352582574,-0.1071577445,-0.0244497322,-0.0173683651,-0.0543224998,0.1255526543,0.0081218723,0.0164173190,0.0807872266,-0.0393447280,0.1919532716,0.0606141612,-0.1137957126,0.0416391380,0.0069398838,-0.0376050882,0.0147846136,-0.0912170336,-0.0339705907,0.1298016161,0.1081772074,0.0786168277,-0.0877042040,-0.1477665752,0.0273386054,-0.1835093796,-0.0687613413,-0.0072411150,-0.1518948078,0.1029607207,-0.0473879576,0.0277521834,0.0349366553,-0.1151064932,0.0259186905,-0.2207457572,0.0622086413,0.1214436144,-0.0044185100,-0.0486890599,-0.0887150094,0.1113781109,0.1408697665,-0.0214104317,0.1805868000,0.0339032970,0.1185174584,-0.1135649160,0.0105017666,0.0714590549,0.0266293790,-0.0463580377,-0.2053830475,-0.0550774336,0.1003517285,-0.0242894590,0.0453819968,0.0642974600,0.2739022970,0.0477770343,-0.0080658635,0.0764625967,-0.0437668189,0.0237731282,0.1547089815,-0.0694542900,-0.0550348274,-0.0724623427,0.0757950321,-0.0073463540,0.0524277724,0.0206166431,-0.0835430250,-0.1121517271,0.1180451140,-0.0979178175,0.0845709443,0.0369958654,0.0474466458,0.0409622565,-0.1299995631,0.1890081763,0.0515419729,0.0534842685,0.0940557495,0.0163241513,0.0027307328,0.0518506020,-0.1224250644,-0.0934477001,-0.1062766165,0.0138231888,0.0629823431,-0.0868779123,0.0434989259,0.0512656383,-0.0748220459,-0.0676072314,0.0123852855,0.0033098073,0.0290740114,-0.1491243988,0.0469957963,0.0686082840,-0.0812539607,-0.1722072959,0.1978421509,0.1013763919,-0.0166817755,0.1413464993,-0.0400933549,-0.0429451428,-0.0445721671,-0.0476111025,0.1294310093,0.0496189147,0.0236452986,0.0812819302,-0.0750220269,0.1202164069,-0.1405030042,0.1341665089,-0.0938229412,-0.0847624242,-0.1376218349,-0.0003872682,0.1153352261,0.0264524836,-0.0458714925,-0.1156531423,-0.0990850776,0.1730347574,0.1072921082,-0.1114539504,0.1228691861,-0.0452010259,0.1025241464,-0.0310048163,0.1695418209,-0.0433526225,-0.1274940223,0.0457303822,0.1816855967,-0.0527899005,-0.1094147339,-0.0898844749,-0.0237297304,-0.0516702831,-0.0744668618,-0.0029213906,0.1750362515,0.0462576784,0.1044235975,-0.0672428682,0.0188431591,0.0778516605,-0.0969052017,-0.0608295798,0.0172733404,0.0585414097,-0.1609257907,0.0920482203,-0.0055773105,-0.1585388184,-0.1520569474,0.1094319597,0.0347745158,-0.0216371063,0.0992072374,-0.0723035336,0.0034464975,-0.0896635279,-0.0120313717,-0.0090126414,0.1435797662,-0.0593247078,-0.1177476719,-0.0398643762,-0.1169286370,-0.0807705894,-0.0049424861,-0.1746873409,0.1802396476,0.0551339574,0.0309205018,-0.1030390635,0.1464640796,-0.0970386192,-0.1306549758,0.0119477417,-0.0981645361,-0.0557881109,-0.0341696739,0.0507079661,-0.0993868411,0.0795169622,-0.1041232347,-0.0294136051,-0.1183347329,-0.0420757905,-0.0096921921,0.0199486129,0.0412397534,-0.0368782394,-0.0891490206,0.0083107008,-0.0064649433,-0.0734516531,-0.0141110327,-0.0326690376,-0.0089367032,-0.0263871178,-0.1092563793,0.1131545752,0.1251066178,0.1618301868,-0.1556504369,0.0393401794,0.0205589272,-0.0210329816,-0.1471226513,0.1916558892,-0.1136478707,0.1037929356,0.1387719512,-0.0732977688,0.1336894184,0.1062470675,0.1580494791,0.0798647553,0.0930885747,0.0288137719,0.1103117466,0.0340522118,-0.0495974645,-0.0710715652,-0.0739955157,-0.1281681955,-0.0158417113,-0.0619004294,-0.0452080294,-0.1579749435,-0.1223040372,0.0896415785,0.0630480722,-0.0770580024,-0.1551332325,0.0254314709,-0.1473009288,-0.1161385775,-0.0058970470,-0.2147239298,0.0238088183,-0.0239502471,-0.0165038779,-0.0385367982,0.0517533384,0.0114407167,0.1601968408,-0.1006170586,-0.0312724747,-0.1626527756,0.0755388588,0.1269212365,0.0858117938,0.0564592853,0.1224472821,-0.1342118233,-0.1384296864,-0.1738363057,-0.0161873996,0.0499360114,0.0920434743,-0.0056782570,0.0117893321,0.0453605168,0.0036808625,-0.0449560769,-0.0173725132,0.0193965565,-0.1116004661,-0.1475729197,0.0965003520,-0.2109393626,-0.1188566685,0.0382771008,0.0142245376,0.0466397144,-0.1270220429,0.0707263350,-0.0375456959,-0.0964681730,0.1228728369,-0.0128265871,-0.0101858899,0.1098984480,-0.0955659598,0.0402003042,-0.1672043651,-0.1640997082,0.0284647830,0.0959881544,-0.1877992749,-0.1453133672,-0.0182459541,-0.0745199323,-0.0806698799,-0.0252422709,0.0098904613,-0.1203529313,0.0553860553,0.0525157116,-0.1383674592,-0.0088884840,-0.0707184374,0.0299473666,-0.0654830858,-0.0606871285,-0.0573013723,0.0071090995,0.1166052222,0.1496138126,-0.0123538645,-0.1028257087,0.0374441557,0.0126198316,0.1237480938,0.1618138999,-0.1385126114,-0.0211081095,0.0482483953,0.0524362773,-0.0655147135,0.0142769702,-0.0520667061,-0.0648194253,0.0875706300,0.1048669517,-0.0340519547,-0.1973748952,-0.1089068875,-0.0493084602,0.1150066629,-0.1244918406,-0.0468871742,0.0056123044,-0.0917334557,-0.0407838970,0.0210545771,0.0832738727,0.0164144952,-0.0089875180,-0.0546439327,0.1880280972,0.0742206573,0.0289499220,-0.1503868848,-0.0014899328,0.0110510699,0.0265280940,-0.1031243801,-0.1370496452,0.0598021410,-0.0238462724,-0.0416527167,-0.1933961213,-0.1735123247,-0.0776096582,0.1563930064,0.0263927206,-0.1359627843,-0.0722798929,0.0016892018,-0.1190754473,-0.0482889935,0.1696499139,-0.0396134332,0.0441017635,0.1461030990,0.0502429791,-0.0193615146,-0.0662102029,-0.0763497576,0.1765484661,0.0066624167,0.1466955692,0.1742672473,-0.1276224107,0.1084386483,-0.0572455861,0.0632167906,0.0820908099,-0.1412875801,-0.0767099932,-0.0108628469,0.1431310922,-0.0352805033,0.0907209963,-0.0082802242,-0.1623245925,0.0156744104,0.0887909159,0.1401094049,-0.0875247791,-0.0857684836,-0.0179733243,0.0209774431,0.0695831925,-0.0337737650,0.0388379581,