-0.0912869647,0.0878785253,-0.0706747621,-0.0276507791,-0.0623269491,-0.0383952707,-0.0923845470,0.0226997528,-0.1102980748,0.1863315850,-0.0558661446,0.1476806849,0.0800184235,0.1313248277,0.0063878899,0.1654018164,-0.1930404007,-0.1009025797,-0.0734759197,-0.0578590147,0.0651667416,0.1755758226,0.0992038995,0.1591079831,-0.0249501783,0.0397402942,0.1101947427,-0.1178706959,-0.0883569047,-0.0592206866,-0.2125116140,0.0405502245,-0.0452993810,0.0576464161,-0.0873153284,0.0700942054,-0.0892848670,0.0702822506,-0.0054893284,0.0596513525,-0.0223756526,-0.0452001691,-0.0287755802,0.0775700808,-0.1653619409,-0.0709902272,0.0587611832,-0.0728904158,0.0911574066,-0.0227992702,0.1651704609,-0.0061578839,0.0184047520,-0.0812470466,0.1966318786,0.0458466336,0.0577628016,0.0616234541,0.0628324449,-0.0877474621,-0.0759527758,-0.1406649947,-0.0216637310,0.1387843788,-0.2228429019,0.0154415108,0.1229997948,0.0321821608,-0.1516172886,0.0524115041,0.0082430160,0.0083507961,-0.0596827231,0.0923889950,-0.0092379916,-0.1754244268,0.0315473638,0.1398136616,0.0702137426,0.0556326807,-0.0587121546,-0.0483900197,-0.0506890267,-0.0477571189,-0.0237500854,-0.0713738576,0.0032743420,-0.0049765841,0.1501052082,0.1300187409,-0.0472677760,0.0209504552,-0.0114822201,0.1226511598,-0.0623348765,0.0095545342,-0.0948342308,-0.0397880264,-0.0469030812,-0.1192736700,-0.1486126631,0.0876904130,0.0705785304,-0.0513515808,-0.0895787030,0.1593782753,-0.0725420341,-0.1045096442,-0.0568958744,0.1276471019,0.0700222701,0.1224368885,-0.1144143641,-0.1148030162,-0.0067390683,0.0127660343,0.0368775763,-0.0227913354,-0.1115381420,0.0444585830,0.0935551450,-0.0638203844,-0.0825623423,0.0680361614,-0.0691207647,0.0023038264,0.0676857829,-0.1633641720,-0.0241647232,-0.0604419559,0.1371376961,0.1049206182,-0.0772057101,0.0254054423,-0.0188203119,0.1622185111,0.0758319795,0.1365903765,0.0429534242,-0.1215156093,-0.0769621357,-0.0243087225,-0.1386975348,0.0676118955,-0.0042735157,-0.1157560199,0.1368369162,-0.0348962955,0.0720085278,0.0668480247,-0.1117701679,0.0032231519,-0.1425441206,-0.0148667768,-0.0029873450,-0.0764299929,-0.0610595569,-0.0964797437,0.0023637565,0.0302516017,0.1306879520,0.1240501851,0.1632739455,-0.0689052865,0.1533405483,-0.0301458631,-0.0371501483,-0.1181673035,0.0476342887,0.1675298810,0.0385391749,-0.0732247233,-0.0477680527,0.1379362196,0.0900736377,0.0761801153,-0.1189941093,0.1777035445,-0.0261567309,0.0614571646,0.0566883646,0.0064290962,0.0366764776,0.0661504641,-0.1189713106,-0.0016581872,-0.1862104088,0.0394751467,0.0644582734,0.1158567891,-0.2172518820,-0.0809286386,0.0423529297,-0.0339550301,-0.1050837189,0.0664683506,0.0962274894,-0.1289871335,-0.0276544467,-0.1375918686,-0.1032169610,0.1201759726,0.0001142105,0.0318284333,0.0923848525,-0.0581179149,-0.0071429270,-0.0568071492,0.0666905418,0.1252985001,0.1029050574,-0.1317025125,0.0564356521,-0.1313501745,0.1063443720,0.1361877918,0.1809632331,-0.1500747204,0.0292020664,0.0746981129,0.1099416986,0.1247164756,0.0549021140,0.0245922040,0.0683571249,0.0778285339,-0.1548908949,0.0790082961,0.0077949353,-0.1144542247,0.0476719253,0.1626685858,0.0134341000,-0.0766134188,-0.1516383588,-0.0709296018,0.0180673338,-0.0316705890,-0.0507007986,-0.0657838732,-0.0804628879,-0.0738631114,-0.0051535261,0.0517423302,-0.0413143635,0.1258513182,0.1456480026,-0.1062728763,-0.0293302890,0.0004293176,0.1179792210,0.0444646589,-0.0831985548,0.0269006155,-0.0430783592,-0.0167909060,0.1328117698,0.1040364504,-0.0401622541,0.1613139957,0.0166221913,-0.2126939148,-0.2177009135,0.0384418443,0.0428459160,0.0310108513,-0.0354915299,-0.0137400897,0.0282621849,-0.1809413731,-0.0645593628,-0.2199380547,0.1321511269,-0.1288171411,-0.0572140329,-0.1482234001,-0.0186906978,-0.1838430613,-0.0425330177,-0.0735816732,-0.1469479501,0.0109102400,-0.0239750464,-0.1849979162,0.0601825453,0.1844034940,-0.0920872688,-0.1969878674,-0.1251419038,0.1373346001,0.1779062748,-0.0120322965,-0.0329827406,0.0529994257,-0.0345330201,0.0083606364,0.1098746359,-0.0381895155,0.0299720727,0.1646497399,0.2151397169,0.0277998634,-0.1191846728,0.1834027320,-0.1531782150,-0.1186432838,-0.2081674784,-0.0275423173,0.0269626025,-0.0040281806,-0.0772069991,0.0380071215,0.1099855676,-0.1444798261,0.0667695850,0.0767925903,0.0845166668,0.1141990796,0.0005695893,0.1697961241,-0.0828893483,0.0701525360,0.0030655582,-0.0590717904,-0.1048152372,-0.0354855023,0.0755514801,-0.1772452593,-0.0158823337,-0.0187342800,0.0758141652,0.0776523128,0.1079932600,-0.0729068741,0.0930776596,0.0167224705,-0.1600197852,-0.1125504151,-0.0633506775,0.1916182190,0.0092421230,-0.1259938478,0.0390781686,-0.0044331248,-0.0811974481,0.0590593554,-0.0082422337,0.0893727615,0.0014679503,0.0613426641,0.0479770750,-0.0930498540,-0.0643354505,-0.1231194586,0.0087594213,-0.0771186724,0.0530632548,0.1883945316,-0.0809355006,0.0712312013,0.0445506126,-0.0656369105,0.0892952085,0.1709557772,-0.1864700615,-0.0650627911,0.1014545336,0.0586655438,0.1231026947,0.0881160647,-0.0388917997,0.1237027571,0.0510745645,-0.0212065224,0.0025096892,0.1360986829,0.0349359326,0.0596029758,0.0943370983,0.0204492025,-0.0955768451,-0.0264402274,0.0252865665,-0.1835155338,-0.0583431795,0.0683095381,0.0657748431,0.1128773317,0.0034556934,0.0619627871,-0.1496805996,-0.0280877203,-0.1164311990,-0.0030551304,0.0774834603,0.0211368464,-0.0449096188,-0.0075498694,0.0473670065,0.0122719053,-0.0417708419,-0.0462459363,-0.1014833525,-0.0246642474,0.0883867070,-0.0761366412,0.0188123062,-0.0417527929,-0.1780993193,0.1508530527,-0.1437563747,-0.0714696944,-0.0548241772,0.1388311386,-0.0871833265,0.1725175083,-0.1631641835,-0.0665894151,-0.0440569520,0.0470792204,-0.0874908566,0.0935274884,-0.0537912510,0.0387700386,0.0236644410,-0.1626756787,0.0772490799,0.1635081917,0.1289809793,-0.0037772129,-0.0285731759,-0.0128635000,0.0140299192,0.0223697796,0.1581317931,0.0311666969,0.0459226146,0.0159119908,0.1260863543,-0.1168248355,-0.0624666959,-0.1399558634,-0.1068446338,0.0612082481,0.0831730962,-0.0402864218,-0.0940999910,0.0489546619,-0.0895236358,-0.0114520872,0.1285432726,-0.0902692601,-0.2062561065,0.0328974351,-0.0109247630,0.0469594449,0.1425303370,0.0075154542,-0.0583217740,0.0185274407,-0.0724119693,0.1655922830,0.2239776105,0.0748770386,0.0945744812,0.1452497840,-0.1799271107,0.1465574354,0.0708100647,0.0759358779,-0.0043040891,-0.0339478068,0.0696254969,-0.1592904925,-0.0086493259,0.0189738944,-0.1612222642,-0.0950336382,0.0072254534,-0.0566380508,0.0882135332,0.2189681232,-0.0386571698,-0.0836087316,-0.0354207121,-0.0728038102,-0.0588929094,0.0643457398,-0.0555547997,-0.0691471621,-0.0502087325,-0.0738380924,0.1441021711,-0.0261702705,-0.0276558958,0.0019896438,-0.0121976519,-0.0542282835,0.0941862911,0.0344217010,0.0393668823,-0.0843416899,-0.0124453269,-0.1613554507,-0.1021487638,-0.0310194883,0.0980755463,-0.1580184400,0.1434414983,-0.0066917469,0.0479985401,-0.0145781348,0.0212843064,-0.0051351357,0.0988143235,-0.1074157134,0.0366480239,0.1207225546,-0.0433481038,-0.0586023740,-0.1413414329,-0.0676975250,0.0515781380,0.1976177990,0.1540231407,-0.0726969764,0.1684732735,-0.0445736535,-0.0854420662,0.0313791558,0.0333217010,-0.0111740343,0.1680557132,-0.1386471689,-0.0778760239,-0.0354197919,0.0276954062,-0.1377133280,-0.0546117127,-0.0751090720,-0.1678610295,-0.0059746485,-0.1043965444,0.0868299976,-0.1240198016,0.1677550077,-0.0251559298,0.0667407662,-0.1606443971,-0.0312294029,0.0324989781,-0.1726954430,0.0716011897,0.0222126935,-0.0635105819,0.0313421749,0.1312236935,0.0480278842,-0.1170554981,0.0627082959,0.1641140580,-0.1613954157,-0.1026581824,0.1429553032,-0.1202813610,-0.1645845622,0.0001747512,-0.0768729374,-0.1200049073,-0.0560970902,0.0543007366,0.0401027761,-0.0292099006,0.1245650873,-0.0701773614,-0.0382737108,-0.1702063382,0.0030864545,0.1186378896,0.1040922403,0.1451872736,0.1227134615,0.1371318698,0.0550274886,-0.0994902551,0.0128913997,0.2273710370,-0.0655038133,0.0389301702,0.0034168155,0.1230175495,-0.1039738208,0.1357544661,-0.0862281024,-0.0964911580,0.0097309258,-0.1154808775,0.0574386716,-0.0141755342,-0.0098534813,0.0773215815,0.0938277915,0.0410625413,-0.0647528768,0.1795633137,0.1416452080,0.0318689682,0.0548279434,0.0636018217,-0.0884753987,0.0776621178,-0.0436260812,-0.0982123911,-0.0237246826,0.0090082549,0.0059616878,0.0253444593,0.0760603547,0.1004642695,0.1844075024,0.0296733193,0.1346955448,-0.1498150826,0.1916834265,-0.0180800539,0.0900455341,0.0108256033,-0.0750607699,0.0533762462,0.0168761294,0.0431138389,0.0338886082,0.1041775346,0.1131708100,0.0500710607,-0.0308228228,-0.0405791439,-0.0072360658,-0.0074724434,-0.0743766055,0.0951019153,-0.1028896794,0.0291821491,0.1079577655,-0.1574719399,0.0189255327,0.0285498593,0.0255029388,0.1914859712,-0.0374139324,0.0127627468,0.0242186878,-0.1050436869,-0.0612483025,-0.1649212241,-0.2027807981,-0.0139267482,-0.0075562987,0.0321542583,-0.0079634329,0.1715088338,-0.1385964751,-0.1828109324,0.2077019066,0.1478890777,-0.0498514958,0.1351369768,-0.0390897281,-0.2140825093,-0.2039990425,0.0183945037,-0.0228243656,0.1190869883,0.0934101120,-0.0377972946,0.1463669389,0.0767488480,0.1121022105,0.1767825037,0.0043676523,0.1158782020,-0.0225143060,-0.1073083431,-0.1613367349,0.0817618668,0.0113385487,0.1150341853,-0.1830561161,-0.1365417838,0.1511955112,-0.1023679972,0.1663258225,-0.0844319463,-0.0635102168,0.1839856505,-0.0834315047,-0.0495067760,-0.0301866643,0.0939598829,-0.1129944995,0.1223247424,0.1833792329,-0.1850624681,0.1504715383,0.0474556945,-0.0915233195,0.1198927909,-0.0047814124,-0.1215888932,0.0399067439,0.0637466237,-0.0189363882,0.0961141735,-0.0392062925,0.0338560380,-0.0192120336,0.1634286791,0.0015934911,-0.0574481003,-0.1483785361,0.1577077061,-0.0650954172,0.0740171373,-0.0905034021,-0.0821122825,-0.1008425206,-0.0575723611,-0.0889558941,-0.1406690925,-0.1168137416,0.1211824864,-0.0793691948,-0.0696478337,-0.0870023891,-0.1066221595,-0.0101425881,0.0843210369,0.0799202994,-0.0233568493,0.0834289268,-0.0007884738,-0.1150133312,-0.1645191014,-0.0721858069,0.0122342231,-0.0206437241,-0.0286741294,-0.0510870293,0.0994733721,0.0470825210,0.0534325540,0.0476455800,0.0991479009,-0.1163789928,0.0819476992,-0.1116866544,-0.0830467418,-0.0130504249,0.1757488847,0.0896301344,0.0203383453,0.1290136874,0.0582167506,0.1152926087,0.0591820553,-0.0334961228,-0.0614757836,-0.0146384919,0.0020301845,0.0639758706,0.0084413495,0.0759566277,0.0528845079,-0.2277630717,-0.0802179873,0.0985007957,-0.0603698343,-0.0559290051,0.1007769704,0.0971104577,0.0636240318,0.0563700758,-0.1380694956,-0.1219719425,-0.1282401830,0.1019589603,0.0512549095,-0.0881035328,0.1815447509,-0.0749389455,-0.1235183626,-0.0950187817,-0.1018497720,-0.0418918543,-0.0534565225,0.1638898551,-0.1202114969,0.1112634614,-0.0514175110,-0.1238178685,-0.0120084137,0.0711295381,0.0782366470,0.1068566591,-0.1917511523,-0.0062164036,-0.0406674482,-0.0729595944,0.0328979269,0.0834375992,0.0430650152,-0.1120535508,-0.0189096835,-0.0382539295,-0.1452115178,-0.0515531339,-0.0159895625,-0.1471877843,0.0106100636,0.0848788023,-0.0411537774,0.2348022610,0.1024400368,-0.0536868200,-0.0844146833,0.2063495964,0.1542443186,0.0752557591,-0.0662149191,-0.0232795589,-0.0266900025,-0.0284031667,0.0339837633,0.0059926989,0.0809399262,0.0424447730,-0.1378992051,0.0017167841,-0.1376130283,0.0347054638,-0.0262406431,-0.1529418379,-0.1029027700,0.0612843186,0.0237023365,0.0372600071,-0.1400005668,-0.0112729454,0.1074450910,-0.1827248484,-0.0185096171,0.0410407260,-0.1472818702,-0.1214999184,0.0581728444,0.0677739382,-0.0304039381,0.1862903535,-0.0170523115,0.1217624992,-0.0636258796,0.1072593927,0.1155458689,-0.1134498939,0.0800437257,0.0739089921,-0.0902886018,-0.0748625174,-0.0862718448,0.0453012586,0.0056838300,0.0315919295,0.1034873202,-0.0118321022,-0.0593683235,-0.1110024750,-0.0094976649,-0.0628754795,-0.0822873041,-0.0512950979,0.0247310735,-0.0431625694,0.0621738248,0.0469726324,-0.0156154083,0.0608786941,0.1435754895,0.1041574776,-0.1420611739,-0.0142952865,0.1552713662,0.0178224500,-0.0127476063,-0.0308766663,-0.0340965204,0.0367574058,-0.1125915796,0.0142933559,-0.1033671126,-0.1634655595,0.0875175819,0.0754950941,0.0068406677,-0.0800588876,0.0877202675,-0.0197641551,0.0315091312,-0.0143251922,-0.0888264552,0.0139247784,-0.0365692824,0.0289172102,-0.0618731380,-0.0352308862,0.1027504951,-0.0951320007,-0.0412461236,0.0028205528,-0.0362169631,-0.0646819919,-0.0488721542,0.0958174840,-0.1060628816,-0.1366801709,-0.1338482797,-0.0493707210,-0.1480436325,-0.2072425634,0.0743559375,-0.0510067716,0.0668115541,-0.1001455411,-0.1346509159,-0.0385982133,0.1129306108,0.0955848768,-0.1755573750,-0.0795801133,0.1127392128,0.0578667521,-0.1881750077,0.2090699226,-0.0801018327,-0.0787281096,0.0051593361,0.2022851110,0.1020916402,0.0021582951,-0.0722080693,0.1184661761,-0.1346483678,0.0947551429,0.1092054546,-0.0361619219,0.0372449718,0.1054015532,0.0386270769,-0.1747751087,-0.0168347564,0.0831672326,-0.0509717129,-0.0921444148,-0.0218819138,0.0345769934,0.1137209684,-0.0923704505,-0.0328779407,-0.0774333850,0.0513165705,0.0386107862,0.1307397187,-0.0887281969,0.1570145041,-0.0111126490,0.0643658563,0.1731482744,0.0881141797,-0.0910668522,0.0823155642,0.0133660622,0.1822095364,-0.0382708833,-0.0264341254,-0.0310019441,-0.0135122146,-0.0136728678,0.1356781721,-0.0158745330,0.0806964859,0.0973476917,0.0992236584,0.1323629022,0.1181481481,-0.1270327121,-0.0074145966,0.0070785750,0.1755286604,0.0387567170,0.1142813414,0.0615399890,-0.0009281313,-0.0422941670,-0.0049218717,0.0364728421,-0.0662311316,-0.0529121123,-0.0916619003,0.1770886034,0.0749882981,-0.0606039278,-0.0850855485,0.0398457833,0.0646273643,0.0809396133,0.0787344873,0.0225005839,-0.0852266401,-0.0495267250,0.1544392109,-0.0036314318,0.0971125886,0.0686097741,0.0398847312,-0.0730124265,0.0183682069,0.1774378866,0.1846276969,-0.0852520540,0.0184177030,0.1338125914,0.2174998224,0.0009495129,-0.1042627022,0.0057739336,0.1984427422,-0.0847941339,0.1288762242,0.0160164628,0.1858703792,-0.0768966228,0.0932789370,0.1166938692,0.1085075513,-0.0126863336,0.1985289305,-0.0920954943,0.0434793942,0.0247444306,0.1249458864,0.0192721281,-0.0245161820,0.1524823308,0.0048025511,-0.0437102057,0.0097983144,0.0192025006,0.1981551647,-0.0537381098,-0.1917240769,0.0434992127,0.0549804680,0.1241087839,-0.1052365899,-0.0031335070,-0.0000101820,0.1876923740,-0.0889332741,-0.0569901317,-0.2478497177,0.1405651420,0.0251019094,0.0102519197,0.0618382506,0.0575132035,0.0297449604,0.1290277839,0.0147544779,0.0634476021,0.0024777954,0.1187995449,0.0031850152,-0.1888558269,-0.1873176694,0.0613268092,-0.0000040416,0.0498297922,-0.0671509877,-0.1421272755,-0.1299073845,0.0669524372,-0.0427255221,-0.0121455519,-0.0205149837,-0.0488066711,0.1059777513,0.0606720448,-0.1074139327,-0.0576746091,0.0106690563,-0.0300656687,0.1673435867,-0.0992776453,-0.1002322435,0.2497725338,0.0404978022,0.1969745904,-0.0832752883,-0.0865661278,0.0969612300,0.2216932178,0.0239322446,-0.0860453174,-0.0549010150,0.0496187657,0.1822887510,-0.0955805406,-0.0053948318,-0.0353078805,-0.0513130166,0.1359542459,-0.1077348217,-0.0296667386,0.1065222621,-0.0203691591,0.1349064559,-0.1222298145,-0.0203434210,0.0285466034,-0.0377847105,-0.0529288165,-0.0929276422,-0.1201414242,0.0066907653,-0.0577714331,-0.1426326483,0.1499434114,-0.0836477056,0.1002781317,0.0040780315,-0.0678298399,0.0551493876,-0.0128975725,0.1325686127,0.0192173887,0.0236466415,-0.0396346822,-0.0399686918,-0.0300115738,0.0249201134,-0.0806180015,0.0389430635,-0.0611758977,-0.0394142680,-0.0149756940,0.0299499687,0.0873764157,-0.0851041600,-0.0189362373,0.0266105030,0.0634528622,0.0036754771,-0.0280668456,-0.0494482592,-0.0317982621,0.0110028004,0.0919867903,0.0211475287,0.1230726987,0.0134674674,0.0110386536,0.0042367140,0.0401724391,0.0159655455,-0.1046101078,-0.0754121989,-0.0080004828,-0.0327290744,-0.0941893458,0.1203388348,0.0717951283,-0.1646431088,0.1676754951,0.0254804529,0.0182421450,-0.1340311617,0.1192535982,-0.1165735871,-0.0239552185,-0.1306898892,0.1525040865,-0.0237676222,-0.1828821301,0.0332033969,0.0568321496,-0.0073718415,-0.0494678505,-0.0866723806,-0.0945404544,-0.0694490522,-0.0136799933,-0.0550434664,-0.0765323713,0.0967919827,0.0146740023,0.0411944725,0.0590407588,0.1614077687,-0.0846585631,-0.0293254163,-0.0836360008,0.2020804286,0.0704043508,-0.0506538823,0.1331753433,0.0067317188,-0.0402482487,0.0702818781,0.0233799890,0.0300040916,0.2114305794,-0.0157054085,-0.1444782615,0.0964827538,0.0906108692,-0.0593007989,-0.1118500680,-0.0243005045,-0.1388474703,-0.0720234811,0.0238757543,-0.1899961829,-0.0612430610,0.1030284464,0.0645467788,0.0924706832,-0.1550244540,-0.0817691237,0.0484215543,-0.0558843873,-0.1774049550,0.0027069752,0.0136594251,0.1195920855,-0.0114996694,0.1060353741,0.0805251598,-0.0179991852,-0.0674124062,0.0648252070,-0.0675890669,0.1336960196,-0.0276921261,0.0675701648,-0.1162473932,-0.0021722354,0.1771325022,-0.0284063313,0.0167171173,-0.1628425121,-0.0690621212,0.1348532736,0.0529929772,0.1275301278,-0.0824457332,0.0182067100,0.0875064209,0.0792396143,-0.0112407757,0.0116027603,0.0114292372,-0.1246941984,-0.1690904945,-0.0735073313,0.1626927853,0.0126301507,0.0254482888,-0.1657496691,0.1690148711,0.1383550018,0.0800492913,-0.1087119952,-0.0300543904,-0.0412770845,0.1228306368,-0.0564636141,0.0836273804,0.0625817552,-0.0931017548,0.0749518126,0.0623233058,0.1449450999,-0.1106403992,0.1783252656,0.1497195065,0.1106351316,-0.0021519943,-0.0091121122,-0.0255241003,-0.0180220865,-0.1142894626,-0.0624924898,0.1110293120,-0.0039683529,-0.0800595209,-0.0656567067,-0.0145454071,0.0053336769,0.1559533775,-0.1037745997,0.0175675172,-0.0424054787,-0.0584716313,-0.0007198700,-0.1234569848,0.0077312253,-0.0511190444,0.0662769750,-0.1747638732,-0.0889915302,-0.0017469976,0.0150358016,-0.0796782002,-0.0653740689,0.1849619895,-0.1145156845,-0.0145040611,0.2166750580,0.0932196751,0.0347114913,0.1621211767,0.0150696365,0.1880258769,0.0146111669,-0.1737217307,0.0343953334,-0.0351381339,-0.0019319128,-0.1113066599,-0.0303769447,-0.1054139286,0.0284229815,-0.0372838490,0.0853456184,-0.0198489130,0.0692921951,0.1489087492,0.1161915511,0.1156111360,0.1494446099,-0.0095564844,-0.0194314048,0.0206157751,0.1615982503,0.0155834854,-0.0338107571,0.1131869107,0.0874746218,0.0628051758,-0.1121937186,0.0005835216,0.1507371366,0.0115890615,-0.0632960647,0.0342631042,-0.1207842231,-0.1036773250,-0.0653999597,0.0885527655,0.0681294277,-0.0139728291,0.0371446311,-0.1243717596,0.0955976695,-0.1140603274,0.1041720957,0.0172949079,0.0140500041,0.0783567801,0.1238693818,-0.0996415019,0.2233550251,0.0948895365,0.0362332128,0.0142104849,-0.1023782790,0.0000441184,0.1950412542,-0.0571986027,0.0359373689,0.0687990040,-0.0891928226,-0.1189926490,0.0674842820,-0.1720336676,-0.0910977423,-0.1593828052,0.1490667760,-0.0210564267,0.0284513123,-0.0103931585,-0.0612007603,0.2363398671,0.0926714391,0.0280579291,0.0634383932,0.1070774347,-0.0271702800,0.0328109562,-0.0338158309,-0.0551440232,0.0635893345,-0.0551398247,-0.0144126816,0.1382750571,-0.0492015891,-0.1724285334,-0.0014524006,0.1127709225,-0.0378271714,0.0914643854,0.0242437664,-0.0482817926,0.0214477368,0.0232964810,0.1138862073,-0.0957232490,0.0926826522,0.0019321389,0.0541108847,0.1316108257,0.0183805209,-0.0473087355,0.0242400821,-0.1290228367,-0.1186190546,0.1847470105,-0.1360330880,-0.1048758775,-0.1950649470,0.0447162651,-0.1038405746,0.0210192613,-0.0782274827,0.0856746137,0.0918589681,0.0673024654,-0.0730747059,-0.1507410556,-0.0468824469,0.0312404931,0.1324430406,-0.0928181037,0.0542160161,-0.1011496708,-0.1492792219,0.0259415321,0.1158355400,0.1184865534,-0.0193932429,0.0758694336,0.2059412599,0.0921556726,0.1651350558,0.0345975049,-0.0381224900,0.0346657634,0.0341677479,0.0548327900,0.0916642398,-0.1371624321,0.1086540073,0.0037705298,0.0064042145,0.0650123432,-0.0596386865,-0.0234109964,0.0897635967,-0.1508565247,0.0050522028,-0.2164183706,-0.0013247648,0.0378496125,0.2358124703,0.0944683775,-0.0348868594,-0.0671987459,-0.1647702754,-0.0545050763,0.0009298206,0.0138223078,-0.1404671371,-0.0498803332,0.0481564701,0.0612194054,0.0800251663,0.1130593196,0.1796731204,0.1056218669,0.0529649407,-0.1883660555,0.2262392491,-0.0824132189,-0.0417086743,0.1510749608,0.1020106003,0.0236546304,-0.0923723057,0.0545033254,-0.0050889379,0.0015278981,0.1966987848,0.0214740764,0.1659775823,0.0449014083,0.0068898629,0.0595323928,-0.1827091426,0.1371912956,0.1201516762,0.2116571665,0.0443607867,-0.0299695637,-0.1330530196,-0.0717596933,-0.0510807373,0.0421557687,0.0574793406,0.0960213318,-0.0373491533,-0.0267179552,0.0814906210,0.0452908538,-0.1227514222,-0.0522111058,0.0976384506,-0.1277826279,-0.0080726901,-0.1231688410,-0.0115172584,0.1440775245,-0.0919504315,-0.1267820597,0.0104741286,-0.0335869789,0.1047174409,0.1096795872,0.0639374778,-0.1631069481,-0.1221162304,-0.1259280592,0.0892198086,0.1051552668,-0.0905831456,-0.1080082506,-0.0162102021,-0.0398217551,0.0013668147,-0.1238417625,0.0652097985,-0.1382842809,0.1049864739,0.0029295892,0.1720648557,-0.0229324475,-0.1313100010,0.0548927151,-0.2655375600,-0.0304850228,-0.1042345241,0.0025131179,0.1305164248,-0.0315858237,-0.0372993127,-0.0618777536,-0.1068237722,0.1186012179,0.1010255814,0.0160582028,0.0317468457,0.0772777572,0.0454823300,0.0129244039,-0.0569428056,-0.0773905367,0.0482884981,0.0320832767,-0.0049334704,-0.1444861293,0.1188130230,-0.0020806615,-0.0025607313,-0.0140634030,0.0789354816,0.0593314357,0.0167119447,0.0780157372,-0.0045465371,-0.1202557385,0.1742390096,0.0712136254,0.0904791355,0.0458174832,-0.1552603394,-0.1867264956,0.0952291861,-0.1530419439,-0.0519014746,-0.0475433730,0.0565171205,0.0551271662,0.1062684953,-0.1059599221,0.0227781385,0.0238415934,-0.1508179605,0.0656855479,-0.0557619855,-0.0180874486,-0.0103684133,0.1785762459,-0.0947473720,-0.0609287061,0.0053157392,0.1632952392,-0.0883546770,0.0936404392,0.0128449341,0.0787142441,-0.0360222422,0.0438274555,0.0940245390,0.1119276732,-0.0148729356,0.0292440541,-0.0013340684,0.1964222938,-0.1686458737,0.0776877105,0.0806638673,-0.0420490950,-0.0641513020,-0.0278591346,-0.0007670419,0.1502341628,-0.0367308892,0.0079011405,0.1394983232,-0.1079570875,-0.0661922768,0.0776400417,0.0205729287,0.0836319476,0.0611439273,0.0568500794,-0.0876897052,0.0058451472,-0.1352815181,0.1486982554,-0.0160082504,-0.1127814651,0.0506030507,-0.1674862057,0.0786944851,-0.1222891733,-0.0673680827,0.0074985926,-0.0085031558,-0.1199240685,0.0485512130,-0.1303026080,0.0263307989,0.1062720641,0.0985563025,0.1542767286,0.0830887407,-0.1524848938,0.1690829247,0.1117777079,0.0739451274,-0.0162185002,-0.0594055653,-0.2119041234,-0.0786589459,0.1751528531,0.0235188212,-0.0478543378,0.0138164340,-0.1473364979,-0.0141599355,-0.0650702789,-0.0054473463,0.1104477420,0.1763685346,0.1175350919,0.1031823307,0.0331543647,0.1189037785,0.0225968435,-0.0160654839,0.0624832027,0.0145644052,-0.0363738686,-0.0325170159,0.1353258938,-0.1410204470,0.0948466659,-0.0269900095,-0.0620299280,-0.0509979650,-0.0854695588,0.0119655589,-0.0828986689,0.1026880369,0.2009292692,0.1285005212,0.1244809180,-0.1696011424,-0.0335689709,-0.0271229614,0.0513593964,0.0923008248,0.0402770825,0.0188426301,0.0093507646,-0.1707742214,-0.0415926054,0.0512947701,-0.1669393182,-0.0685476810,0.0997219905,0.0744150952,0.0028820238,0.0807898641,-0.2064489126,0.0628604144,0.0445018187,0.1424388736,0.0488264449,0.0864318609,-0.0616759397,-0.1946039647,-0.0283416156,0.0831198990,0.0731661320,0.0463263504,-0.1493739486,-0.0886385664,0.0302371439,0.1215866879,-0.1086082757,0.1932203621,0.1006978080,0.0530508943,-0.0535442531,0.0738593787,0.0658933669,0.0171469878,-0.0459639244,-0.0508424938,-0.0800669566,0.1527984589,-0.1281228811,0.0658629760,0.0815661326,-0.0635245964,-0.0740178972,-0.0856873170,-0.1532693952,-0.0288488157,-0.0624462329,-0.0532395542,0.1408493668,-0.0718118027,-0.0761879534,0.0207649190,0.1437833756,0.1328140199,-0.0113469483,0.0285331830,0.0888135284,0.2058462799,0.0667478144,-0.0783916265,-0.1801998168,-0.0644043237,-0.1004526839,0.0066658650,0.1162284613,-0.1313036382,-0.0049355575,-0.0483000800,-0.0451811515,0.0573592335,-0.0536749028,-0.1602159142,-0.0060265423,0.0063732630,0.0082425978,-0.1520827115,-0.1480191499,0.1407527924,0.1139683947,-0.0325863287,-0.1332325190,-0.0802223980,0.0632192120,-0.0903401300,-0.0026637434,0.0724931359,0.0185922403,-0.0238202959,-0.0046763401,0.0945873260,-0.1170515418,0.0897264555,-0.0888691545,0.0488756187,0.0940490961,-0.0669328347,-0.1099760011,0.0151591515,0.0594056770,0.0239490829,0.0193722043,-0.0360682160,-0.0395039693,-0.0797463059,-0.0519048236,0.0480998605,-0.1197722256,-0.0019372064,0.0257554073,-0.1163494363,-0.0063055917,0.0900855362,-0.1727934927,-0.0213788599,-0.1794562936,-0.0359184928,0.0340437144,0.0534031950,-0.0318924747,-0.0287332926,0.0930197760,0.0099040279,0.0930888280,0.0302948821,0.2243519276,-0.1394697577,0.0549421869,0.0038303516,0.1392834932,0.0737152398,-0.1821692735,-0.0395651720,0.1007395536,-0.0037054874,-0.0557698607,0.1562208682,0.0001925199,-0.2000849843,0.0957723558,-0.0800154507,0.0249667075,0.1890952289,-0.0353052355,0.0825694203,0.0219545159,-0.1172157750,0.1165315062,0.0133808879,0.0024055121,-0.0913558453,0.1077902615,-0.0593747385,0.0214904863,0.0572836995,-0.1969653070,-0.0046829903,-0.0757694170,-0.1410785764,0.0150207262,0.0517003983,-0.1429518014,0.2012868226,0.0279958490,-0.0263752211,0.0536190458,0.0456670187,0.0067865411,0.1412150413,0.0456623659,0.0137372669,-0.0873811916,0.1797373891,0.0605594777,-0.0908381566,0.1239391342,-0.0914958417,0.1690312475,0.0487486497,0.0444090888,-0.0170615371,-0.0254248232,0.0500414670,0.0848945305,-0.0749803111,-0.2105903178,-0.1288554668,-0.0906137899,-0.1442343444,-0.1198664829,-0.1371026933,0.1355093122,-0.0639839843,-0.0839843526,0.0821150243,0.1237645596,-0.0713886619,-0.0218624528,-0.0241997521,0.0695875287,0.1393877864,0.0457165912,0.0686548501,0.0403281599,0.1109911725,0.1286886334,-0.0298519097,0.0798569694,0.0512586460,0.0712693632,-0.1257442236,-0.0350722075,0.0521601699,-0.0497764722,-0.0152844237,-0.0167335980,-0.0387128964,0.0434888303,0.0841552094,-0.0157712903,0.0319312103,0.1028102487,0.0718468279,-0.0368050039,-0.1267727464,0.0991904289,-0.1152352467,-0.0335848816,0.0021330845,0.0280945003,0.0050032297,-0.1444027573,0.0168172996,0.1377873868,0.0701111332,0.0058878916,0.0979336500,0.1206945255,0.1131502017,0.0134141622,0.0189474616,0.0036885731,-0.1316921413,0.0719469264,0.1819029599,-0.1700322330,-0.1194222495,-0.0527152941,-0.0714587122,0.0279441029,-0.0314904377,-0.0468855947,0.0063593737,-0.0324889831,0.0583235957,0.1151174754,0.0677816421,0.0139838671,0.0180050284,0.0591740571,-0.0707959458,-0.1049130782,0.1181356609,0.0307232998,0.0713830441,0.0161404610,0.0678512603,-0.0906160325,-0.1321202070,0.0478923619,0.1507994235,0.0254355390,0.0318252631,-0.0545012020,0.1059952974,0.0923176482,-0.0159120541,-0.0764666423,0.0513758622,0.0600376390,-0.0498465225,0.0002334678,0.0905275643,-0.1918683350,-0.1691951603,-0.0206411369,-0.0954248235,0.0451074243,0.0741283223,0.0437800474,-0.0115644159,-0.0986912325,0.0710581541,-0.1579509079,0.0647436380,0.0834057778,-0.1117311344,0.0155245792,0.1234222502,-0.0757083520,0.0055646109,-0.0201234613,0.0012986253,0.0504837036,-0.1687418073,0.0954759717,0.1662516296,0.0346531309,0.0175111163,0.0062643890,-0.0847855881,0.0236293972,-0.0350874700,0.0635826066,-0.0989577100,-0.0705169737,0.0521772169,0.0974899530,0.0189573653,0.1133603230,-0.0616424195,-0.1122535467,-0.1514943391,0.0020211381,0.0669343546,0.0414456464,-0.1089507565,-0.0980460346,-0.1125512794,0.0249951556,-0.0339825489,0.1152923256,-0.0953589603,0.0957879797,-0.0957792997,0.0424059629,-0.0878096521,-0.1326105893,0.0760257468,0.0132452454,0.0224765427,-0.1266068965,0.1198386773,-0.0801639706,0.0530398376,0.0111100068,-0.0375042260,0.0319966748,-0.0590862855,0.1453692317,0.2059098035,-0.1426717043,-0.1152419150,-0.0906395167,-0.0957305357,-0.0604459010,-0.0333062373,0.0857091472,-0.0723232850,0.0654219985,0.0346592814,-0.1243499741,0.0256972965,-0.2221356630,0.0751174688,0.0155464159,0.0529009588,-0.1775285006,-0.1127236485,0.1252044886,-0.0571843050,-0.0537111610,0.0752796903,-0.0697825402,0.0547298156,-0.0190351382,-0.0676400736,-0.0816184506,-0.0989135951,-0.2019963712,-0.0410937928,-0.0239339154,0.0370318666,-0.0482988097,0.0747797787,0.0160448141,-0.0731679648,0.0318602808,0.0675150007,-0.0338931233,0.1520840377,-0.0727870241,0.1666160077,-0.2330667973,0.1798179448,-0.0419064797,0.0934294239,-0.0983512178,0.1735924333,0.0905852020,-0.0138173681,-0.0766296238,-0.0135081951,-0.2302340716,0.0205203295,0.0160785764,0.0968665034,-0.0052406448,0.0365432873,0.0009916857,-0.0346092470,0.0472389646,0.0728878975,-0.0971840471,0.1480302066,-0.1225793809,0.0928182974,-0.1403638422,-0.0474535227,0.0640888289,0.2070757002,-0.0407402031,-0.0324170068,-0.1594527513,0.1371519417,-0.0030874598,-0.0017824904,0.0135468496,0.1241947934,0.0697139651,-0.2419710010,-0.0921319053,0.0255021155,0.0090628462,0.1035434753,0.2231359780,-0.1161705777,0.0366037637,-0.0458714962,0.1021047160,-0.0148640042,0.1471949071,0.1603175253,-0.1248080283,-0.0078577707,0.0380078442,0.0371390432,0.1643127352,-0.1058772504,-0.0761852711,0.0349626951,-0.0383688733,0.0826240852,-0.0803781226,-0.0405311845,0.0839118138,-0.0005358906,0.1582891792,0.1180357561,0.1203858405,0.0525663160,0.0603495128,0.1510432512,-0.0424446836,-0.0610752292,-0.0777892023,0.0783723816,-0.0344908163,-0.0816237926,-0.0078320196,-0.0683806762,-0.0465879366,0.0282801762,0.0056867748,0.1124257669,0.0755819082,0.1212626994,0.0429414101,0.1339979172,0.0215629432,-0.0720293447,0.0584694892,0.0250201151,0.0240700934,-0.0384123698,0.0992194787,0.1893603355,0.0115736853,-0.0260377526,0.0637665838,0.0824635625,-0.0204889718,0.0266555753,0.0603742562,-0.0726163387,-0.2375490516,-0.1253553331,-0.0451356694,-0.0846093670,-0.0830125064,-0.0150232986,0.0101050828,0.1115809679,0.0339633189,0.0092047229,0.0198971033,-0.1595279425,0.0284940153,-0.0891309306,-0.0617950037,0.1257851869,0.0005141247,-0.2049813569,0.1942111999,-0.1980920583,0.0298721623,-0.0488163494,0.1822075248,-0.1634158492,0.1662649363,-0.0298965145,-0.0846247301,-0.0521101803,0.0249249078,0.0682233945,0.1108015701,0.2109423131,-0.0288992114,0.1618335694,-0.0250151642,0.1435662806,0.1460871845,-0.0587302856,-0.1007432565,-0.0469085500,-0.0114338016,-0.1278894395,0.1508585364,-0.0473983660,0.1776356846,0.0104552694,0.0201907940,0.1026599035,0.0779298991,-0.1054976583,-0.0173231848,-0.2247804552,-0.0201844815,0.0312615745,0.0346106552,0.0933269858,0.0625508055,0.0895683318,-0.1933772713,-0.0045129247,0.0668527558,-0.1522293538,0.1648050100,-0.1470137537,0.0996644199,-0.0236442145,0.2254230231,0.0265206937,-0.0427298471,-0.1003382206,-0.0508004278,0.0651590601,-0.0435461439,0.0070846658,-0.1370447874,-0.1748082340,-0.0062255426,-0.0107195098,-0.1301574111,0.0544548593,-0.0486116037,0.0140301138,-0.1593493521,0.0498818085,-0.1507131457,0.0562196262,-0.0071808342,-0.1602776051,-0.0430422574,-0.0747511163,-0.0223575141,-0.1814080030,0.0084568467,0.0748664886,-0.1100397557,-0.0622839667,-0.0948173255,-0.1850562543,-0.0113393804,0.1017645821,0.0801981464,-0.1044124067,0.0817805529,0.1408656090,0.0899276063,0.1423015594,-0.0104507646,-0.0363871045,-0.0307704564,0.0330002569,-0.0207483768,0.0441067778,-0.0927759930,0.0518133678,0.0097028343,0.0641660914,-0.0996825472,0.0474775881,-0.0652490333,-0.1205684543,0.1859043837,-0.1483861506,0.0158881508,0.0297985394,0.0993055627,-0.0737740919,-0.1569058746,-0.0095838662,-0.0152771901,-0.0834545195,0.0572926849,-0.0067229951,-0.0046338569,-0.0630080104,0.0132577335,0.0520685911,-0.0459111892,-0.1508075297,-0.0768346339,-0.0484739058,0.0458183214,0.0140078254,-0.0743829608,-0.1153853089,-0.0646100640,0.0293078236,0.0933843181,-0.0604174994,-0.0262728520,-0.0913684741,-0.0098927179,0.0964404643,-0.0253104530,0.0392327271,0.1130299941,0.1166426018,0.0348664634,0.0846737549,-0.1527166516,-0.0139015373,-0.0712979585,-0.0161801260,-0.0471056029,-0.0885523781,-0.0176050533,0.0303519815,0.0192171726,-0.1387187690,-0.0120710051,0.1163276359,0.0062046018,0.1090811864,-0.0746210143,-0.0517584980,0.0247047059,-0.0012658834,-0.0020639596,0.0742319822,0.1882571131,0.0326708592,-0.0427819528,-0.0512733087,-0.0183343086,-0.0174967498,0.1099782288,0.1244797334,-0.1437651962,0.1503572166,-0.0274242721,0.0274239033,0.0367854163,-0.0289849583,-0.0455722250,-0.0418768898,-0.0262421779,-0.0236530453,0.0824931562,-0.1125539243,0.0124040935,-0.1217403114,-0.0542197712,-0.1481855363,0.0892681852,0.0167616084,-0.1073848382,-0.0171301737,-0.0499100573,0.0685491189,0.1297329813,0.0138498675,-0.1527009755,-0.0890857652,-0.0676525980,0.0830738172,0.1591913849,-0.1115598381,0.1797826439,0.0306887552,-0.0385302231,0.0433186889,0.1801917553,0.0714698732,0.1801711768,0.0371623076,-0.1032644808,0.1830804944,0.0423794091,0.0071375268,0.1326960623,0.1150421649,0.1222991422,0.2196553499,-0.1096137390,-0.0074962052,0.0595340729,0.1391679347,-0.0138489231,0.0303618889,-0.1145439595,-0.0240110289,-0.1472421438,-0.2221606821,0.2344867438,0.2142185271,-0.0139586451,-0.0153164305,-0.1163220108,0.0068148132,-0.0164285619,0.1660714149,0.0411046036,0.0841358155,-0.2193371058,-0.1281846613,0.0272065457,-0.0680549666,-0.0780120715,0.1007766426,-0.0624608435,-0.0693250224,0.0869305506,-0.0353264846,0.1288640499,0.2148141563,0.1743170172,-0.1319399625,-0.0690755770,-0.0389949977,-0.1452829838,0.0118220868,-0.0022531140,-0.0150811002,-0.1552024782,0.0532062128,-0.0410053693,-0.0838473365,-0.1402921230,0.0447498597,0.0090124253,-0.0011669482,-0.0655583292,-0.1181583479,-0.0428344086,0.0252640639,-0.0026853543,0.0982109383,-0.0290893987,-0.0343222395,0.0694183633,0.0749049485,-0.0981704071,0.0259591006,0.1289725155,0.1647991240,0.0703524873,0.0117224054,-0.1273680329,-0.0312590748,0.0824481025,-0.0600894988,0.0026400441,0.0646608993,-0.1264697909,0.0685046241,0.0470877737,-0.0671855062,-0.1344208866,-0.0680754930,0.0800577626,0.0620115437,-0.0426066332,0.1535908729,-0.0274907760,0.1445179731,0.0278660730,-0.0310224611,0.0810088143,0.1313537806,-0.0540177822,-0.0595472604,0.0703095943,-0.0299034342,-0.0717351958,0.0231021680,0.1247577146,-0.0145252105,-0.0172188208,0.0595312603,-0.1164670587,0.1172951907,0.0045046769,0.0537687428,-0.0898842663,0.0706012025,0.1635109931,0.0685339794,0.0370475501,0.1048375517,0.0188955124,-0.1412721574,-0.0070769624,0.0477204099,0.0590781383,-0.0551760420,0.0757249817,-0.0071747750,0.1498572677,-0.0539750159,-0.0350366123,0.0183908027,-0.0095677692,-0.0166921578,0.0370709188,0.1610224694,0.0177923087,-0.0017881076,-0.0593574308,0.1378053725,0.1652358025,-0.0459925272,0.0841262341,-0.0699030012,0.0699811280,0.0945629030,0.1081423312,-0.0272777248,-0.0259450544,0.1930053830,0.2510673404,0.0365168415,0.0272069499,0.0485059619,0.0924692303,0.0922135189,0.0300232470,-0.0751975924,-0.0045180065,-0.1679240167,0.0724292025,-0.0056089428,-0.0529487170,-0.0499288142,0.0644163564,-0.0749493092,-0.0338395387,-0.0149978753,0.1042269915,-0.0423148535,0.0187543333,-0.0610406771,-0.0524630882,0.1541943103,-0.0275881570,0.0407100804,-0.0065522953,0.1034492850,0.0846922621,0.0770930126,0.0442456864,-0.0664179102,-0.1539522111,0.0462116450,0.0318854749,-0.1131370217,0.1589514762,0.0495404117,-0.0271893181,0.1312655956,-0.1111122221,-0.1414535791,-0.0823573768,0.0435585268,0.0322140194,-0.0709306523,-0.0386136323,-0.0132448124,0.0843668804,0.0870305449,0.0342917740,-0.0858119577,-0.0175048877,-0.0623809062,0.0956403688,-0.0725525469,-0.0838759840,-0.1373738647,-0.0162805151,-0.0622366592,-0.0901614204,-0.0046743425,-0.0214444324,0.0250603650,0.0682271793,-0.1054580733,-0.1598962098,-0.0322360545,-0.1819625944,0.0856226385,-0.0320211984,0.1863566190,0.0177679732,0.1014127284,-0.1098417193,-0.1039834619,0.1151862442,-0.0638611466,0.0885111094,-0.0846270993,-0.1021027863,-0.0716019422,0.0209756941,-0.0576332957,0.0628557280,-0.0616071001,-0.0440284759,0.0164638311,0.1701014191,0.0125662033,0.0820864290,0.0047308099,0.2142604589,0.0119190989,-0.0395597219,-0.0778177902,-0.0405965522,-0.1218571439,0.0980917662,0.0382866301,-0.1572832912,-0.0135394717,0.1027062386,0.1655386984,0.1171422973,0.1245725900,0.0569195040,-0.0351377502,0.0658397973,-0.0405586734,-0.0791446567,-0.0395300835,-0.0899649486,-0.0134278629,0.1189992130,-0.0333162844,-0.0080966195,0.0987514630,0.0459383093,-0.0386565588,-0.0169612356,0.0297658220,0.0771571100,0.0519895144,0.1283072680,0.1523715854,0.0478359982,0.0801783204,-0.1192143261,-0.0948695093,0.0032541559,-0.0136700189,0.0763892978,0.0501283295,0.1187350601,0.0780618191,-0.0650621429,0.1127148122,0.1663227826,-0.1379223615,0.1248412803,0.0636250302,0.0589638911,0.1576464474,-0.0134512633,0.0613328144,-0.0746775195,0.1463491023,-0.1420311779,0.1291078627,0.0261803307,-0.1059963405,-0.0892572626,0.0460238308,-0.0229405798,-0.0237118956,0.0378050208,-0.0788188279,-0.0979393572,0.0805851892,0.0106052691,0.1021850407,-0.0211601425,-0.0990449116,-0.0923069865,-0.0527005233,-0.1253769696,-0.0978284478,-0.0561611801,0.0270110238,-0.1251657158,0.0063611055,-0.0280524008,-0.0213269908,-0.1428533047,-0.1271798611,0.1330649257,0.0328170694,-0.1967501044,0.1099829450,0.0097349379,-0.0145587130,-0.0115485433,0.1019570529,0.1359913796,0.0464425720,-0.0308444854,0.1973260194,0.0758671314,-0.0535638146,0.0395398960,-0.0421734676,0.0371348523,-0.0523909926,-0.0474785604,0.0473861471,-0.0574134886,-0.0968204811,-0.1031158641,-0.0828469247,0.0632690936,0.1222283989,-0.0193846412,0.1411677599,-0.0203355681,-0.1871763617,0.0289929062,0.0297962446,-0.1209527701,0.0237893742,-0.0525892787,0.0508619435,-0.0467988476,0.0389747880,0.1397616714,-0.0824067742,0.0594106317,-0.0449766144,0.0421025157,-0.2304269522,0.0550786853,-0.1083117053,-0.0747215822,0.1304753274,0.1155643687,0.0298465826,-0.0328246765,-0.0449243672,0.0254869331,-0.0711377040,-0.0422937162,0.0096836304,0.0720501542,0.0923708901,0.0278319214,0.0866268277,0.0393695012,-0.0133271897,-0.1521394104,-0.1787010282,-0.0420108065,-0.0198391881,-0.0695080981,0.0727801248,0.0418988802,-0.1219600812,-0.0740112960,-0.0492709130,-0.0341793075,0.1297696680,0.0553172082,-0.0540585518,0.1534060389,0.1058809087,-0.0331171416,-0.1125950664,-0.0695083439,-0.0398528166,-0.1308636367,0.0792555213,-0.0070419419,-0.0859737918,0.1453217417,-0.0451122895,-0.1853468865,0.2334721386,-0.0219693910,-0.1642931253,-0.1130849048,-0.0283690747,-0.0756833330,0.0518618077,-0.1131762341,0.0393558294,-0.0867417157,0.1191955879,0.0750327110,-0.0303264372,0.1102939099,-0.0225452054,0.1136578098,-0.1768436730,0.0825933069,0.0275091194,-0.0064289221,0.1130535603,0.0663295984,-0.0619606040,-0.1037606150,-0.0961218998,0.0367631167,-0.0567241013,0.1426491588,-0.0112134675,0.0171682648,-0.0713103414,0.0771743581,-0.0328312330,-0.0177705735,-0.1928864866,0.0980439261,0.0093586100,0.1138670370,0.0902868956,0.0975387618,0.1667515486,-0.1291926503,0.1539479941,0.0662604645,0.0769686922,-0.0047094789,0.0741381273,0.0523679815,-0.0368438065,-0.1005494446,0.0501673184,0.0845335424,-0.1009945050,0.0880951285,0.0950006321,-0.2643521130,-0.0900356993,0.0027628588,0.0342090651,0.1356920451,0.0586352982,-0.2150802165,-0.0205730367,0.0105389990,-0.1050031185,-0.0565404482,0.0745213479,0.0494275726,-0.0792796984,-0.0849856287,0.2272497565,-0.1120333523,-0.0559639931,-0.1476074904,-0.1322347969,0.0369537510,0.0342259593,0.1826761961,-0.1019425020,-0.0391287468,0.1995540410,-0.0448558666,-0.0141968690,0.0811575428,-0.0553924702,-0.1290952563,0.1661091298,0.1283904463,-0.0472199731,-0.0058791526,-0.1390218139,-0.2060841173,-0.1433951855,-0.0243198890,-0.0076979576,0.1156233326,-0.1686727107,0.1528689116,0.0532467924,0.1484714150,0.0727016255,0.0460178107,0.0984510183,0.0777690858,0.0505908169,-0.0513901487,0.1123966500,-0.0021948665,-0.1686096042,0.1306168139,0.1369757354,-0.1484694928,-0.1879557669,0.1258540452,0.1381508261,0.0705781579,-0.1189622730,-0.0223574378,0.1287111938,0.0546680875,0.1299054474,-0.0390775762,0.0374897085,-0.0381788909,0.0912768990,0.1062778383,0.0040025990,0.0863021091,0.1064069271,-0.0336847194,-0.0116933864,-0.0449877195,0.0090017412,0.0427016318,0.0079229316,0.0098248282,-0.0615207888,-0.0217976011,0.0406451523,0.0027992516,0.0907979831,-0.0430572443,-0.0055571143,-0.2112968415,0.0418054946,-0.0536693148,0.0235104021,-0.0502383895,0.1069785506,-0.0319975093,-0.0042945952,-0.0585317574,0.0120586073,-0.0887044966,-0.1682032198,0.0897531658,0.2237889469,0.1729988307,0.0536573865,-0.1077224240,-0.0061902441,-0.1191620082,-0.0892287716,0.0507206991,0.0544756465,0.0406340659,0.1569573730,-0.1192881167,0.0630416796,0.0050665829,0.0740833133,-0.0391183086,0.0163970031,-0.1700441092,-0.1171864271,0.0577578768,0.0448416062,0.1087271795,-0.1464688927,-0.0565266684,-0.0992740095,0.1024435610,-0.0578180254,0.0018995127,0.0666176751,0.0353338681,0.0112794908,0.1265818030,0.0801130980,-0.0331894681,-0.0309856124,-0.0179357287,0.0739559457,0.0194714554,0.0107816951,-0.0658675432,-0.0529889129,0.0888631493,0.1221095920,-0.0032205875,-0.1905989349,0.1661455482,0.0429501012,0.0494972318,-0.0631793886,-0.1583124846,0.0690417588,0.1929101199,-0.0800374150,-0.1173595712,0.0540787578,-0.0075510046,-0.0114182318,0.0255929958,-0.0957112908,-0.1902709007,-0.1518721581,0.0610427707,0.0952781141,0.0363509245,0.1083543301,0.1000865996,0.1567182541,-0.0318682455,-0.1402742118,-0.1634288430,0.0131995827,0.0781418383,0.1496651471,0.1327838004,-0.0123326369,-0.1107277423,-0.0844292343,0.1438160986,-0.0860825926,-0.1216500849,-0.0428904891,-0.1307275593,-0.0032388147,-0.0433076732,0.1040538326,0.1428052634,0.0908481479,-0.1078019664,0.0007698094,0.0958494395,-0.0369343981,-0.1201703474,-0.1090740934,-0.0003646143,0.0354946144,-0.0671064854,-0.0499482676,0.0230815392,-0.0259944759,0.2391792983,-0.1019556597,0.0632772446,-0.0829536989,-0.0102175586,0.1717120111,0.1179646924,-0.0241941884,0.0830121413,-0.0337180980,0.1442617327,-0.0530303642,0.1120704859,-0.1462135464,-0.0306912940,-0.1427724659,0.0275731534,-0.1371311694,0.0985730067,-0.0969586670,0.0423581935,-0.0014224953,-0.0278093740,-0.0075351810,0.0440218262,-0.1594484001,0.1537601203,0.1595841497,0.0468409248,-0.0004211036,-0.1491977423,0.1028902382,0.0791641846,-0.0938871056,-0.2017646879,0.0603776425,-0.0372528806,-0.0344822854,-0.1737788916,0.1117684245,0.0335687324,-0.0722884834,-0.0174897220,-0.0766960979,-0.0805347711,0.1462544501,0.0969107002,0.2382341176,0.0284856800,0.1357064098,0.1252481341,-0.0835634992,0.1018005833,0.1339530051,-0.0193638876,-0.1090752482,-0.1722017676,-0.0379157998,0.0540666357,-0.0071648965,0.0767762586,0.0754365027,0.0781509504,0.0803791732,0.1645803452,0.0410534665,-0.0522604808,0.0957162753,0.0421872586,0.0922056884,0.1214269921,0.2067445070,-0.0374375731,0.0061324108,-0.1169228330,0.0697394982,0.1082233712,0.1356289685,-0.0591730811,0.1187365353,-0.0297264084,-0.0339938663,0.0099709770,0.0428642668,-0.0193115957,-0.0869712010,0.1684894860,-0.0116591435,0.1263005733,0.1342230439,0.0411297753,0.0416752100,-0.1304154694,0.2629057467,-0.0712756589,0.0654694661,0.0127353864,-0.0803763792,0.0951712132,0.0967747718,0.0923345163,0.0999867395,-0.0718032867,0.0419037752,0.0863836482,0.0082977638,0.0799160004,0.1692323685,-0.1262933165,0.0221353155,0.2371442169,-0.1228598803,0.1088374704,0.0485042445,0.0093245022,0.0348575562,0.0574126691,-0.0712541938,-0.0262479261,0.0324705616,0.1245750636,0.1122827157,0.1991169006,0.0513185412,0.1521371901,-0.1065604538,0.0752491057,0.1272666454,-0.0890716836,0.0153655699,-0.0135662565,-0.1266003102,0.0912965387,-0.0648009703,0.0133611169,0.1848256141,-0.0306980293,0.0387286246,-0.1153628230,0.1472237855,0.0130785564,0.0242782719,-0.0283306465,0.1420498341,0.2364039421,0.0475331396,0.0313593224,-0.1825341880,0.1030574515,0.0432660691,0.0180992708,0.0302173160,-0.0757219791,-0.0655269474,-0.0424216352,0.0475215726,-0.0111084413,0.0157382730,-0.0313809775,-0.0258279387,0.0429384261,-0.0985188186,0.1308674365,-0.1648379415,0.0716327429,-0.0786924064,0.1779452413,0.1913669109,-0.0880946144,0.0378972590,0.0297338422,-0.0847499520,0.0086252475,0.0438514762,0.0417515039,-0.0119931363,-0.0862652138,0.0136078130,-0.0318654142,-0.0155669404,0.0273048691,0.0971495658,-0.0224813186,-0.1143717691,-0.0944676697,-0.0459659100,-0.1050225869,-0.1103303581,-0.0485531054,0.0057110121,0.0320219845,-0.0171258114,0.0535559468,-0.0078956038,-0.1700882763,-0.1556084901,0.0869958997,-0.1748749614,0.0076801106,0.1522160321,0.1462991387,0.0436599441,0.0190119650,0.0249603484,-0.0619108640,-0.0668899491,0.0501516834,-0.0149847688,-0.0724259242,0.0555194356,-0.1059647501,0.0774057284,0.0080928374,0.1390509605,0.0380041599,-0.0973408073,0.0384201705,0.2042036802,-0.1521136016,-0.1099765450,-0.1975111961,0.0886294842,-0.0071709328,0.1242805496,0.0466412380,0.0737625733,0.1748874336,-0.0003392099,-0.0849467069,-0.1682178527,-0.0384620242,0.1439545304,0.0556211956,-0.0318119228,-0.0663824528,0.0018415860,0.0393096432,0.0029434783,-0.1231429279,-0.1240498051,-0.1173141375,0.1311177313,-0.0447784103,-0.0073004025,0.1085177809,0.0171327591,-0.0077818730,0.1190239415,-0.0157572310,-0.0484440364,-0.1547526121,0.0926149189,-0.0593972988,-0.0760697350,0.0210581105,0.0108738858,0.0193848033,0.1764042079,-0.1246126518,0.0810911432,-0.1793260425,-0.0947969407,0.0318398774,0.1214845031,-0.0060992679,-0.0940352902,-0.1276271790,0.1925504506,-0.0434961133,0.0652221665,0.0623725466,-0.0281360541,0.0542907603,0.1253874004,-0.1059673801,0.1215237305,-0.1517223865,-0.0731607005,-0.1148258671,0.0546758175,0.0473485738,0.0107942084,0.1193958148,0.0076291887,0.0200471841,0.0133404639,-0.1356342435,-0.0561997481,-0.0426647402,-0.1203701645,-0.2000425160,0.0350885876,-0.1169578657,0.0556473434,-0.0461114161,0.1178117320,0.0588885993,-0.0086620124,0.0939996690,-0.0300573576,-0.1761291027,0.0608804673,-0.1444732249,-0.0520114675,-0.0056949193,-0.0132376794,0.0402644612,0.0685395226,-0.0836869702,0.1075873449,0.0556818955,-0.2299635857,-0.0009206875,0.1377223581,-0.0004648266,0.0640208498,-0.0155917471,0.1435850710,-0.1145047098,0.0795709193,-0.0586657859,-0.0707568303,0.1934767812,-0.0903126299,0.0218087379,0.1647709608,-0.0183764175,-0.0357128829,0.0887886807,0.0989810377,0.0634371936,0.1692887396,0.0293614678,-0.1126665771,-0.0014852039,-0.0451954901,0.0971221849,0.0935905501,-0.0108569646,-0.0024028583,0.0139513090,-0.0434086509,0.1852683425,0.1789533943,0.0700853616,-0.0900019556,-0.0331330635,0.0806452483,-0.1251772493,0.0493028760,0.0673712492,-0.1443304569,-0.1495669037,-0.0107302079,0.1088131517,0.1482146382,-0.0168783218,-0.0235362761,-0.0698891059,0.0472108349,-0.0795011520,0.0497195572,0.1616846323,-0.0309257861,-0.1759767979,0.1377573162,-0.0522183664,0.0354885049,-0.0192085747,-0.1028123870,-0.0562108792,0.1501736492,0.0556656979,-0.0133579560,-0.1435335129,0.1202992499,-0.1293770820,0.0559534617,-0.0448688269,0.1199282780,0.0810229257,-0.1429871768,-0.0245623887,-0.0007078730,0.0442871787,0.0658151880,0.0580798611,0.0580852069,-0.0937524065,0.0463882685,0.0563279167,-0.0276726931,0.0567239225,0.0386788361,-0.0825989172,0.1011656225,-0.1282737553,0.0159849357,0.0414309278,0.0056033381,0.0106119514,-0.0655107722,0.0772846639,-0.0584798157,-0.0917302147,-0.0280878395,-0.2268465459,0.1673767865,0.0590142012,-0.1566457599,0.0154064056,0.1063935608,0.0322949551,0.0569551662,-0.1070815027,-0.0208969936,0.0129505200,0.0129914787,-0.0456473194,-0.0153957671,0.0097199222,0.0450864136,0.1648600698,0.0305629652,-0.0859114453,-0.0200023800,-0.0843931064,0.0545899495,0.0077109714,0.0440451913,-0.0464847833,0.0047123581,0.0049150456,0.0495320037,-0.1766447872,0.1596686393,0.1648602635,-0.0660170913,-0.0311293919,0.0344828852,-0.1505095959,-0.0732549503,-0.1487345994,-0.1081822291,0.1012695953,0.0411140025,-0.1928474754,0.0289206132,0.1115062386,0.0618045479,-0.0703170151,-0.0488484614,0.1480063945,0.0717684850,0.0836785510,-0.1447819173,0.0063054669,-0.0184661988,0.1743568182,0.1067348942,-0.2231000513,-0.1095146984,-0.0023989789,0.0945042968,-0.1268738061,-0.0522149839,-0.0529519506,-0.0813059956,-0.0496736392,0.1485871226,-0.0771262199,-0.0971557274,0.0202405080,-0.0328623019,0.1856311262,0.1219286993,0.0211089998,-0.0862244144,0.0999238566,0.0677861944,-0.0741934702,0.0345061384,0.0744715557,-0.0496067367,-0.0428522266,-0.0007722962,0.0399894826,0.0271667391,-0.0841550007,0.0238332432,-0.0228756815,-0.0320658870,0.0066573014,-0.0832763836,0.0133951502,-0.0115536777,0.0238198638,-0.1619668305,0.0933206230,0.0484125540,-0.1805597693,0.0130844805,0.0538801998,-0.0698444918,0.1034941822,-0.0315440670,0.0046723559,0.1672640443,-0.0520571359,-0.1539182961,-0.0478180312,0.0769033730,-0.1403420717,-0.2064400762,-0.0101848366,-0.0097012566,0.0176877286,0.0405966155,-0.1446169466,0.1473177075,0.1053498313,0.0000169406,-0.0930343792,0.0223127529,0.0116356220,-0.1784134209,-0.0149620064,0.0606359802,-0.0062704710,0.1980689913,0.1283615381,-0.0951738805,0.0243405439,-0.0555395298,0.0730748028,0.0505046472,0.1621415913,-0.0780116022,0.0443589054,0.1084858999,0.0862819701,0.1603485644,0.0773493201,0.0744791329,0.1239490360,0.0534868278,0.0678712726,-0.2033507973,0.0277343169,-0.0593832918,0.1161656156,-0.0058564637,0.0039490871,0.0398255140,0.0491371900,0.1275788546,-0.2016124278,-0.0734961480,0.0158385448,0.0045011132,-0.0475522019,-0.1327789575,-0.0461175255,-0.0069454056,0.1370989680,0.0299757067,0.0753022358,0.0683925077,0.0977275670,-0.0022257175,0.0353054926,0.0836533308,-0.0926711261,0.0062564588,0.0348575562,0.0331140868,-0.1175986677,0.0368739180,-0.0353510864,0.0472501703,0.0585564263,0.1471463442,0.0285387281,0.1145122275,-0.0681772381,0.0576139688,0.0841065794,-0.2054716349,0.0096074473,0.0182994492,-0.0072079320,0.0754090548,0.0289127380,-0.0525616705,0.0154749062,-0.0544998758,-0.0995962918,0.0300476532,0.0709204748,0.0649670511,-0.0534616783,0.0294182319,0.0796321929,0.0007738521,-0.0662880689,0.0707525536,-0.0248562824,0.0225793049,0.0184974652,-0.0100656934,0.0940130949,-0.0382598415,0.1437645853,-0.1425402313,-0.1004878804,-0.0377368890,-0.1440175325,-0.0104329977,0.0473166220,-0.0936057046,-0.1938911229,0.1011008695,-0.1575581133,0.0635164753,0.0148688275,-0.0370248817,-0.1101178825,-0.0000070653,-0.1295112073,0.0445512012,0.0285486095,0.1190776750,-0.1936223954,0.0226518288,0.1416280270,-0.0612799115,0.0818748102,0.0758453533,0.0503298715,0.0532420129,0.0102907047,0.0030410364,0.0599944778,-0.0716433227,-0.0494208150,-0.1087685004,0.0979292169,0.1420141757,0.1226543188,-0.0055437717,0.0210784320,0.1126433238,-0.1346541196,0.0578075349,-0.0521781892,-0.1338812560,0.0264406409,0.1953048110,-0.0859908387,0.1336791962,-0.1358933151,-0.0491895862,0.0046154736,0.1222313717,-0.0245012119,0.0943524539,0.0999521017,-0.0009324643,0.0428092442,0.0987041667,-0.1631948650,0.0595054775,0.0555947162,0.0253472682,0.0962556526,0.1021151990,-0.0432611294,-0.1141819805,-0.0240402613,0.0453617536,-0.1541825980,0.0570770539,-0.0235449150,-0.0505840518,0.0139025738,-0.1044653505,0.0482490025,-0.0815068185,-0.0805910304,-0.0952494442,0.0779259503,-0.0184451416,-0.0193526093,-0.0400657468,0.0229674242,-0.0060567879,0.1709415168,-0.0243781190,0.0607184432,-0.1122189388,-0.0243787505,0.0454976074,0.0869757906,0.0562699549,-0.1156043634,-0.0066651814,-0.0352862999,-0.0524059162,0.0119852321,-0.0037374981,0.0719160736,-0.1531735957,0.0490167513,-0.1244807988,0.0514267981,-0.0152786002,-0.0499345995,-0.0441971011,0.1102070957,0.1512252092,-0.0758374855,-0.0651778206,-0.0230968557,0.1201973781,0.1593261212,-0.0673097298,-0.0916345865,-0.0345857926,-0.0271811765,-0.0483132303,-0.0538253598,0.0574194454,0.1176424995,-0.0689157844,-0.0126672145,-0.0942294151,0.0057371468,-0.0715420693,0.0562255010,-0.0823265687,-0.1470025033,0.0633320212,-0.0982390270,-0.0073628370,0.1050995961,-0.1099966541,-0.2183258533,0.0632707402,-0.0688197538,0.1939438283,-0.0839503855,0.0263598617,0.0153513718,-0.0199883524,0.0112073896,-0.0265825987,-0.1160086170,-0.0290744510,0.1245973259,-0.0402867533,0.0608846024,-0.1817656755,-0.0547497422,-0.1075774282,-0.0624347962,0.0744910464,0.1306111813,0.1993215680,-0.1886514276,0.0347960517,0.0083915023,0.0138572901,0.1087995991,0.1635779440,-0.0649409145,-0.0599067695,-0.0013044875,0.0156092448,0.0896023065,-0.0597455427,0.1167781353,0.2084043622,0.0451506637,0.0420008823,-0.0481793433,0.1515941173,-0.0343174785,-0.0666700378,-0.0960040614,0.0313069783,-0.1902507097,-0.0633419752,-0.0048781433,0.0511300080,-0.0599314198,-0.0664061978,-0.0444627553,0.0403725132,-0.1385270953,-0.0987053961,0.1045034155,-0.0392671376,0.1403843164,-0.0665605366,0.0911277458,-0.0294137243,0.0503742546,0.1013930589,-0.2037023157,0.0197871607,-0.0408707783,0.0191352572,0.0668759644,-0.0766006857,-0.1293473095,-0.0933609754,0.0396686941,-0.1237452105,0.1031724960,0.0386676230,0.0345339365,0.1739584208,-0.0341153592,-0.0119341649,0.0559994504,0.0882135779,0.1104107052,-0.2061906159,-0.0388904475,-0.0378177576,-0.1739145070,0.0139020365,0.0404154472,-0.0132839819,0.0310618076,0.1029725298,0.0606131479,-0.1231574938,-0.1952643543,-0.1294627935,0.1323428154,-0.0965032354,-0.0557594039,0.0308336634,0.0113651231,-0.1837288290,-0.1015855595,0.0174173098,-0.0229392480,-0.1223906428,-0.0532706454,-0.0323428363,-0.0287614707,-0.0587535575,0.1286724061,-0.1150912270,0.0316902772,0.0076502608,0.1675902009,0.1177479774,0.1338802576,0.1259359866,0.0035018327,0.0242651310,-0.0560973808,0.0829422846,0.0612188354,0.1153833196,0.0574625582,0.1750734001,-0.2012632638,-0.0020308041,-0.1464111954,0.1411134452,-0.0090687787,-0.1510446668,0.0110289790,0.0559683293,0.0013255635,0.1376973689,0.0618024245,-0.0668974295,-0.1053850576,0.0108704753,-0.1152036265,-0.1571420729,-0.0496049225,0.0192169212,0.0410531536,0.0192179456,-0.1497851312,-0.1863513291,-0.1070020869,0.1569400281,-0.0823069736,0.0455978774,0.1249258891,-0.1026658118,0.0079605086,-0.1288571954,-0.0977655351,-0.0072851707,-0.0043679769,0.0458532386,0.0387244262,0.0560081601,0.0564625524,0.0004493436,-0.0217080005,0.0818704441,0.0947040468,0.0760877132,-0.0280830897,0.1695818901,0.0139771644,-0.1069892719,-0.0004578466,-0.1039491743,0.0765932202,0.0909680203,0.0388064012,0.0225660130,0.1151270643,-0.0103370911,0.0427306779,-0.0791215673,-0.0492957644,0.1273311824,-0.1772370189,-0.1046677530,0.0902163982,-0.1648416668,0.0830381513,-0.0923304558,-0.2022430897,-0.0281958431,-0.0416246541,-0.0596900284,-0.0326725803,0.0572984032,0.0559416674,0.1440596133,-0.0267814584,-0.2061586529,-0.0254243594,-0.0397964530,0.1028345972,0.1498454064,0.0407567322,-0.0572632924,0.0308863595,0.0160010606,0.1132999137,-0.0256527849,-0.0321648046,-0.0064757918,0.0092161614,0.0052231923,0.0902805179,-0.0402398482,0.0354011618,-0.0638647228,0.0326864496,0.0656503066,0.0136774955,0.1310754567,-0.1836162657,0.0350791849,0.1106665060,-0.0278573297,0.1132527441,0.1268829107,0.1473423243,-0.0438136607,-0.0568769798,0.0667432845,0.0080192154,-0.2477434725,-0.0890507251,0.1203270629,-0.0643410981,-0.0244460646,-0.0309891682,0.0630543381,0.0621037856,-0.0323646665,-0.1091221943,0.0262444206,-0.0431534573,-0.1581944674,0.1479642689,-0.0973316282,-0.0774442255,-0.0255412478,-0.0502496026,0.0783414468,0.1452861577,-0.1575958282,0.1728793681,0.0158250388,0.1961833090,-0.0229737591,0.0706384927,-0.0366028361,0.0683361292,-0.0663581863,-0.1372661591,-0.0618252903,-0.0417356789,-0.0824450105,0.1148997918,-0.0230459534,0.1531376988,-0.0009733018,-0.0010197923,0.0295498222,0.0866685584,0.0929656327,-0.1466685683,-0.0559756383,0.1111844182,0.0590043999,-0.0520150699,0.0243751965,0.0878813267,-0.1498104483,0.0573148131,-0.1328391731,0.0329146944,0.1301929951,0.1384944767,0.0584228858,0.0698565319,-0.0092013665,-0.1298206151,0.0517502129,0.0872352049,-0.0053513078,-0.0490398146,0.1358137429,0.0330138579,-0.1529689580,0.0446516909,-0.0483601131,-0.0262801107,0.0011039254,-0.0176030993,-0.0349277072,-0.1252241284,0.0690943524,0.0910538137,-0.0116786463,-0.0308601689,-0.0741805956,0.0236615688,-0.0141469920,-0.0577637479,-0.0763262510,-0.1157520562,0.0148122096,-0.1639016867,0.0470562279,0.0213449541,0.0425078571,0.0017764397,-0.0410317183,0.2183099389,-0.0105657643,0.0570333824,-0.0746858492,0.0375761241,0.0528401919,-0.0635365024,0.0730987340,0.0637155846,-0.1006831750,-0.0705189034,0.0306303091,-0.0093057454,0.0206585824,-0.0422438718,0.0756026134,0.1768132895,0.0308753308,0.1113281399,0.0693608895,-0.0393007994,-0.0683313236,-0.1081150472,-0.0574473664,0.1057377979,0.1121834740,0.1142516136,0.0286693964,0.1302094758,-0.0587516502,-0.1640261859,0.0764241219,-0.1096223220,0.0322366878,-0.1241518110,-0.0587525144,-0.1004926935,-0.0037805361,-0.0200892501,-0.0181054380,-0.1834598631,0.0911216512,-0.0595458671,0.0095811700,0.0487664677,-0.0912991837,0.1063921377,0.1078062356,-0.0400395133,0.0376510806,0.0655675828,0.0955290273,-0.0009788069,0.1570744514,-0.1668171138,0.0257787369,0.1286312193,-0.1658146828,0.0163617767,-0.0111548221,0.1142296568,-0.1248498932,-0.1410450190,0.0009860364,0.0185171627,-0.0327296071,0.0002089922,-0.0165582485,0.1947944462,0.0914569199,0.0458014831,0.0942113176,0.1050260067,-0.0735967681,0.1334038377,-0.0309673920,-0.0344692692,-0.0886803269,0.1369658560,-0.0302017070,-0.0918795168,-0.0043289969,0.0548349805,0.0473068319,0.0047489083,-0.1476815343,-0.0354394466,0.0034990921,-0.0237179175,0.1189557761,-0.0601108558,-0.1560116410,-0.0766477212,-0.1063786745,0.0546000600,-0.0584701635,-0.1157650128,-0.0323374718,-0.0479724370,0.0863449946,0.0682371333,-0.1533920914,0.0129339052,0.0210678875,-0.0159460232,0.1194683313,0.0790150613,0.0698248968,0.0630381480,0.1664608717,0.0872151852,-0.0661679357,0.0222075805,-0.0084528932,-0.1600400805,0.0904932022,0.1490454823,-0.0052512330,0.1572929323,-0.0776665285,0.1330068111,-0.0007692102,-0.0187005866,0.0362776034,-0.1528634578,-0.1113304049,-0.0885263011,0.1300495565,0.0465483256,0.1108384132,0.0877832025,0.0652218387,-0.0033807519,-0.0611519255,-0.0180997979,0.0108866524,0.0397452973,-0.1149043217,0.0680885464,0.1046066955,0.0471586734,0.1026419103,-0.1003488004,-0.0733142048,-0.0493568145,0.0806386247,0.0458908230,-0.1484549046,-0.0315888263,0.0348925516,0.0173549466,0.0926811695,0.1600489318,-0.1718844026,-0.0282068774,0.1530191898,-0.0909360126,0.1494529843,0.2248660624,0.0271217655,0.0611337386,-0.0609417856,-0.1153320745,0.0186009873,-0.1417057961,-0.0374756195,-0.0986997858,0.1318193972,0.0683873221,0.1373713613,-0.0736779124,-0.0792079195,0.0600997768,-0.2293251753,-0.2291579396,0.0537137575,-0.0191296283,-0.0910601318,-0.0215695910,0.0962230414,0.0843062773,0.0294237919,0.0630749315,-0.0713707134,-0.0376507267,0.0105383294,-0.1330185086,0.1143779159,-0.0060493224,-0.0484407544,0.1282030940,-0.1469787210,0.0998375267,-0.0562310815,0.1270702034,-0.1414283812,0.0788256228,-0.0960647613,0.0263303146,0.0314631239,-0.0310846847,0.0248960406,0.0321114734,-0.0704330057,0.1338723302,-0.0516244844,0.0204276964,0.0466760956,-0.0246684644,-0.0091210939,-0.1166557372,0.1124786511,0.0339028239,0.1258921325,0.0699049532,-0.1734502017,-0.1516872644,-0.0760559663,-0.0989356637,-0.1237127334,-0.1510056108,-0.0302351452,-0.0086845392,-0.0213876329,-0.0317109898,0.0699533746,-0.1000495329,-0.0250986144,-0.2045037150,-0.0111802677,-0.0855020583,-0.0624229610,0.0789178535,0.0858914405,-0.0630724132,-0.1102586463,-0.0867530182,-0.0755148828,0.1001947895,0.1496999413,0.1031218395,0.1118295565,0.0919892713,0.1306868196,-0.1030463129,0.0357064679,-0.0145836147,0.2180515528,0.1172396019,0.0912631825,0.1929991841,0.1405535489,-0.1166611016,-0.0397538617,0.1169427559,0.0750851184,0.1778634042,0.1519363672,0.0168379452,-0.1596567631,-0.0915652066,-0.0638019219,-0.0119329244,-0.0081588803,0.1346203238,0.0234300364,-0.1443340629,0.0217291750,-0.0340653025,-0.0226340350,0.0844436660,-0.0265164524,-0.0278722029,0.2071432769,0.0467921942,0.0697793961,-0.0178092774,0.0901505798,-0.1042698622,0.0720514581,0.0363484472,-0.0223103575,-0.0315852836,-0.0201103985,-0.0696686134,0.0144463340,0.0918068066,0.0216686726,0.0466256179,0.1698653996,-0.1739069074,0.0923779607,0.0407640971,0.1136117950,-0.0601975769,0.1797184795,0.1441238075,0.0136761302,0.0573085845,-0.0480398126,-0.0043118070,-0.1504826397,0.0729806051,0.0404737443,-0.0262812134,-0.0576758832,-0.0584814362,0.0285864603,0.1221573353,-0.1159834415,0.1001256183,0.0934630185,0.2047819048,0.0160950385,-0.0716097951,-0.0709013715,-0.0531920865,-0.1308231652,0.0062923622,-0.1138169840,-0.0628640950,0.1109368354,0.0285993684,-0.1246168241,0.0102681331,-0.0111799836,-0.0967644379,0.0774073973,-0.1047523022,-0.0872227475,0.0305490736,-0.0608727746,-0.0724615753,-0.1593641639,0.0835539550,0.0307396613,-0.0802410543,-0.0421025343,-0.0201805141,0.0529656895,-0.1532873660,0.1551491916,0.1186820418,-0.0196149014,0.0510379970,0.0996372849,0.0512731373,-0.0350175463,0.0282867253,0.1266912818,-0.0100293588,0.0629320443,-0.0490582734,0.0366782248,0.0795946717,0.1044265255,0.0315551870,0.0280965995,-0.1937294304,0.0967513025,0.0987506509,0.0820027664,0.1946457922,-0.1364565492,-0.1184447780,-0.1132686064,0.2137345076,-0.0763443410,-0.0481966101,0.1767354161,-0.0725862086,-0.0637391880,0.0680697188,0.0962754339,-0.1482841671,-0.0019187821,-0.0942709222,-0.0144275222,0.0449407846,0.1171492860,-0.0143019771,0.1171275601,0.0344009064,0.0028798645,0.0547416024,0.1107076630,-0.0423603989,-0.0058197123,-0.1282542050,0.0799685419,0.1154352352,-0.0399577841,0.0050773700,-0.0461493693,0.1133339331,0.1324832439,0.1315208226,0.0383929238,0.0477980338,0.1600132734,-0.0240697153,-0.0963981450,-0.1195058674,-0.0609999076,0.1562903821,-0.1009596884,0.1130640879,-0.0332278199,0.1412739456,-0.1549528539,0.1380005479,0.0767945647,0.0316875763,-0.0698509738,-0.0550338253,0.0860602483,-0.0041564535,0.1558140963,-0.0239528958,-0.0748128593,-0.0942124724,0.0052163643,-0.1582857519,0.0106387753,-0.1199856177,-0.0058991625,0.0215065870,0.0900337398,0.0754944235,0.0940145180,0.0473271534,0.2109755129,-0.1283527911,-0.0998029336,-0.1934874356,0.0996622667,0.1216109842,-0.1437229216,-0.0552799478,0.0145795336,0.1556549072,-0.0626561567,-0.0944073647,-0.1767293215,-0.1160923615,0.0238838419,0.1331486553,0.0321325511,-0.0345158242,-0.0110047814,0.0543275811,0.1534374654,-0.0905626267,-0.0114589632,0.1111736670,-0.0395480879,0.0202381238,-0.1880293936,0.1693864465,0.1396310627,0.0776144266,0.0155265639,0.1509520561,0.1011149958,0.0258893184,-0.1874463707,-0.0075080395,-0.0077446522,-0.0654365867,-0.0663062409,-0.1297592819,-0.1746691912,-0.0232632309,-0.0330059342,-0.0309652872,0.0703111365,-0.0048227822,-0.1299430728,-0.0340175256,-0.0135438824,0.0753237456,-0.0437940657,0.0267808735,0.0224331543,0.0106381550,-0.1199124828,-0.0234007519,-0.0759779066,-0.0429417118,0.1486919671,0.1374170333,0.0978084207,0.0632445142,0.0356051140,-0.1240855977,-0.1464880705,0.1267763674,-0.0585079528,0.0703531057,0.0994705558,-0.0817422494,-0.0051094433,-0.0626041219,0.0770796612,0.0235689171,0.0872350559,-0.1305794120,0.1770697385,-0.0134976804,0.0443356335,0.2184240669,-0.0452605821,0.1357433349,-0.0292796604,0.1587681919,0.0201203730,-0.0867588297,-0.0226095133,-0.0230471231,0.0401768498,0.0433802307,0.0977523848,0.0378275812,0.0510301962,0.0772902220,-0.1726477593,0.1186707094,0.1469614208,-0.0655523390,0.0975024849,0.0482304543,0.0196944494,-0.1459750682,0.0962834731,-0.0962332040,0.1182672977,-0.0117715644,-0.0679442137,-0.0508994237,0.1991720051,-0.1488913447,-0.2217591852,0.0663157031,-0.0341460779,0.0562624484,-0.0599883124,0.0587811433,-0.0566926003,-0.0816664323,-0.0274452437,0.0322307460,-0.0497601666,0.0663900077,0.1366915703,0.0527795777,0.0547768511,0.1687024236,-0.1231552213,0.1089574918,0.0538533665,-0.0185848996,-0.0063701090,-0.0778065473,0.0404601246,-0.0464271978,-0.0603651106,-0.0803836286,-0.1951386034,-0.0096113635,-0.1609235555,-0.0011326418,-0.1119949520,0.0424986742,-0.1269334406,0.1412965953,-0.1422492713,-0.1420137733,0.0431385301,-0.1279366463,-0.1629149467,-0.1368130445,-0.0496018864,0.1592445374,0.0960156247,0.0495221354,-0.0868471116,0.0541762263,-0.1149480566,0.0585557260,0.0748915449,0.0390802585,0.0470738895,-0.1005670652,0.0666356087,-0.0454179347,0.0372652113,0.0009422654,-0.0688457564,-0.0042522657,0.1101603955,0.0537782162,-0.0300264824,-0.0229645129,0.0706953704,-0.1292132884,0.1367036551,0.0049340660,-0.1591218263,0.0676670820,-0.0693240985,0.0296695735,-0.0912898630,-0.0638298467,-0.1299788654,-0.0678750947,-0.0045398413,0.0444111116,-0.0556949452,0.2020849884,0.2266474366,-0.1315213889,-0.1038828492,-0.1467037052,0.1495457143,0.1448075622,-0.0348570384,0.0485600866,0.2343673259,0.0967846513,0.0393958129,-0.0972849727,0.0395132378,0.0547905453,0.0487308614,0.2046352774,0.1750174910,0.0134351123,0.0212155730,-0.1869685352,-0.0480080880,-0.0923461542,-0.0884910375,-0.0495334379,0.1312251240,-0.0171846934,0.1175783947,0.0062346831,-0.1608409137,-0.0463572405,-0.0619115047,-0.0318319313,0.0356147848,-0.0430015400,0.0799389258,-0.0056374818,0.2154270411,0.0052159633,-0.0262879245,-0.1358619630,0.0611241534,0.1970345378,0.0003450078,0.0820982829,-0.0759049430,0.1256726682,-0.0319252461,0.1330872476,-0.0148144625,0.0657626018,-0.0448016487,0.0032489102,-0.0655703619,-0.0124290362,0.0276430082,-0.1914780885,0.0406797342,-0.0717542991,-0.0159878042,-0.0702933818,0.0254841503,0.1588766575,-0.0557928346,0.0044181254,0.0156932324,0.0418927483,-0.1399319321,-0.0565907024,0.1589605063,-0.0536362752,0.0929258466,0.0825754777,-0.0826047882,-0.0599722899,-0.1287081242,0.1569886804,-0.0956646949,-0.0758410767,-0.1168096736,0.0093269804,0.2011504769,0.1038962603,-0.1708627194,-0.1087536439,-0.0435227938,0.1295901835,0.0081713088,-0.0571478456,-0.0392205566,0.0021726547,-0.0821755379,0.0387240909,0.0510805622,-0.0476972945,-0.0194068942,0.0785144269,-0.0457703620,0.1006984189,-0.1040995866,-0.0150241358,0.0433637314,0.2192516029,0.0386614166,-0.1421042979,-0.1647747010,0.0677427649,-0.0160309840,-0.0644036755,-0.1252490878,-0.0374473855,0.0350770988,-0.1009831727,0.0352928229,-0.1016993895,0.0592196099,0.1329688430,0.1114297211,-0.0023867961,0.0132587627,-0.0452672653,0.1587498039,-0.0276013054,0.0291705597,-0.0807666853,0.1018979475,-0.0723256394,-0.0360733159,0.1551614553,-0.0437270328,-0.0172535833,-0.0803147480,0.0480225831,0.0469951034,-0.1179018468,0.0013151118,0.0817630067,-0.0640713945,0.0008887934,-0.0445735864,0.0634000972,0.0457026660,0.0821078271,-0.1318877488,-0.0130186193,0.0685618669,-0.0807458907,-0.0803961232,-0.0346913822,0.0517005958,0.0761100128,0.0099847307,0.0297194179,-0.0653970242,-0.1180490404,-0.0484724753,0.1156908125,-0.0241704714,-0.0640598908,-0.1187889054,-0.1661318392,-0.0596080646,-0.0615995862,0.0949067175,-0.0661401078,0.0627861768,0.1281735748,0.0891688392,-0.1036063582,0.0647884384,-0.0452492014,0.0477950685,-0.0987479463,-0.0759645998,-0.0331779830,0.1106254980,-0.0124588460,-0.0595778450,0.0430306569,-0.0996353403,0.0110869473,0.0908100903,-0.0473512895,0.0643346831,0.0621135272,-0.0198552981,0.0778011903,0.0475493744,-0.0434456579,-0.0643895939,-0.0072560301,-0.0283572823,0.1234677583,0.0145632690,0.0386378132,-0.0426926389,0.0117050586,0.0391043536,0.1133175045,0.0958576128,0.0795544758,-0.0337398015,0.0128171910,-0.0679662302,-0.0312381480,-0.0331238620,-0.1065569520,0.0446343794,-0.1762369275,0.0398210399,0.0754931420,0.0689260438,-0.0343400687,-0.1274259239,0.1571864933,-0.1106224805,0.0193834193,0.1503342539,-0.0667741820,0.0515550897,-0.0104345791,0.1120083556,-0.1289335787,-0.0669550002,-0.0835534781,0.2006905973,-0.0122544616,-0.1006814092,-0.0164024457,0.0766155347,0.1429207623,0.0355695859,0.0966696814,-0.0768738836,0.0328447334,0.0959823355,-0.1286523640,0.0264002532,-0.1222412959,0.1571937799,-0.0306111947,-0.0147717334,-0.0183359254,-0.0593357123,0.0383975096,-0.1338859499,0.1310774237,0.0584320240,0.0555490665,-0.1266264170,0.1680336446,0.0471291095,0.0229196493,0.0161429606,0.0605724044,-0.0694660097,-0.1618327498,0.0717935115,0.0666654333,0.1162484512,-0.0745472461,0.0866864547,-0.1210823506,0.0373634733,0.0572338030,0.1232618019,0.0076544359,-0.0010416994,0.2079945207,0.0648642629,-0.0676056892,0.1476293057,-0.0405309498,0.0012755740,0.1854847223,-0.0496718101,0.0449834727,0.1361817420,-0.0370750204,0.0793534294,0.0509712771,-0.1486839950,0.0034422427,0.0041207583,-0.1204019785,0.0253535435,-0.0208798200,-0.0456585102,-0.0369803831,0.2088154554,-0.0644400790,0.0428834110,0.0552159026,0.1336681098,0.0175266396,0.1103344634,0.1504530609,0.1004341915,-0.0581483804,-0.0466659740,-0.0256413240,0.1185245588,0.0702065751,0.0245289654,0.0233616177,0.1503128111,-0.1854751706,0.0261409245,0.2007183880,-0.1822289526,-0.0709789917,0.0692725703,-0.0186171010,0.0369717628,0.0081773028,-0.1403069198,0.0341380276,-0.1027838588,-0.1181621403,0.1662279665,-0.0226651058,-0.0090232706,0.0483722128,0.0437614098,0.0999264270,-0.0885539204,-0.0372441821,0.0971357897,0.0141075794,0.0476098396,0.0660582483,-0.0272152107,0.0657290444,-0.0929671302,-0.0749971792,-0.0695447475,-0.0254376046,0.1039828807,0.0077642892,-0.0226366743,0.0331101678,-0.1354619116,-0.2257022411,0.0260805693,-0.1081850752,-0.0937749222,-0.1064112484,0.1203594655,-0.1642656326,0.1590612531,0.0864096358,0.0214667395,-0.0714541674,0.0835140273,-0.0285317823,0.0436088070,-0.0947425589,-0.0947860703,-0.1241676807,0.1144939288,0.0723925829,-0.0203896835,-0.0563359521,0.0799258202,0.0300215613,-0.0676110685,0.1012158617,-0.0855145007,0.0042726393,0.0422131941,0.0867640153,0.1309261173,0.0365544856,0.1940877736,-0.0609352738,0.1132020280,0.2190796882,0.1595501155,0.0091237929,0.0155877220,0.0934162512,0.0949273482,-0.1153699309,0.0187860429,0.0804252774,-0.0602688119,-0.0500720739,0.0348271914,-0.2452877462,0.0777682513,0.0756539851,-0.0369262658,0.0012404168,-0.0661745071,-0.0090479814,-0.1037042290,0.0559242815,0.0773705095,0.0227395557,0.0447789505,0.0894252509,0.0475716032,-0.0756633580,-0.0252636671,-0.0638473853,0.0360137224,0.0944687575,0.0907364935,-0.1730155349,-0.0653955415,0.1664857268,0.0059641921,0.1109629571,0.0743156597,0.0363542326,-0.0118062422,0.0706343502,0.0731060281,0.0176786091,-0.0094752563,-0.1550590992,-0.0492814668,0.0136526274,-0.0433050506,0.0779757723,0.0421835966,-0.0197428558,-0.1057980582,-0.0032493006,-0.0608454980,-0.0371356905,0.1358365268,-0.0387198366,-0.1045257896,0.0245776642,-0.1302156299,0.0409823619,-0.0149392681,-0.1086637229,0.0125484737,0.1057106480,-0.0198056512,0.1132924333,-0.0572851524,0.0731931478,-0.0738856420,-0.0129962955,-0.0005206465,0.0807381570,0.1819752604,0.1281872839,0.0369137786,-0.0149383247,0.0834831595,-0.0993630737,-0.0285744034,-0.1233977824,0.1522138268,0.0493870527,-0.1264837533,-0.0386581458,0.1523310840,0.0136889899,-0.1135502756,-0.0834375322,-0.1910745353,-0.0295814537,-0.0108322836,-0.0207266435,0.1044676751,-0.1001283228,0.1363787204,-0.1520677209,0.1104738861,0.1104729101,0.0909120589,0.0776046664,-0.0252184030,0.1124951541,0.0940267444,0.0996593535,0.1377574950,-0.0257945322,-0.0852678120,0.1422845125,0.1088778675,-0.0115292445,0.0260795839,0.0242353659,-0.1871748120,0.0848559886,-0.0565269627,-0.1594058424,-0.0323705859,0.0038865074,-0.0832387656,-0.0979508460,0.0823484734,-0.0394863337,-0.0227931496,0.0896000415,-0.0078530032,-0.0509914309,0.1434567273,-0.1012088805,0.0871407315,-0.0458077155,-0.1422383040,0.0855013579,0.1032352597,0.0266829785,0.0534137748,0.1470144987,0.0490346514,-0.1093014330,0.0793868974,0.0489078164,-0.0325901844,-0.2023719698,0.0173721276,0.0437304154,0.0160168409,0.1055605859,-0.0201899074,0.2106563300,0.1581474990,-0.0391638242,-0.1296840608,0.0508571789,0.1073221862,0.0686249211,-0.0086904326,-0.0194081813,-0.0907052308,-0.1545968205,0.0512801036,0.0945028514,0.0716795102,-0.0332206711,0.0707286447,0.1071947068,-0.1338315308,-0.1433390975,0.2033587992,0.2886364758,-0.0960547030,-0.0527786165,0.0144360056,0.0102916444,-0.1045232192,-0.1277307719,-0.0666706786,-0.0621144623,0.0244610012,0.1299020052,0.0285912212,0.0855138078,-0.0151786599,-0.1114936695,-0.2082742453,0.0610652305,-0.1835546643,0.0706451163,0.0931091830,0.0473210029,0.1054285318,-0.0098435627,-0.0937665850,0.0385053940,-0.0382397845,-0.0819360837,-0.0397466235,0.0394885428,0.1401636153,0.1906859875,0.0704433024,0.0471633337,-0.0077088540,0.0109754438,-0.0663255602,0.0245299041,-0.0042069620,0.0793217942,-0.0644199774,-0.0602264553,-0.1672382653,0.0270417482,0.1722275317,0.0711589158,0.0869017690,0.0275049005,0.1550908387,-0.0461489297,0.1976861507,0.0999913514,-0.0719736293,-0.1378347278,-0.0542564467,-0.0740566552,0.0920647830,0.2074677050,-0.0936753824,-0.0974817947,0.0222724974,0.0991218388,0.0188648459,0.1577080935,-0.0275011528,0.0246272981,0.0231971983,0.0201323293,0.1270685047,0.0518748574,-0.0400642641,-0.1794965565,-0.0661523342,0.0219082851,0.1099404916,-0.0807155073,-0.0552617386,-0.0047352002,-0.0596717522,-0.0077705882,0.0165115278,0.0951176733,0.2013993710,0.0531337485,-0.0711191669,0.1580721587,0.1082334593,-0.0217348784,-0.0360425077,0.0291379336,-0.1338008791,0.0878844634,-0.0195683800,-0.0087740161,-0.1005416363,-0.0032217174,-0.1030085906,0.0054258122,-0.0460951664,0.0289840717,-0.1439670175,-0.0350480229,-0.1405696422,0.1698063016,0.0858787596,0.0196949374,-0.0688073710,0.0750994384,0.0534415618,0.0391595513,-0.0612793565,-0.0768108517,0.0652176067,-0.0708558187,-0.0770591721,-0.1827112287,0.0437269844,0.0432891212,0.1355410963,0.1221313179,-0.0294898264,0.1596434712,-0.0140854716,0.0426285304,0.1236284450,0.1153731570,-0.0097140726,0.0203325935,-0.0279559158,-0.0399057604,0.0381286778,0.0194892399,-0.0828727335,-0.0408606939,-0.0082658995,0.0902229026,0.0011662076,-0.0424170122,-0.0979111791,0.1258457005,0.0003747742,-0.0134120006,-0.0083899405,0.0171985161,-0.1150343120,-0.0911584124,0.0675748438,-0.0357205421,0.0492101870,0.0316610560,0.0542211123,-0.1719820499,-0.1816549301,-0.1634306610,0.1585863084,-0.0155454949,-0.0688408986,0.0122224810,0.0146280779,0.0794968009,0.0332754888,0.2561815083,0.0864476487,-0.0159810781,0.2361354083,-0.0499194041,-0.0947466195,-0.1395039558,0.0313658118,-0.1700349450,0.0177310314,-0.0868178308,-0.0336995609,-0.0230238382,0.0556087270,-0.1027076468,0.0452001542,-0.0125298491,0.0253962930,0.0150175383,-0.1422323585,-0.0072899493,-0.0438006222,0.0104523189,0.0234545730,0.0604603812,0.1297208518,0.1668432653,0.0164502990,-0.0808698684,-0.0433138087,-0.0012538831,0.1544205993,0.1326251030,0.0907637179,-0.1748777628,0.0133654689,0.0885922760,0.1107006669,-0.1095804200,-0.0066788262,0.0954304934,0.0355500281,0.0778224766,-0.1587686390,-0.0760805383,0.0630344078,-0.0555570982,0.2433666587,-0.1697027236,0.0657627285,0.1351969689,0.1258632988,-0.1671250612,0.1565770954,-0.0193088856,-0.0582511686,0.1266264766,0.0958914235,-0.0430058688,-0.0727497265,-0.0683814734,0.0415205546,0.1164731011,0.1577109993,0.1152670607,0.1483321637,0.0370839164,0.0445995852,-0.1241625175,-0.0956319943,-0.0954537317,0.0089142015,0.0536908992,-0.0830999315,0.0235597715,-0.1924086809,-0.1678960323,-0.0161421150,-0.0589585230,-0.0038026005,0.1119103134,-0.1485157013,-0.1112226248,-0.1261251271,0.0756966174,0.0619744211,-0.0375044420,-0.0660845190,0.1114004999,-0.1280039400,0.2663535178,-0.1311901212,0.0692028701,-0.0037864069,0.0083053606,-0.1199772060,0.0636387989,0.1474027038,-0.0267272033,-0.0690702572,-0.0775889456,0.0205874797,-0.0500195399,-0.1311078966,0.1378073245,0.0688357279,-0.0782905295,-0.0423911884,0.0031654423,-0.0072231614,0.1559428126,0.1718416065,-0.2163719386,0.0871788561,0.0208414216,0.0833458230,0.0389476344,-0.1278334558,0.0559253991,0.0211905651,0.0716278628,0.1059833169,-0.0708664954,-0.0626735017,-0.1438584924,-0.1018609256,-0.1520368010,-0.0561935678,0.1031217724,0.0420025215,0.0495405830,-0.0518579371,-0.0747441947,0.0435528941,-0.2001534104,0.0228315238,-0.0301671550,0.1280607134,-0.1024784744,0.0165308546,0.1030343398,-0.1147409081,-0.0392599665,-0.0950797796,0.0650372729,0.0331294350,0.1410541534,0.1641478390,-0.0012428535,-0.1768664122,-0.0131817311,0.1371870786,-0.0460957475,-0.0708656684,-0.0422977544,0.0595540367,0.0528520569,0.0784280971,0.1299441308,0.0752035975,0.0658370554,0.0148839410,-0.1962613910,-0.1471811682,0.0239142757,-0.0357112586,-0.0934062526,0.1318111122,0.0719525591,-0.0668931603,0.0663720146,-0.0149385687,0.0630908161,-0.0903345793,0.1799857765,0.0147460755,0.0081886239,-0.0365862772,-0.0767563656,0.0891535357,0.0601076148,0.0239964556,-0.1078343540,-0.1030457094,-0.1152340546,0.0834672451,0.0211090595,-0.0623035356,-0.0693711936,0.0854795054,0.1481130570,-0.0697279647,0.0713759512,0.0404683091,0.1012531668,0.0662321299,0.0097033102,0.1284928918,-0.2187191248,-0.0571253188,0.1426192224,-0.0500595607,-0.0477505475,0.0311195552,0.2004461288,-0.0484443270,0.0538129807,-0.0327670127,0.0575369410,0.1760471165,0.0724726617,-0.0811683983,-0.0302645396,-0.0410711952,-0.0705995932,-0.0410866477,-0.0974821523,-0.0465117842,0.0015916438,0.0610466450,-0.1072772518,0.0756394640,0.0615312345,0.0520385727,-0.0259761363,0.0755164847,-0.0459355153,0.0217809491,-0.0973038897,-0.1121251434,-0.0041086194,-0.0436017439,0.0575565696,0.0617347136,-0.0065809335,-0.0945425630,-0.0325378105,-0.0500520021,-0.1071047708,0.1163099557,0.1055442095,0.0284015313,0.0391189754,0.0788339525,0.0201897454,-0.1135296151,0.0811941698,-0.0918100551,0.0492722131,0.0209497623,0.1400685459,-0.0635312572,-0.0038934567,0.0127962502,-0.1103536189,-0.0193939526,-0.0023974197,-0.0333940051,0.0911961347,0.2076776922,0.0679723844,0.0460088253,-0.0530475900,-0.0660442114,0.0018950290,0.0331721902,-0.0318409689,0.0687056333,-0.0810672343,0.0379690304,-0.0659386963,0.1540985852,-0.0961445570,-0.1017990559,-0.1099926010,-0.1386129409,-0.1024437472,-0.0221877992,0.0187309291,0.0021071925,0.0508498624,0.1982354373,-0.1306096762,0.0493803956,-0.0954550877,-0.1320000291,0.0914575085,-0.0300333630,-0.1390402913,0.1360320598,0.0060854373,-0.0541287400,0.1397221535,-0.1028052047,0.1006393656,-0.0723450333,0.0317153148,0.1336297840,-0.1403062344,0.0573021546,-0.0844435543,0.0092032133,-0.0456151180,-0.0827584639,-0.0609300584,0.1443862915,-0.0239606109,0.0656141788,0.0891868547,0.0876618177,-0.0522906445,-0.0199677330,-0.0487337410,-0.0888359845,0.2105452269,-0.0081828106,0.0056911623,0.0849854872,0.0111738881,-0.0793884248,-0.1042920873,0.0010370375,-0.0901983976,-0.0872739106,0.1589671224,-0.0331894383,0.0273379013,0.0207544044,-0.0499435998,-0.0543431491,-0.0411952101,0.1177225783,0.0877771825,-0.1311087012,-0.0714159682,-0.1573550403,-0.0108424248,-0.0261955876,-0.0476622917,-0.1670280099,-0.1110014990,-0.0696738437,-0.0565048084,-0.0951594859,-0.1779943407,-0.0565754510,-0.1230987459,0.0189306382,0.1097668707,0.0171644948,0.0386911221,-0.2085122615,0.1461140215,0.0154259223,0.1983505189,-0.0171758998,-0.0616043918,-0.1741051972,0.0483269133,0.0649460852,0.0386994034,0.0112731066,0.0763303861,-0.0317783877,-0.0638273209,0.0746600479,-0.0144716501,0.1412736177,-0.1410238445,-0.0345569514,0.0993750840,-0.0487325974,-0.0977230072,0.1586594731,-0.1615912616,-0.0102667818,0.0740320086,0.1652427167,0.1671494246,-0.0923242271,-0.0475599058,0.1741665304,-0.0571413487,0.0809997767,-0.0818999931,-0.0434509777,-0.0414318629,0.0443930589,0.1807404608,-0.0269795582,-0.1279698461,-0.0509937853,0.0840449706,0.0556711927,-0.0341489539,0.0123300096,-0.0868547633,-0.0869321227,0.0764801651,-0.0811121017,0.0435262658,0.1474196315,0.0142086064,0.0594470724,0.0652013570,-0.1112768948,0.0113460738,0.0908182859,0.0367099792,-0.0366556011,-0.1257743537,-0.1139120907,0.1497723013,-0.0974176824,0.0302419644,-0.1065443680,0.0369949602,0.0833607465,-0.0850249976,-0.1822713912,0.1854225248,-0.0074743018,0.0046735592,-0.0594962128,0.0661571175,-0.1656928658,-0.0430752933,0.1447393149,-0.0575061664,0.0615126230,-0.1323833913,0.0230451878,0.0469287150,0.0727905706,-0.0919197649,0.0465077311,-0.0460000746,0.0258804355,0.0855694041,0.0490102060,-0.0107948892,-0.0805312395,0.0318297185,-0.0255984142,-0.2074390650,0.0594501495,-0.0976437479,-0.0936116949,0.0396581665,-0.0302688163,-0.0120293358,-0.0184134562,0.1304376423,0.0944314152,0.0072275959,0.0357182734,0.0488180071,0.0013003768,0.1606164873,-0.1107928306,0.0314370729,-0.0186202321,-0.0397253409,-0.0329399966,-0.0669233575,0.0613592826,0.0810599700,0.0993838087,-0.0176869147,-0.0596065372,0.0344357565,-0.0694274157,0.0531961136,0.1000285372,0.0012602765,0.0738771036,-0.0691008419,0.1215002313,0.0585871898,0.0633844063,-0.1147428453,0.0073314854,-0.0377371609,0.0737718567,0.1083009914,0.0385659486,-0.0289517473,0.0661712587,0.0239120759,-0.0881963372,-0.2018122673,-0.0143031627,-0.0553570800,-0.1914573759,-0.0425076447,-0.1097906530,0.1436886340,-0.0849025622,-0.0151366806,-0.0395367034,-0.0475299358,-0.0458226316,0.1168588325,-0.0164833721,-0.1467739791,0.0027337256,0.1230431870,0.0047205626,0.0987385437,0.0293606967,-0.0224710237,-0.0886964723,0.0112259528,-0.0680497587,-0.0877051800,0.0705703050,-0.0412817597,0.0868337080,0.0251835100,0.0672123656,-0.0887820423,-0.0236059148,-0.0025718275,-0.1410155296,0.1637538970,0.0045745894,0.1608352512,-0.0104546007,-0.0607183352,-0.0288762022,0.0852708220,0.0400576219,0.1382464767,-0.1590342969,0.0081019914,0.0259501766,-0.0307258852,0.0321528092,-0.1572061181,0.0567814186,-0.0427082442,0.0192775261,0.1091440693,0.1187205836,0.0337504111,0.0224865880,0.0976122171,-0.1549995840,-0.1097343117,0.1308579892,0.1094804108,-0.2455840558,-0.1098378897,-0.0575386323,-0.1378753185,-0.0237855837,0.0467575938,0.2527489662,-0.0776638389,0.3187370598,0.1859978884,-0.0442113355,0.0085767098,0.1323898584,0.1285126358,0.1170842424,0.0275383741,-0.0904172286,-0.1123742983,-0.0253117606,0.0169817526,-0.0232431851,0.1119909361,-0.0103237322,-0.0041783215,-0.0295100845,0.0488997661,-0.0954471678,0.0188764054,-0.0781748965,-0.0178676918,-0.1624112576,-0.0887947232,0.1582155228,0.0839104131,-0.0293637421,-0.0703385994,-0.1122998595,-0.0904221162,-0.0819137022,-0.0743794888,0.1311853230,-0.0160726402,-0.0173013322,0.0298402198,-0.0354536884,0.1046458185,0.1267284900,0.0132445293,-0.1562261134,-0.0971756205,0.0246738587,0.2531932890,-0.0104252892,-0.0360125639,0.0244150087,0.1636386216,0.0156673640,-0.2196396142,-0.0113480119,-0.1404867768,-0.0035673697,0.0168042425,0.1288056523,0.2375442088,0.1025469080,0.0726893917,0.1235000491,-0.1393016577,-0.0288242195,0.0550027229,-0.1078282669,-0.0759913996,-0.0548612140,-0.0215803515,0.1941311210,-0.0820953995,-0.0939179137,0.1414936334,-0.0233363230,0.0214913692,-0.0604825728,0.0304285269,-0.0224914663,0.1149314120,-0.1169383675,-0.0316349715,-0.0478924587,0.0450383089,0.0176205896,0.0454085842,0.0711458176,-0.1157948747,0.1291754991,0.0764153823,-0.0775458813,-0.1020168215,-0.0014905325,0.0502462648,0.0424447209,0.0982710272,0.0955954418,-0.0388570800,-0.0004848393,0.0698059946,-0.0333175063,-0.1169935167,-0.0128057944,-0.0186283849,-0.0415440425,-0.0221543331,-0.1416556984,-0.0856554881,0.0191530418,0.0305038672,-0.1108534187,-0.0363846458,0.0225173458,-0.0148965176,-0.0512753986,-0.0218897592,-0.0166095663,0.0372061580,0.0237743035,-0.0546493642,0.0593686663,-0.0920057371,-0.1356205493,-0.2056531161,0.0463233888,-0.1149692237,0.0084512290,0.0117112780,0.0112821925,-0.1485221833,0.2193256915,-0.1713328511,0.1743723899,0.0940060318,0.1399385929,-0.0051160078,0.0748349354,-0.1543633342,-0.1070754081,-0.0967722461,0.0308500361,0.0245243777,0.1205654889,-0.1454651654,0.0513280071,0.0657799318,0.1059265211,-0.1025673673,-0.0671362430,0.0315324962,0.0993320420,0.0095024705,0.0547717884,0.0516573414,0.0407069884,-0.1398485005,0.0095172068,-0.0237362143,-0.1347709298,0.0222081579,-0.0797147527,0.0209594220,-0.0288047437,-0.1591438949,0.0637137890,0.0603236929,0.1933046877,0.0609395877,-0.0806260780,0.0481594764,0.0229150020,0.0946792588,-0.0227324739,-0.0541420095,-0.1835233122,0.0790366679,0.1470720619,0.0621738248,0.1323613673,-0.0030567909,0.1632836759,-0.0844778121,0.0730299577,0.0100563848,-0.0467525646,-0.0722904652,-0.0378601253,-0.0384537205,0.1162074581,0.1154177859,-0.0417327471,0.0977666974,-0.1003454328,0.2190385908,-0.0824079067,0.0270918347,-0.1995160431,0.0081870370,0.0823958740,0.1621791571,0.0570144728,0.0786978006,-0.1151449084,0.0501654819,0.0668054968,0.2140934765,0.1788264066,0.0990766510,0.0799513981,-0.0117741683,0.0161257144,0.0684640408,0.0802193210,-0.0603322163,-0.0662609339,-0.0307766646,0.0277273785,0.0888955668,-0.0591467693,-0.2044347972,-0.0383391269,-0.0979012549,0.0052548307,0.0337230004,-0.0871094689,-0.0645579249,0.1027125716,0.1544611454,-0.0970295668,-0.0209429543,-0.0587766096,-0.0184881017,-0.1623803824,0.0406706072,0.0502258725,-0.0528938100,0.0289938617,0.1143868789,-0.0585302040,0.1009327918,-0.0398039930,-0.1874647141,0.0412052348,-0.0856871977,0.0559821017,-0.0987682492,0.0056800283,0.1021670178,0.0167440660,0.1756643802,0.1105439588,0.0660974458,0.0385687128,0.1676945090,-0.0470705852,-0.0310108345,0.0265478548,0.0484142378,-0.1675640345,-0.1700406224,-0.1075719818,0.1199586838,0.0433300957,-0.1466576904,-0.1276478171,-0.0581703261,0.1756526083,0.0228253696,-0.0040355870,0.0137166521,0.0117868818,0.0781344995,0.0533673912,0.1093713120,-0.1058302596,-0.0813254640,0.0226401072,0.1725213528,-0.1408190876,-0.0051424871,-0.0650749803,-0.0384949557,-0.0561280251,-0.0429376774,-0.0242843069,-0.0487443097,0.0279999450,-0.0397117622,0.0602314100,-0.1421704292,-0.0965841860,-0.1170557067,0.0652392209,0.0007526349,-0.0464933589,0.2014134079,-0.0251953285,0.0477232933,-0.1835658252,-0.0064268783,0.0571595915,-0.0197036564,-0.0118123041,-0.1116860211,-0.0806284323,0.0107596815,-0.0401655398,0.0980228186,-0.0364544876,0.0686175823,0.0060054474,0.0739202052,0.1106185690,0.0500600375,0.0839159340,0.1677860916,-0.1712394804,-0.0325446650,0.0855212733,-0.1712930799,0.0934744701,-0.0127350437,0.0447589941,-0.0463447757,0.0943925381,0.1155592576,-0.0039710491,0.0320267379,-0.0944097936,0.0313481688,-0.0125139896,0.0251499061,-0.0307728890,0.1660441160,-0.0830812603,-0.1836142391,-0.0390276350,-0.0465770960,-0.0547868684,-0.0114897285,0.1371306926,-0.1465769112,-0.0222002920,0.0022066899,0.0191198550,-0.0302767344,0.0476570688,0.0000606207,0.1322846711,-0.0319539756,0.0743753836,0.0113121895,0.0226669963,0.0501503609,-0.0814788640,0.0430717990,0.0379561372,-0.0852964297,-0.0729107633,0.0582059287,-0.0989496559,-0.0696829781,0.1596502513,0.0484998934,-0.1282248348,-0.0026046252,-0.0736013874,0.0604264103,0.0095370812,0.0362122022,-0.0508053564,-0.1004496366,0.1549577266,0.1364730000,-0.0412188917,-0.0370782316,0.0068070302,-0.0728916973,-0.0301376600,0.1147206426,-0.0395885855,0.0514130034,-0.0763753504,0.0333007537,-0.1287621856,0.1602363139,-0.0438469835,0.0395980813,0.0432031378,-0.0774797946,0.0048513161,-0.1867312044,-0.0869676545,0.2108437717,0.1529501975,0.1047959700,-0.0286212973,-0.1114198938,0.1836519241,0.0910975561,-0.1567764729,-0.0765229836,0.0871075168,-0.0067854794,0.0879123732,-0.0136554539,-0.0345876031,-0.0850875750,0.0967493430,0.0633252263,-0.0796357095,-0.0022767920,0.0782998428,-0.0469795056,-0.0433977209,-0.0186821539,-0.0787133351,-0.1422016472,0.1055630594,-0.1060707793,-0.0358574465,-0.0702513978,-0.0394726917,-0.0449476056,0.0409599394,-0.0902475193,0.1612148285,0.0393745042,0.1007443517,0.1801339686,-0.0764808580,-0.0270342287,-0.0084317215,-0.0228835717,-0.1594008207,-0.0437306613,-0.0749024004,-0.0699848980,0.1593379974,0.1329222918,-0.0202498194,0.0805421099,0.1820992678,-0.0270544849,0.0101560261,0.0124441534,0.1037711054,-0.1242329031,0.0970216542,0.0557419509,-0.0672480091,-0.0331030600,0.1384695321,-0.0179678816,0.0206800792,-0.0497538634,0.0218401775,0.0798824579,-0.0531189591,-0.1635419428,0.0474292710,-0.0454333797,-0.1020652726,-0.0779080689,-0.0405991897,0.0354294665,-0.0123488000,-0.0830706581,-0.0554709472,0.1271969527,0.0168273672,-0.2415352613,0.0561126247,0.0364216305,-0.0117247673,0.0751433298,0.0853122994,0.0809769183,-0.1335513443,-0.0239384994,0.0946909934,0.0461073443,0.2561569214,-0.0186571274,-0.1420170069,0.1544071734,0.0199278723,-0.0812710822,0.1414896548,0.0091535309,0.0276806261,0.1358797699,0.1262292713,0.0458737426,-0.1022024900,-0.0840439126,-0.1116369218,0.0365213491,-0.0929429010,0.0992195606,-0.1198381186,-0.0502059013,-0.0843011290,0.0647761002,0.0042982898,-0.0532919504,-0.1194898412,-0.0011720111,-0.2160998285,-0.0487969667,-0.0077073299,0.0550460294,-0.0710791126,-0.0753242001,0.0060866214,0.0235757902,-0.0255237147,0.1428230405,0.0530004799,-0.1066596508,-0.1785228550,0.0676245764,0.0090112677,0.0937393531,-0.1917103380,-0.0238289554,-0.0691828802,-0.1078029349,0.1103467792,0.1201616228,0.0116609484,-0.0484339669,-0.0430571921,-0.0713655725,-0.0681692287,-0.1183270887,0.0978567302,-0.0789949000,0.0042145108,-0.0488658361,-0.0210292749,0.1641356349,0.1790700704,0.0530917235,0.0146176871,-0.1049413905,-0.1462995261,-0.1160868108,0.0221536737,0.0328224376,-0.2125926763,-0.2514757514,0.0299199205,-0.1264800876,-0.0330997780,0.0731919706,-0.0446672067,0.0423524529,0.0208351705,-0.1172368005,0.1893295795,-0.0542892665,-0.0555910431,-0.0626518577,0.0855052844,0.0868946165,-0.0540031344,0.0036004884,-0.2157296240,0.0073737935,0.0645988435,0.1105193868,0.0357815586,-0.0140603175,0.0182506666,-0.0903513953,0.0234792940,-0.0429157317,-0.1222447455,-0.1373354495,-0.1249442250,-0.0720612854,0.0092904093,0.1970316321,0.0228649192,-0.0171703883,-0.0247622337,0.0820471644,0.0916368589,0.0510936417,-0.0497080833,-0.0586529635,-0.1281051934,-0.0438444540,-0.1113751680,0.1362517923,0.0114418073,-0.0771487579,0.0717345625,-0.1567694843,-0.0947037637,-0.0068566552,-0.0745336786,0.1332051158,-0.1432210356,0.1354123652,0.0361274518,0.0194190405,-0.0349127427,0.0095104631,-0.0470248163,-0.0687507540,0.0639441758,-0.0449273773,-0.0387615971,-0.0069907643,-0.1120783612,-0.1256985515,0.0004419374,0.0388495028,-0.0115694208,-0.0464670025,-0.1257801354,-0.0183672588,-0.0888806060,-0.2155390531,-0.0057389601,-0.0366073661,-0.0451208130,-0.1464935541,-0.0152947130,0.0803078115,-0.0743356049,0.1903933585,-0.0183637012,-0.1404496878,-0.0343038402,0.1772005707,-0.0556253456,0.0471890457,0.0478824824,0.1205254123,-0.0627928749,0.0911669806,0.1544036269,0.0854503214,-0.0475793332,0.1058621928,0.1002932116,0.1106081009,-0.0435439125,0.1147460490,0.0365719646,-0.0922097340,0.0646329373,-0.1132931784,-0.0346859060,0.0284520611,-0.0955733135,-0.1948246509,-0.0289041158,-0.0330462754,0.0638314039,-0.0505588986,0.0641730279,-0.0479211472,0.0616470799,-0.1374254674,0.0422857963,-0.1463054270,0.0724732727,0.0604775399,-0.1339289844,-0.0195528921,0.0646969900,0.0016304213,0.1016276851,0.0776243359,0.0375606939,-0.0890871137,0.1269439459,-0.1141918972,-0.0150522310,-0.1217310503,-0.1232460588,0.1226137355,-0.0831408426,-0.1005214453,0.0293973684,0.0457482934,0.1935621500,-0.0702007413,-0.1303416789,0.0199541729,0.1712441593,0.0232783258,0.1088650152,0.0596426427,0.0138934664,0.0453646593,0.0438505895,0.1076907888,-0.0237878282,0.1548001021,0.0400758125,-0.0647733584,-0.1251914203,-0.0932989195,0.0667982176,-0.0464813299,0.0505134948,-0.0047901897,-0.0755464956,0.0267217290,0.1029883474,0.0695897117,-0.0374500304,-0.0620319955,-0.0165718012,0.0879476666,-0.0102841612,-0.0590172447,0.0341268145,-0.0830688700,-0.0093457857,0.0642295480,0.0487654023,0.0782871619,0.0499850884,0.0139238276,0.1398315132,0.1447345316,-0.0178904217,0.0870145038,0.0562097840,-0.1403738260,0.0619265549,0.1435035020,-0.1499890983,0.0697587952,0.1515316069,0.0094708828,-0.0439588018,0.0715624839,0.0594194271,0.0416225307,-0.1405624896,-0.0325774923,-0.0448441282,-0.0451386608,-0.1068919525,0.1072785333,-0.0401191562,-0.0267805848,-0.0873164162,-0.0182604436,0.1843126714,0.1601067781,-0.0790144652,0.0550983734,-0.0313534029,0.0490201600,0.1372866929,0.0002032354,-0.0400421061,-0.0648445040,-0.1756331325,0.1343554258,0.0111041218,0.1396542341,-0.0006835216,0.1169725209,0.0344951190,0.0601670742,-0.0932515562,0.0275920331,0.0396411046,0.0264821015,0.0532349013,-0.1489927173,-0.1723422110,-0.0601129457,0.0709151775,-0.0828538761,0.0357134379,-0.0569399036,0.0496125408,-0.0040131542,0.0586705990,0.0171591602,-0.0974051878,0.0712505579,-0.0464911051,-0.0307486951,-0.1887253076,-0.1339619607,-0.1729946434,-0.1580609381,0.0080303187,0.1013039723,0.1106236130,-0.0110388594,0.0790038630,0.0748078674,-0.0031127119,0.1941565722,-0.0156170372,0.1220409200,-0.1654891968,-0.1533819288,0.0302664787,-0.0059125721,-0.0230253357,0.0415152684,0.1788715720,0.0669390708,0.0510277823,-0.0666802078,0.0713517815,-0.0514875017,0.0075702313,0.2022245377,-0.1143315509,-0.0771701708,0.1342281103,-0.1321643889,0.1368366629,-0.0135454312,0.0218923241,0.0837883204,0.0052467287,-0.0194271896,0.0660725236,0.0861798376,-0.1291948259,0.1188886538,0.0811529458,-0.0266430508,0.1486814171,-0.0803973898,0.0632098541,-0.0013880848,0.0346289426,-0.0292508714,0.0775644183,-0.0023898142,0.1152648404,-0.1051042452,-0.0461206771,-0.0521529578,-0.0951466039,-0.0599635839,0.0873140171,-0.0477389470,-0.0981944650,0.1055700853,-0.1447149813,-0.1452254802,-0.0377869457,0.1520684063,-0.1854105592,0.0865199789,-0.0634918511,-0.0639851019,0.1113542989,-0.0677015111,-0.0615490116,-0.0250390954,0.0469053276,0.0137220491,-0.1843554229,0.0875469372,-0.0317790285,-0.0811464563,-0.0140906749,-0.1546319574,-0.0165028311,0.0727981552,-0.0537058078,0.0330321975,0.0644270629,0.0862830356,-0.0469074436,0.0472103283,-0.0273338612,0.1331971437,-0.0643180311,-0.0662994683,-0.0109425653,-0.2080620527,0.1773040444,-0.1377972960,-0.1705310196,-0.0861334875,0.1678272635,-0.0914043859,-0.1301635504,0.0421770699,0.1142776385,-0.0735427439,-0.0459239520,0.0654718652,-0.0753789917,-0.0666212365,-0.1477670968,-0.0714168772,0.0774425939,-0.0711893812,-0.0366490558,0.0857761949,0.0448431969,-0.1628459245,-0.0516995341,-0.0912617221,-0.1070741490,0.0082410220,-0.1402373612,-0.0363726765,0.0852479339,0.1627502590,-0.0177706834,0.0207506176,0.0395126231,-0.0916937739,0.1121565923,-0.1389309615,-0.0184743740,-0.0887553245,-0.0394573584,-0.1052750722,-0.0021104557,0.1851072311,-0.1104244739,0.0351731628,-0.1024262756,0.0849262774,-0.0369711146,0.1094516963,0.1859912574,-0.0249628462,-0.1549942940,-0.0188720487,-0.0395909436,-0.0599178448,-0.1218737960,-0.0924784765,0.1216667518,0.0000147938,0.0690488294,0.0841196850,-0.1706944108,0.0794583037,0.0236444175,0.0380524471,0.0357050970,-0.0566215441,0.1364603043,-0.0432066657,0.0217228848,0.1006881073,0.0307987221,0.1521248072,-0.0101223132,0.0930025280,0.0753448978,-0.0294311028,-0.0309017040,0.0019886976,-0.0475044735,0.0686994568,0.0254046693,-0.0459150970,-0.0219960958,0.1049589291,0.1578929871,-0.0868749246,0.1711387038,0.0903378054,-0.0087875035,0.1920973808,0.1181563362,-0.0354817659,0.0569958985,0.1213341206,0.1445806921,-0.0791819468,-0.0757441521,-0.0167312622,0.1436466724,0.0471588373,-0.0665782541,0.0403916091,-0.1106177121,-0.0774123222,-0.0048820134,0.0910888687,-0.0478303619,-0.0356789753,-0.0465706773,-0.1111537218,0.0247624908,0.1311619878,0.1358606517,-0.1483963877,0.1243363023,-0.0330554545,-0.0227272678,-0.0592628941,0.0310537852,-0.0241802428,0.1608431786,0.0296512637,-0.0433387719,-0.0213585496,0.0575862080,-0.0312183872,-0.1658445448,-0.0766843408,0.0693582222,-0.0514875092,0.0509143136,-0.1142477095,0.0000634072,-0.0417488627,0.0240327828,-0.0655724332,-0.0165179409,-0.0365426429,0.1900935620,-0.0860324576,0.0560274906,0.1413826793,0.1260636747,-0.1739926934,-0.0004267331,0.1300720870,0.0236867331,0.0430887341,0.0274999905,0.1249004975,-0.0067599462,0.0092776287,-0.0537519343,0.0519648902,0.0116203064,-0.0779710114,-0.0658958703,0.0296459049,-0.0522525758,0.1992107034,-0.1207609251,0.0518528037,0.1022512391,0.0151287215,0.0645675883,-0.1085846499,0.1792590469,0.0818777308,0.0986960456,-0.1134908795,-0.1621961147,-0.1988662630,-0.0605900101,0.0586310066,0.0740315616,0.0218575541,-0.1435559094,0.1317074895,-0.0040642316,0.0019566950,-0.0301480107,-0.1275158972,0.0310417414,0.0734744146,-0.1826595515,0.1498529166,-0.0362688303,-0.0816681683,0.0321254693,0.1270220280,0.0109331757,0.1454519033,0.0491643287,0.0331456847,-0.0050687334,0.0413391702,-0.0711452514,-0.0265646726,-0.0022999011,0.0768796206,-0.0358692780,-0.0444682613,0.0522682667,-0.0177214853,-0.1296090633,0.0637471005,-0.0846586004,0.0604516231,0.0050386540,0.1036391258,0.0508252531,0.0059624421,0.0888452455,0.0346508808,0.0268306173,-0.0236415341,0.1593197435,0.0437889285,0.0180308037,0.0754646659,0.1711659133,-0.1069720387,-0.0213985201,-0.1006890163,-0.0039798757,0.1054528952,0.0276603028,0.0289498698,-0.0104993563,-0.0186096430,-0.0986363664,0.1017332301,0.0636755601,-0.1842219383,-0.0623972006,0.0152734863,0.0739872456,-0.0809397846,-0.1917391121,-0.0484610759,0.0107176397,-0.0271452945,0.1026726216,0.0285679195,-0.0761380270,0.0433670059,-0.0655291453,0.1614834964,0.0052731927,0.0410139151,-0.0237717442,-0.0370964892,0.0952037275,0.0842418447,-0.1156817004,0.0995657668,-0.0209336411,0.0884918198,-0.1210539639,0.0021830106,-0.0578481704,-0.0100790523,0.0509064347,0.1421716511,0.0066609173,-0.1095531285,0.1102473587,-0.0437628813,0.0280504320,-0.0267369933,0.1235044375,0.0079037203,0.1874134541,0.0196916014,0.0464398004,0.0389013030,0.0069203014,-0.1509855986,-0.0296290703,-0.2062203437,0.0137805892,-0.0141286207,-0.0758113116,-0.0538980439,0.0174242239,-0.1169700176,-0.0095058903,0.0849666819,-0.0947923437,0.1804846972,0.0787477493,-0.1942417771,0.1635108739,0.0145798186,0.0513728410,-0.1934225708,0.0650544167,0.1661849171,0.0311646834,-0.0576385446,-0.0327189751,-0.1286053509,-0.0167496689,-0.0233668406,-0.0144604500,-0.1417429745,0.0629281253,0.0814799964,0.0260593295,0.1318813562,-0.0285003595,0.1170964986,-0.0080559161,-0.1493604779,-0.0928155109,0.0047462308,0.0336776525,-0.1822955906,-0.0213402621,0.0557649098,0.0893271044,0.0536523536,0.0555573404,-0.1081319526,0.2101686299,0.1592919379,0.0996220857,-0.0589870960,-0.0151279680,0.0353764817,-0.1161190495,-0.0838344619,-0.1138100848,-0.0626085103,-0.0674544722,0.0366517752,-0.1391095221,-0.0766504854,0.1168758348,0.0146645550,0.0472000018,-0.0548893474,-0.0685400516,-0.0941506177,-0.0637171715,0.0475530326,0.0138395978,-0.0346051157,-0.1664359719,-0.0686106309,-0.0232212115,-0.1026171893,0.0301151425,-0.1100943461,0.0865376145,0.1952544153,-0.0046136752,-0.0373627655,-0.0448940136,0.0513451695,0.0073432848,0.0816381574,0.1574065834,-0.0029458967,-0.1346485466,-0.0840182677,0.0152898571,-0.0304848887,-0.1603618115,-0.1320283860,0.1358625740,-0.0805631578,0.0811038092,0.0763568506,0.0785747841,0.0354015678,-0.0830288529,0.0171607807,0.0254932661,-0.0407955572,-0.0518010110,0.0258336142,-0.0418249480,0.1041640863,-0.1688307524,0.0088152196,0.0555988438,0.0086781839,-0.0633024201,0.0092828246,-0.0154374605,-0.0517715700,-0.1728286147,-0.1096033379,0.0758078396,0.2039157450,-0.1110578403,0.0203073323,0.0520457178,0.0956543535,-0.0496377796,-0.0631577075,-0.1012259275,-0.0040912139,0.0286254510,0.1071444526,0.1267147511,0.0266146511,-0.0397886261,-0.0580149107,-0.0089644073,-0.1213313714,0.0695652962,0.0954838917,-0.1648584753,-0.0279523395,-0.0528394580,0.0167108178,-0.1942381263,-0.0197913051,-0.0616214164,-0.0527665317,0.0247678570,-0.0317774527,-0.0462924652,-0.0147620551,0.0407862104,-0.0810276270,0.0139777903,0.1602711380,-0.1371393055,0.0513066053,-0.0136104869,0.0077252933,0.1473770738,-0.0254161358,0.1619789004,0.0644848943,-0.0222829543,0.0981247723,0.0524961203,0.0654556975,-0.1242305711,0.0991506130,-0.0177762713,-0.0048367199,0.0195206366,-0.1325214058,0.0050704088,-0.0987987295,-0.0123503767,0.1154717878,-0.0212663338,0.0512750000,-0.0508464128,0.0247631967,0.0872240588,0.0548269227,-0.1159002781,-0.0245416816,0.1224633232,0.0606719218,0.0758239403,-0.0958485529,0.1754627228,0.0468651429,-0.0514530241,-0.1092622280,-0.0273270775,0.0901666060,-0.0521201789,-0.1345956475,0.0675247908,-0.0918789580,-0.1329600662,