0.1385375708,-0.0792477131,-0.1376739889,0.1606531441,-0.2156316638,0.1133041382,0.0461143181,0.1147535443,-0.1053342521,0.0450935774,-0.0831164345,-0.0424887165,-0.1608557254,-0.0163168181,-0.1481428742,0.0171974469,0.1679494679,0.1144374013,0.0873202831,-0.0236258600,-0.0874119326,0.0628652796,-0.1064418256,0.0762662739,0.1055330411,-0.0015572596,-0.1111661270,0.2350683659,-0.0387835279,0.0333864577,0.1442250013,-0.1014308259,-0.2476011962,0.0156274028,-0.0828156099,0.0064526242,-0.0525682718,0.0021401634,-0.2124719620,-0.1444668174,0.0170879532,-0.1062462255,0.1077124327,0.1155127510,-0.0713079497,-0.1658600122,0.1025625467,-0.1258564144,0.0958974063,-0.0528454371,-0.0714363754,0.0896175951,0.0161019135,0.1515600830,0.0892281905,-0.0253869761,0.0612258837,-0.0667211041,-0.2009463161,0.0972022638,-0.1383046806,0.0410520136,-0.0653722137,0.0600583218,-0.0744253471,-0.1023867503,-0.1562395543,0.0173234604,-0.0487949327,0.1651031524,-0.0025012558,-0.0818932727,-0.0610291809,-0.1681570858,0.0763481110,0.1246090829,0.0950710475,-0.0973887816,0.0886140764,-0.0963200107,-0.0963921249,-0.1174549907,-0.2027911693,0.0086414851,-0.0248713978,0.1324717700,-0.0509466305,-0.0456875786,-0.1577433795,-0.0881148800,-0.1032970846,0.0778563544,-0.1181759834,0.0832612365,0.0647164509,-0.1060015559,-0.1132042035,-0.0561999008,0.1719313562,-0.0969154537,0.1415622830,0.0834367573,-0.0065020793,-0.0833464861,0.0254275072,-0.0779842362,-0.1016192585,0.1685067564,0.0585095137,0.1487073004,-0.1739003956,-0.0958117694,0.0190570708,0.0210081339,-0.1247061044,-0.0986333862,-0.2253906131,-0.0499473661,-0.0097861476,0.1975892931,-0.1953421980,-0.0073153134,-0.0404636376,-0.0975690410,-0.1321589649,0.0934526026,-0.1582810283,-0.0453250296,0.1782700717,-0.1207045540,0.1635683477,-0.0826134235,0.0077442559,-0.0723323599,-0.0824893564,-0.0544830374,0.1589507312,0.0523436032,0.1436813623,0.1160385683,0.1085210145,0.0959422737,0.0313726440,-0.1385413855,-0.0200321581,-0.0053750719,-0.1077962741,-0.0803105161,-0.1776058972,0.1584897041,0.1382010579,0.0397207104,-0.2044608891,-0.1017318815,0.0890764743,0.0503015779,-0.1662799418,-0.1024850011,-0.0851794779,-0.1378967166,-0.0163550749,-0.0030464451,0.1025721282,0.0952698365,-0.0741741210,-0.2054175436,-0.1072251499,-0.0097454442,-0.1258409321,0.0758331865,-0.0888777673,-0.0434900187,-0.0016881548,0.0097624864,-0.1028032079,-0.1375064105,0.1147604808,0.0096090836,0.1364171207,-0.0010258498,0.0593819506,0.0367702655,-0.1108495221,0.1498467028,0.1409751922,0.1011476368,0.0064648297,-0.2201254368,0.0738256276,-0.0851436928,-0.0951395780,0.0823735446,-0.0601030588,-0.1414311826,-0.0026555478,0.0245761685,0.0952877030,-0.1285894513,-0.0061812862,-0.0475815982,-0.0050762240,-0.0350448824,-0.0390314348,0.0366605036,-0.1331356168,-0.0166561995,-0.0489777550,0.0680788308,0.0847574323,0.0305413697,-0.0557292178,0.0213185847,-0.0137500046,-0.2340098023,-0.0046920064,0.0783694759,-0.0325641334,-0.1244111359,-0.1383170336,0.1172039062,0.1989526302,-0.0512418933,-0.2152633816,0.0579903387,-0.0547767878,-0.2184974849,-0.0650114566,-0.0651918948,-0.0732953548,-0.0076764673,0.1312356442,0.1059522703,-0.0876194909,0.1209472045,0.0063083940,0.0111257201,0.0529265106,-0.0725982785,0.1073536351,-0.1888637990,-0.1757679582,0.1265885234,0.1245993972,0.0773548260,0.0223476123,0.0668245405,0.1148320287,0.0906024650,-0.2093980461,0.0316800326,-0.0603583939,-0.1547386348,0.0285182614,-0.1604193896,0.0032233358,0.1200324371,-0.1724443436,0.0965394527,-0.2150144130,0.1217835471,-0.1420599520,-0.1364882737,0.1195961982,-0.1327839345,-0.2262997031,-0.0244879741,-0.0839598104,0.1093711033,0.0443892479,-0.0292712823,0.0586473383,0.0169047322,-0.1023889333,-0.0758942589,-0.0220417604,0.0452964455,-0.1022059321,0.2387610227,-0.0466318056,0.0935660526,-0.0706331655,-0.1087222844,0.1228696555,-0.0512164049,-0.0095210327,-0.0276964344,0.1101129353,0.2132702321,0.0056142900,0.1595456302,0.0173545722,0.0246528201,-0.0993446335,0.0450885817,-0.1720607430,-0.1551351845,-0.0100732492,0.2025583535,-0.1625952572,-0.0279175751,0.1225397885,-0.1024724022,0.0906393528,-0.2271149904,0.1292310506,-0.1152805164,-0.1949877888,-0.0072468789,-0.1573777944,0.0812970251,0.0546926707,-0.0997352004,0.1034546122,-0.0804635361,0.1219925880,0.0186416358,-0.0777086020,0.0357960127,0.1182045788,-0.0026816074,0.0237079021,0.1394853145,0.0068012704,0.1480622292,0.0230929293,-0.0008081215,-0.0260161422,0.1218258739,0.0454996414,-0.0770865455,-0.0103876600,0.2041022331,-0.2154661864,0.1105779931,-0.0106590027,-0.0351473354,0.1409758776,-0.0075803804,0.0982916728,-0.0486602038,0.0081480723,0.0633573309,-0.1866046339,0.0679383576,0.0570024885,-0.0823706239,0.0343845412,0.1403246224,0.1824689358,-0.1159793362,-0.2178784013,-0.0535207912,-0.0538630970,-0.0284278020,-0.0258512255,0.0790439621,-0.1810984015,0.1704553813,-0.0876296833,0.0031147448,-0.0988809541,-0.0421524979,-0.1123110726,-0.1055006534,-0.0533217788,-0.0591681190,0.0349605978,-0.0835928544,-0.1026816517,0.1134976745,-0.2388447970,0.0133396583,-0.1274891198,-0.0091001205,-0.1393626630,0.1263739169,-0.1492778808,-0.0761590749,0.1520279646,-0.0757151321,0.0452500768,-0.1787324697,0.1074741408,0.0031511954,0.0393002219,-0.2018586099,0.0007064242,-0.0905368924,0.0401132368,0.0321927145,-0.0449386947,-0.0798523873,-0.1598932445,0.0560147688,-0.0520588458,0.0489796735,-0.1047112644,0.1336702853,-0.2338834107,-0.0055068084,-0.0837584734,-0.0669136569,0.0026937781,0.0411976837,-0.0122425612,-0.1580784917,-0.0010191905,-0.1576593220,-0.2192055136,0.2575503290,0.1446402371,-0.0129230917,0.0820679516,-0.0612499677,0.1247226894,0.1979107559,-0.0454841368,-0.1606858373,-0.0442854799,-0.1810097694,-0.1513831168,-0.2306649834,0.0650564954,-0.0926561505,-0.1525487006,-0.0550883897,-0.1089394540,0.0121398093,0.0395395234,0.1010722592,0.0255177058,-0.0333963968,-0.1147316918,-0.1687805951,0.0059495186,0.0131894471,-0.0304033142,0.0137481010,0.1382831931,0.1196708307,-0.0333406925,0.1099243239,-0.0043128729,-0.1529663354,0.0862797648,-0.2293036282,0.2090253085,0.0473954007,0.0046109455,0.0349777751,-0.0279636364,-0.0664101616,-0.1290138066,-0.0573325083,-0.0485579222,0.0700262785,-0.0634577572,-0.0809280276,-0.0910157487,-0.1191061065,-0.0805284008,-0.1194286719,0.1133516431,0.1492125690,-0.2033284456,-0.0702166334,0.1477975696,-0.2091749758,-0.2177847475,-0.1198085696,0.0823818073,0.0682361126,-0.0269318391,0.0681823865,-0.0775375143,-0.0602728091,-0.1241944879,0.0409055017,0.0495820902,0.0006667009,0.0037325106,0.1117586419,0.2144498229,0.1625296623,0.1484691352,0.0852147043,0.1191697121,-0.0200818535,0.1317538768,-0.0490787961,0.0248590559,-0.1352422237,0.0049968315,0.1839477271,0.1374475360,0.0816186816,0.0121981259,-0.0662300959,-0.1706910431,-0.0671918839,0.1893450618,0.0002065107,-0.1503139883,0.0903062299,0.0969026759,0.0637702644,-0.1046596095,-0.1466916353,0.0270836242,-0.0029969595,-0.0171115231,0.0380176418,-0.0481146313,0.0539158732,-0.0503949746,-0.1462608576,-0.0952685848,0.0593096465,0.0416196436,-0.1096393764,0.0472115017,0.1349665076,-0.1833436936,-0.0563498102,0.0708950534,0.1290404350,0.0867047459,0.0167546291,0.0985254273,0.0549664907,-0.0179830026,-0.0073946640,0.0840135887,-0.0660250857,-0.0241378993,-0.2037329823,0.1049250662,0.0228265934,0.0648663864,0.1600688398,-0.0245885290,-0.0816707239,0.0297935009,0.0991210788,0.0225437172,0.0818739906,-0.1655260921,0.0433684736,-0.0751936063,-0.1464600116,-0.0150520559,0.0909373313,0.2134968191,-0.1180570051,0.0138091780,0.1569137275,0.0650383458,0.1756318659,-0.1564230919,0.1400387883,0.0608201623,-0.0136468634,0.0638331771,0.1760452837,-0.1881594360,-0.0171382949,0.0766408294,-0.1230597273,-0.0482615829,0.1273249686,0.1008007377,-0.0824891925,-0.1139660403,-0.2025636286,0.1381081194,-0.2365521491,-0.0831930414,0.1603104621,0.0372930542,0.0174782891,0.0169451740,0.0728837326,0.0900406316,0.1820884049,-0.1121494249,-0.1197850406,-0.1567773819,0.1129960269,-0.0326641053,0.0521159135,0.1360754669,-0.0933494046,-0.1578677148,0.2349508852,0.0558044240,-0.0412994958,0.1237690002,-0.0224813335,-0.1550654024,-0.0734479800,0.1255092770,0.0258637629,0.0832811818,-0.1459182054,-0.0860739425,0.1865872741,-0.0299915299,-0.0327206887,0.1251365989,-0.0503592975,0.1830425113,0.0346377492,0.0933546796,0.0732349381,-0.1887381822,-0.0425257050,0.1546550095,-0.0102591841,0.1029531807,0.1278277934,-0.0299783889,0.0347634144,-0.2313976437,-0.1644762754,0.0533715077,-0.0396295786,-0.0485137627,0.1163282990,0.0904503912,-0.1815189272,0.2138731033,-0.0313981883,-0.1253875345,-0.1364224851,-0.0179213118,0.1973071247,-0.0962683260,0.0185235031,0.0572522655,-0.1797034293,0.0349416994,-0.2067451328,0.1247999743,0.0495263301,-0.0285563692,-0.2043679655,0.0900748521,-0.1269486845,-0.2020752132,-0.0268424265,-0.2180722654,0.1416768581,0.2133168429,-0.0874562040,0.0191806350,0.0368013717,0.0930726975,0.0263507869,0.1409586668,-0.1483995467,-0.0374991149,-0.1088421494,-0.1618137211,-0.0198951457,-0.1122592390,-0.1158260331,0.1981783360,0.1397126466,-0.1460334212,0.1280041486,-0.0870512128,-0.0715336874,0.1020085439,-0.1310712546,0.0013301101,-0.1489055455,-0.0926228911,0.0600858591,0.1840441227,0.0538077392,0.0102118645,-0.0013786633,0.0232941601,0.0632734895,-0.1523423791,-0.2349024564,-0.0476521477,0.0981330499,-0.0054405257,0.1520707309,-0.1155695170,-0.0309705157,-0.0952857211,0.0168663897,0.1505556703,0.1849144101,-0.1516387761,-0.0086417096,-0.0514428578,0.0033354764,0.0271409992,-0.1271896809,0.0012115067,-0.0617045127,0.0428476073,-0.0238732733,-0.0892875791,-0.1296596378,0.0794315264,0.0961520076,-0.0543616861,0.2064857781,-0.1313573420,0.0870374069,-0.2316354066,-0.0243642516,-0.1106459200,0.0549500138,-0.1633803844,-0.0374349020,0.0250099692,-0.1032504365,-0.0730558410,-0.1199463457,-0.1406703442,0.1504378021,-0.2434355766,-0.1189461499,0.0898260623,0.1322052628,-0.0334185362,0.0251656435,0.0894462988,-0.0340702385,-0.1132411435,0.2219837010,-0.2431628406,0.0454374924,-0.0749314949,0.1105800122,0.0824510828,-0.1756698787,-0.0656585395,0.1061586067,0.1110538021,0.0243372135,0.1447118670,0.0606185645,-0.1258442700,-0.0126086771,-0.0483270809,0.0002155271,-0.1440121233,-0.1624900550,0.0372637436,0.0996112898,-0.0515683964,-0.0061675222,0.0597662069,-0.0009327843,0.1023833975,-0.0855177268,-0.1444978565,0.1339419186,-0.0714226589,-0.1350123286,0.0471554697,-0.1501649171,-0.1457056552,-0.0855350047,-0.0163066480,0.0249002855,0.0511066951,0.0954722539,-0.1243866980,0.0258041825,-0.0811837539,-0.1243985593,0.0720771104,-0.0893611759,0.0124403397,-0.0606706999,0.0397744402,0.2477214932,0.0033952699,-0.1156123057,-0.0191762764,-0.0104924543,-0.0863012746,-0.1218085811,-0.0119941272,-0.0851881206,-0.0495868549,-0.1922212541,0.0006173822,-0.1301784217,0.0522224009,-0.2158809602,-0.0377419032,-0.1416850686,-0.1250147820,0.0503141247,0.0042304383,-0.0688660219,-0.1596169621,0.0118334973,-0.0073018433,0.1504196823,0.1044193730,0.1398276985,0.0094375927,0.0492042564,0.0053835195,-0.2266816348,0.0363037959,0.0369978435,-0.0654688254,0.1522113830,-0.0457709804,0.0571306460,-0.1357151270,-0.0375657603,-0.0104857590,0.1308137029,0.0828767791,-0.0004065454,0.0300966036,0.0523901097,-0.1736399233,0.1301548183,-0.0950130001,0.1352086663,-0.2221143246,-0.0130404336,-0.0897331834,0.0240906812,0.0049390332,0.0033344270,0.1452164352,-0.0284805056,-0.0666356385,0.0195566285,-0.1292040199,-0.1268206537,0.0592046529,0.1342433244,0.1401643306,-0.0373459682,0.1543481648,-0.0821242109,-0.0518368557,-0.1016552150,-0.0915943608,-0.0913922712,0.0515377633,-0.0338979848,0.1662603766,-0.1731496304,0.1694580019,-0.0395500548,0.0882662833,0.2037912160,0.1118452325,0.1515919864,0.1501366794,0.0085508050,0.0606663823,-0.0702459663,-0.0118312640,0.0053841700,0.0750299543,-0.0501508825,0.0447330512,-0.1566504687,0.0396497883,-0.0785667077,-0.0856195986,0.1672290862,0.0845775381,-0.1823125184,0.0134963086,-0.0896430239,0.1050580293,0.1337247044,0.0159082245,0.0227546114,-0.0325322226,-0.1423587948,0.1576899290,-0.0086758630,0.0854585916,-0.0915230364,0.1461036205,-0.1083273739,-0.1250446141,0.0137191778,0.1049805209,-0.0966790095,-0.0058228350,0.0015123859,-0.0607445911,-0.1899526417,-0.0527617186,0.1469297260,-0.1593817025,-0.1582848132,0.0994350240,-0.0513354875,0.0542429723,-0.0314020365,0.0317463577,0.0208006017,-0.0460836478,-0.0074182176,-0.1653420180,0.0605988353,0.2038201839,-0.0962594897,-0.0273894537,0.1386615187,-0.0358167067,-0.1555083543,0.0136325918,0.0376984142,0.2169500589,-0.0823900923,-0.1187797487,0.1111367121,-0.0117357373,0.0542345159,0.0092422487,-0.1368841082,0.0137916356,0.1540532410,-0.0509087332,0.1458363980,-0.0571253709,0.1486185640,0.0445110016,-0.0842329785,-0.0248082522,-0.1167168990,0.0718499124,-0.1433887184,0.0891200453,-0.1252352297,-0.0157623962,0.1247932762,-0.1237236261,-0.0229356550,-0.0905842558,-0.0238267872,-0.0448050462,0.0674074441,0.0568708405,0.0861117169,0.0311785247,0.1051277667,-0.1293002963,0.0186510235,0.0749448612,0.0061800648,0.0681461543,0.1361912191,-0.0349565521,0.0227998141,-0.1082919836,-0.0165453758,-0.0431972966,-0.0974321440,0.0912274942,-0.0033368345,0.1102746502,-0.0595043339,0.1437674463,0.0462109372,-0.0305108689,-0.0091562690,-0.0565303154,0.0464055426,0.0365236290,-0.1937528551,0.0596842468,-0.0567986183,0.0851015449,0.0756673068,0.0066321553,-0.0122922082,0.0649251863,0.1278581917,-0.2371873260,0.0355648994,0.0147446254,0.1238637418,-0.1038832366,0.1164039746,-0.0084488252,-0.1635797471,0.1517796665,0.0452060327,0.0192307457,0.0229854602,-0.0114390934,-0.0882429481,0.1267979443,0.0641730055,-0.1390451789,0.0149232987,0.0098795732,0.1109914705,-0.1131046265,0.1786867827,0.0282334164,0.0693430379,0.0394606143,0.0782135800,0.1330803037,-0.1676931977,0.0463492870,-0.1095894799,0.1776173115,0.0256603267,0.0124802710,-0.1578754634,0.1167649105,0.0279938411,0.1265896857,0.1094238088,-0.0298609491,0.0582815148,-0.0614233576,-0.0667248890,-0.0534023158,0.1009551138,-0.0936385691,-0.0016834919,0.0758558139,-0.0019679142,-0.0424020961,-0.1608413756,0.1414702088,0.0657908618,0.1015391573,0.0666614547,0.0449922085,0.1237183735,-0.0668157041,0.0701189712,-0.1185430065,-0.0323234387,0.0991057679,-0.0846025571,0.1469903737,-0.0420804881,-0.1956845969,-0.0728351474,0.0628358647,0.0319075659,-0.1833431423,-0.1009924337,0.0830306858,-0.0470610559,-0.0744268224,-0.0284922570,0.0873039514,-0.2481932044,-0.2888556719,-0.2064568400,-0.0760551244,0.1314100623,-0.0115239387,0.0033820947,-0.1705394834,-0.0343307219,0.0576766245,-0.0769966394,0.0155885313,-0.1078577191,-0.1748433262,-0.1030724868,-0.2390145063,0.1163048148,0.0044427048,-0.1686055362,0.0370700285,0.1677583456,-0.1857958436,0.0875701457,-0.1994223446,-0.0275025275,0.1427787244,0.0995110795,-0.1468748450,0.0626546964,-0.0718254820,0.1981537193,-0.0403530672,-0.0985577554,-0.0288267042,0.0390952155,-0.1820857972,-0.1339613646,0.1722887307,-0.0479872152,-0.1327176839,-0.0469240248,-0.1811826825,0.0845437199,0.0514196865,-0.0194112919,-0.1077742949,0.0191655792,-0.0662478060,-0.1044246554,-0.0054293252,-0.0869441554,-0.0590768568,-0.0388036147,-0.0248922147,-0.0397738852,-0.1675886363,0.0661849529,-0.2422103286,-0.0478947163,-0.0541868731,-0.0203156844,-0.0481482632,0.1089251041,-0.1179714650,-0.2482323647,0.1609756351,0.2252077162,0.0520708822,0.2498513907,-0.0010388725,-0.1222825199,-0.1265733540,-0.0920775831,-0.0324556679,0.0817977265,-0.1695759296,-0.0383498073,0.1755603701,-0.0795106590,0.0206220616,0.1216102168,0.1464755982,0.0008892794,-0.1193201393,-0.0170120783,0.2085203677,0.0987710357,-0.0526108481,0.0002418084,-0.1228056401,-0.1220781058,0.0408029929,-0.0666136965,0.2067664713,-0.0830097422,-0.0215130933,-0.0065389629,-0.1660435498,-0.1295833737,-0.0329836942,0.1038817763,0.0279120542,-0.1209198013,0.0537875295,0.0911371633,-0.0365899242,-0.1662357152,-0.0674083009,0.0736111253,0.1020021588,-0.0121484771,-0.0002626767,-0.0259521808,-0.0074089211,-0.2023698241,-0.1036966592,0.2038437128,0.0996731147,-0.0333601348,-0.1647365391,0.0870557502,0.0877116099,-0.1427176148,0.2306260616,-0.0173992477,-0.0361085944,-0.0653262287,0.1521784216,0.0184512958,0.0448710471,0.1553726047,0.1278047711,-0.0398290418,-0.1885644495,-0.1140606105,0.0693728998,0.2015595138,0.0335031860,0.0589737482,0.0350940004,-0.0855335221,0.0600258186,0.0294219982,-0.0587818362,0.0851511285,0.0798079073,0.0539878458,-0.1612406075,0.0123603083,-0.1206727326,0.0483641438,0.1161918119,0.1108487174,0.2048091888,-0.1236979291,0.0594478846,0.1250516474,0.1075179055,-0.0671403036,0.2372259498,0.0453777798,0.0087695345,-0.0804871917,-0.0107494192,0.0058561023,-0.0312380195,0.0385119356,-0.0673904121,-0.2229567170,-0.0241795648,-0.0086029246,0.0461254716,-0.0938844904,0.0262777898,0.0271183681,-0.0866038427,-0.0625338703,0.1930760145,-0.2118752748,0.0251764450,0.0088478178,0.0803378299,-0.0716496557,-0.0422607213,-0.0508707017,0.0454198830,0.0122572752,0.2125870436,0.0813801214,-0.0937182605,-0.0691475123,-0.1725442559,-0.0137369214,0.1485611349,-0.1100753024,-0.0790431425,-0.0781293660,-0.1721244156,-0.0900729001,0.1022559553,-0.2403009832,-0.0555479079,-0.1456873715,0.1547299474,-0.1098725274,-0.1841180772,-0.0293445569,0.0873167664,0.0505182706,-0.1721370220,0.0180106387,-0.1470307261,0.1356870830,0.0984461382,0.1289283186,0.1128343046,-0.1688096821,0.0318651833,0.0585252158,-0.0104562314,0.0820670426,0.1546219289,0.0633051693,-0.1397735178,0.1076572388,0.0873400718,-0.2182061374,-0.1062334925,-0.0273164641,0.1690269262,-0.1076225638,-0.0991963446,-0.0287381485,-0.0941359177,0.0672263950,-0.1186507791,-0.0264894329,0.0187065806,0.1790091246,-0.0846296474,0.0944288895,-0.0515413620,0.0299573243,-0.0655066520,0.0567301922,-0.0996834263,-0.1224140078,-0.0195673984,-0.0282309856,0.0343454257,0.0343354195,-0.0968260542,0.1544951200,-0.0217592977,0.0479839072,-0.1189265773,0.0567785427,0.1152611151,-0.0151927201,-0.0780560672,0.0550928488,-0.1283981651,-0.0576922297,-0.0197144113,-0.1955130398,0.0784476325,0.1724405438,-0.1786531955,0.0707654357,-0.1016304493,-0.1048051342,-0.0099541675,-0.0965057015,0.1514673233,-0.0641567037,-0.0871399716,-0.0976371765,0.1189738885,-0.0808006674,-0.0788867697,0.0238949992,0.0183144808,-0.2286945581,0.0027893630,0.0266378820,-0.0298230480,-0.0009875067,0.1409578919,0.2444070727,-0.1627990454,-0.1057695076,0.1505722851,0.0655989051,-0.1046421081,0.0961498097,0.0108890329,-0.0498015955,0.0443364754,-0.0686411932,0.1436748952,-0.0964101553,0.0816116482,-0.0489797667,0.0837052763,0.0958444029,-0.0172453783,-0.0641046241,-0.0393248573,-0.0780625865,-0.1207443327,0.1614305079,0.1761782020,-0.0512699336,-0.1119130552,0.0786782950,0.0662627742,-0.0636089593,0.1242576092,0.0381604508,-0.0261228010,0.1057512760,0.0453400947,-0.2078448981,-0.0170665886,0.1287654787,0.0783949196,0.0704511404,0.0086761592,-0.0887816772,-0.1904782951,0.1368655711,0.0091410000,-0.0200261101,0.1775320768,0.0601051375,0.1826912016,0.1025612354,-0.0291510504,-0.0913097411,-0.2017294168,0.0890627056,-0.1606972516,-0.0911733657,0.2090183198,0.0472437479,0.0212807767,0.1958708316,-0.2310487926,0.1117666885,-0.2395741493,0.1818412840,0.1724932641,0.0310512576,-0.1295498610,-0.0791795626,-0.1343749762,-0.0862030014,0.1705616415,-0.1347638071,-0.1198360622,-0.0736142322,-0.0572801568,-0.0377546288,0.0430289246,-0.0856415778,-0.2301923484,0.1198918745,0.0637932122,0.0998055413,0.0560132526,-0.1640017033,0.1579981893,-0.0693699345,-0.1758017540,-0.1440916508,-0.0528829768,-0.0717574358,-0.0391874015,-0.1129767895,0.0040918197,0.0970369130,0.0513044670,-0.0703446493,-0.0395879149,-0.0269038510,0.0340909958,0.1260168701,0.0958525240,0.0898456201,0.0529277064,-0.1048744246,0.1523791850,0.1661656946,-0.1086223572,-0.0615646988,-0.1235155985,0.0364374965,-0.0802665874,0.0851151720,0.1204316542,0.0106616896,0.1291388571,0.1288281977,0.0266509671,0.0217692424,-0.1059520990,-0.0870826095,0.0757293478,0.0526015870,-0.1576176882,0.0802870542,0.1069098860,-0.0655573457,-0.1438363642,-0.0928231105,-0.0288902540,-0.2045475990,-0.1241100803,-0.0312355179,0.1682653278,0.0011363245,-0.0388212167,0.0922689512,-0.1663662493,0.1401534677,-0.1492811143,0.0753055513,0.0287512057,-0.2452249527,-0.1850709021,-0.1585547030,0.1686232984,-0.0448602661,-0.0878890827,-0.1661595702,-0.0015766679,-0.0904594064,0.1783021092,0.0720510632,0.0919542313,-0.0130163701,0.0937406570,-0.0634557977,-0.1758349538,0.1076901704,0.0928809270,0.0780711472,-0.0329895094,-0.1334331036,-0.0952749103,-0.2059888989,-0.1772321612,-0.1196065024,0.1364891380,-0.0288585126,0.0110103898,0.1897230148,0.0112083293,0.0059718727,-0.1160470396,0.0454606600,-0.0741213933,-0.0119065875,-0.0423171297,-0.1754394621,0.1132208928,0.0777666420,0.0826870725,-0.0805223361,-0.1428105235,-0.1067450270,-0.0360680148,-0.1845012009,-0.0461535379,-0.0722000301,0.0592181422,-0.0350984931,-0.2142175436,-0.0770154521,-0.2255123407,0.1391195208,-0.0176788680,0.1408815533,0.0254081730,-0.0823905095,-0.0563004613,0.0617144108,-0.0452794656,0.0813492984,-0.1249382049,0.0603303462,0.0802050158,0.1173073053,0.1162214503,-0.0164206605,0.1229479015,0.0726031885,-0.1914059967,0.1908413172,0.0578126684,0.0035363236,0.1824409068,0.0919601843,0.1036097258,-0.0912013203,-0.0206910446,0.0327436998,0.0479334369,0.0116724009,0.0504337959,-0.1751650572,-0.0683825612,0.0971427709,-0.0342526622,-0.0988735929,0.0044528181,-0.0267465245,-0.1513812691,0.0781423599,-0.0619621761,-0.0832976103,0.1695335060,-0.0104890233,0.0030093819,0.1402470767,-0.0451004840,0.1081662923,-0.0799002945,-0.1416610032,-0.0077960589,0.1984791905,-0.1051493064,-0.0112483799,-0.0728691369,0.0529786311,-0.1488968581,-0.1481759399,-0.1775153726,0.0763800219,0.0797519609,0.0730304867,0.1036836952,-0.0364057422,0.0563858822,-0.0345958136,0.0632647648,-0.0158985984,-0.1347535849,-0.1477257460,0.1513548046,-0.0838231221,-0.0965030417,0.0658259988,-0.1281953156,-0.1172362939,-0.0539473519,0.0067554419,0.0740665197,-0.0603352189,0.0941657647,-0.0092777368,-0.0308504496,0.1839575619,0.0590509623,-0.1471022218,-0.0130043430,-0.0287762489,-0.0733242258,0.0676434636,-0.0538918972,-0.0084205158,0.1270080805,0.0211462658,-0.0471853204,0.1420849860,0.0280692317,0.0858414695,-0.0779373273,0.0141672418,0.0142957326,0.0045279176,0.1265273541,0.1953060776,-0.1399324834,-0.0649181083,0.1482684314,-0.0414512791,0.0643831193,-0.1734392047,-0.1081361771,-0.0031079003,-0.0785164163,0.0824471712,-0.1459190249,-0.1352801323,-0.1159390286,0.2056731433,0.0343303010,-0.1133256853,-0.2148337066,-0.0375316776,-0.0794398710,-0.0672442913,-0.1824614108,-0.0273785945,-0.1057467759,-0.0353526175,-0.1474905461,-0.1970439255,-0.0616907403,0.1750849187,-0.0180375576,0.0071875020,0.1841110587,-0.0978293568,0.2146335989,-0.2629739642,-0.0251788627,-0.1681049019,-0.0433476157,-0.0210150685,0.0493957289,0.0709825829,0.0970059559,0.0443270430,-0.0682386756,-0.0651281923,0.1521749645,0.1577106714,0.0215758402,0.0529048517,-0.0188360959,-0.1758271158,0.0253314562,0.0713585392,-0.1228512228,0.0760127753,-0.0736695603,0.0786218122,0.0899626464,0.1471174061,0.0648321137,0.1073818058,-0.0954630151,0.1285053194,0.0608785227,0.1024758890,-0.0811565220,0.0639771521,0.0239573512,-0.0062841945,0.1436199546,0.1274301857,-0.2935526669,-0.0346813500,0.0410222486,0.1853324026,-0.0846942067,-0.1763436049,0.0842126906,0.1401350498,-0.1025415510,0.0374770649,-0.0116453618,0.1065679491,-0.0194977392,-0.1772417277,0.0094047701,0.1074538752,-0.0101836491,0.0134883355,0.1319469064,-0.0729212165,0.1678456664,-0.2431938648,0.0073746210,-0.1279472262,-0.0465308055,-0.0776852146,-0.2365302742,-0.1577186137,-0.0439863950,-0.1497910321,0.1078165844,-0.1682125926,-0.0734020323,-0.0093454923,0.0766556785,-0.2407136858,-0.2142776400,0.0515084416,-0.0905626863,-0.0802253708,0.1437499523,0.1454090178,0.0250887107,-0.1705897897,-0.0860607177,0.1050676554,0.1583566666,0.1136508361,-0.0237943027,0.0048872726,-0.0482388586,0.0709743649,-0.1298501343,-0.0671959370,-0.0465140976,-0.2221153080,0.0778292492,-0.1268638074,0.0356771350,0.1116573215,0.1473485380,-0.1114765704,0.0664843023,-0.1680822968,-0.0258110594,-0.0631193742,-0.1445955783,-0.0523650758,-0.1701607853,-0.1373137087,-0.0984573215,-0.1760591865,-0.1554113030,-0.1803150922,-0.1287997514,-0.0259275790,0.0698865429,-0.0533661656,0.1040208340,0.0323562287,-0.0201151744,0.0804016367,0.0681307986,-0.1569428742,0.1678813845,0.0696098283,0.0801220462,0.1897214949,0.0258607101,-0.1030912995,0.0468159169,-0.0926561356,0.1990388185,-0.1051393375,0.1592338532,0.0277191941,-0.1328231990,-0.1010596752,-0.0886634216,0.0301557053,0.0335066207,-0.0176901948,-0.0853192359,-0.2418320030,0.0454483181,0.0339704789,0.0975181758,0.1336415112,0.1084254980,0.1266687661,0.1369124800,-0.0509753115,0.0171900894,0.1101442873,-0.1934221238,-0.0999421105,-0.1069525778,0.1547748595,-0.2315512598,-0.0068246671,-0.0263637844,-0.0630709231,0.0060079736,0.1610575169,-0.2024675459,-0.0384162664,0.1206708550,-0.0975157395,0.0822891146,0.0375488400,-0.1098325849,0.1221304238,0.0881295055,-0.0086584007,-0.0002198236,-0.0647683516,-0.0582985878,0.0673456714,0.1658860147,0.1967385262,-0.0174745452,-0.1770518124,-0.1461880207,0.0985855982,-0.1988064796,-0.1793884635,-0.1547788531,0.0229957402,-0.0893328935,-0.0992325991,0.1124815196,-0.0273098815,-0.0235410668,-0.0860107765,0.0709008649,0.1153520644,-0.1031144485,0.1395964921,-0.1334850192,0.0615382753,0.0179875661,-0.1559862345,-0.0456881486,-0.1918170154,-0.0147158634,0.0245901309,0.0173363239,0.0104898298,0.0534473360,-0.0941951573,0.0046357890,-0.0293982532,0.0317396708,0.1389874518,-0.0896322280,-0.1425084174,-0.1241486147,0.0934139639,-0.1295528263,0.1338216066,-0.1114302352,-0.1180718616,-0.1230671406,-0.2002639472,0.0256928578,-0.0635979697,-0.2178703547,0.0586364120,0.1062180027,0.0824829862,0.0669078752,0.0709663033,0.1732548326,0.2336990982,0.1899906546,-0.0969834328,0.0164966322,-0.0518306941,0.1248427629,0.1706518531,0.1202539876,-0.0793098360,0.1320253164,-0.0588738285,-0.0831153840,0.0566968173,0.0608139336,-0.0133266998,-0.0194737874,0.1207107604,-0.0039099660,0.0622451603,-0.0724952891,0.1463795006,0.0205103010,0.0718370751,-0.1807405502,0.0509832539,-0.0730658621,-0.0323657021,0.2389705926,0.0873398632,-0.0398510583,0.0210651997,-0.1464279294,0.1542078406,0.0568127148,-0.0101524554,0.1871134639,-0.0169045031,-0.1554524601,-0.0905534625,-0.0252469480,0.0468994007,0.1167780012,-0.0948709100,-0.0122171957,0.0931134969,0.1074456498,0.0539649688,-0.0123406174,-0.0618172958,-0.0460053384,-0.1366263479,-0.1196513399,-0.0191705618,-0.2596917450,-0.1282113492,0.0843501762,-0.0671895742,0.1082011312,-0.0147676943,0.0011377358,0.0241005365,-0.1078325212,0.0785538554,0.1398327947,0.0000215414,-0.2109940201,-0.1780004650,0.1784296632,-0.0130208954,-0.0853089169,0.1058551222,0.0958127305,-0.2378977388,-0.1593798697,-0.0179078374,0.1782714725,-0.0032653038,-0.2041195035,-0.0124920849,0.2085139602,-0.0328880772,-0.1176419333,0.0062038419,-0.0467126295,-0.1618563384,-0.0964587182,-0.0047007697,0.1023433879,-0.0225613900,0.0429388769,0.0538198762,0.1015966311,0.0619311556,-0.2287716269,0.0466892794,0.0574739017,0.0750083625,-0.1452229321,0.0702814236,0.0626903102,-0.0560196266,0.2271296233,0.0364869237,-0.0399637744,-0.2012032121,0.0242138654,-0.0965711102,-0.1705449224,-0.0121414447,0.0873090997,0.0022500139,0.0603657104,0.1693400145,-0.0369568914,0.1129191965,-0.0301052555,-0.0279866923,-0.0483093187,0.0567842387,-0.1785087585,0.1925234199,-0.1361838132,-0.2018997818,-0.1131780371,0.0037005746,0.0732156709,0.0397006683,0.2008305043,-0.0938765705,0.0665901750,-0.0533767678,-0.1565288305,0.0664395913,-0.1742245704,0.1116603091,-0.0259463973,0.0827452168,-0.0330200344,0.1687440872,0.0347964019,-0.0246032029,-0.1551811695,-0.1852186918,0.0607577302,0.0041831704,-0.0008518667,0.0161363091,0.0702455789,-0.0440911278,0.0261841007,0.1447229236,-0.0359315649,0.0539468490,-0.1951017678,0.0473462418,-0.0408378392,-0.1083394587,0.0053317230,0.0720524713,0.0023922217,-0.0456015468,0.1032591611,-0.1006641760,-0.1491415948,0.1398144513,-0.0367175676,-0.1172850356,0.1367249042,-0.1249296293,-0.0262765493,-0.0596444644,0.0288058557,-0.0887672827,0.1277354956,0.1227940768,0.1360027790,0.0912033916,-0.0028730414,0.1148135439,0.1844428033,0.0001288764,0.0694835261,-0.0597209223,-0.0883846954,0.0283154137,-0.0340783447,0.0181264635,-0.0198363513,-0.1544474959,-0.0704119429,0.0078047062,-0.0065795751,0.1027753726,-0.1795642674,0.0264425501,0.0323974937,-0.0239754077,-0.0180041716,-0.1357335597,0.0287342537,0.0426238850,-0.0226816516,-0.0310323164,0.0906374604,0.0927257836,-0.0332813710,-0.1835130602,-0.0208226293,-0.0470683165,-0.0850599110,-0.0340053216,0.0206722971,-0.1110113040,0.0151303550,-0.0359345526,-0.1790377498,0.1220091954,-0.0752365366,0.0998735726,0.0121892123,-0.0020661240,0.1382519454,-0.0159263555,-0.1934059858,0.1010959968,-0.0083355922,0.1791644990,0.1135143340,-0.0708763525,-0.1378522068,0.0902281478,-0.0792006627,0.0483287536,0.1234958768,-0.1130338982,0.1305685788,0.1112786382,-0.0418501012,0.0983992219,-0.0210452974,-0.0875957087,0.0927091539,-0.0553610697,0.0348756202,0.1055714339,-0.0198611561,0.0687608793,0.1615775824,-0.0012721026,0.0522649065,-0.0551666729,0.1434645802,-0.0874834284,-0.0960467532,0.0885794610,-0.0585962832,-0.0410311781,0.0007620606,0.1348366737,0.1734946221,-0.0534595698,-0.0504371412,0.0572100505,0.1539163440,0.0595265403,-0.1497558355,-0.2336446196,0.1162956506,-0.0260210931,0.0593156479,0.0816016570,0.0146877943,-0.1122305170,0.0908059925,-0.1156657636,0.0630914345,0.0460520461,-0.1260121018,-0.0542989038,0.0695900619,0.0203746762,0.0045385621,-0.0149394767,-0.0245178454,0.0502944700,0.1969376206,0.0767105296,-0.0534893014,0.1360195279,-0.1101615056,0.0447419435,-0.1292954832,0.0520253517,-0.0466072187,-0.0917131677,0.1891050190,0.0310012996,-0.0930432603,0.0527164042,0.0100718634,-0.0734355450,0.0513876788,0.0661678463,0.0196212288,0.0517407060,-0.0506244637,-0.1956024915,0.0786488950,-0.0189768802,-0.0448665395,-0.0280535873,0.1431278437,0.0013552168,0.0735474154,-0.0557885841,-0.1804545075,-0.0453917086,-0.0875132158,0.0028592467,-0.0025129854,-0.1062191650,0.0890324488,-0.1008155271,0.0086153764,-0.0328773037,0.1276780367,0.1071320027,0.1339343488,-0.0490142666,-0.1450134367,0.0975415856,-0.1185093597,0.0378430225,0.0670536682,0.0667893514,0.0435646772,-0.0166769288,-0.0789497867,-0.1574757695,0.0439030081,0.0152040059,0.0150865568,0.1435764432,0.0767874345,0.1448856741,0.1705596894,-0.0243142527,0.1559203714,0.0972576514,-0.0079554431,0.0406953543,0.0911115929,-0.0278688278,0.1872283965,0.0721286759,-0.0016771611,-0.0290562902,-0.0237488858,-0.2450538129,0.1500124633,0.0479054712,0.0919905603,-0.1767261773,-0.0745827928,-0.1593902856,-0.1748939604,-0.0154224671,-0.0446705259,-0.0719592199,0.0574871786,-0.0045419810,-0.1106479764,0.0159245785,-0.0457280986,0.0862349793,-0.0082293842,0.0925862342,-0.1909415871,0.0752323866,-0.0005693640,0.0509096943,-0.0769762397,-0.1519408226,-0.0544047393,-0.1137727723,0.1763624847,-0.1363642514,0.0996973813,0.1300434023,-0.0477164015,0.0877804086,-0.0472788513,-0.0538258739,0.1379849762,-0.0344730876,0.1924998313,-0.0720925033,-0.0515897125,0.0341960564,-0.0606864020,0.1809351742,-0.0507978722,-0.2086989582,0.0187873263,0.0609078147,-0.0558910295,0.0756540373,-0.0665238351,0.0808385089,0.0068063005,0.0978633612,0.1791283786,-0.1203984767,-0.0965963453,-0.0038933870,-0.0477321669,0.0702338889,-0.1410906315,-0.0374098308,0.0804829895,0.0795229673,0.1478623003,-0.0512300618,0.1224797443,0.0849347860,-0.1674997061,-0.0001479211,-0.0453880727,0.1630718112,-0.0495195575,0.0417657830,0.1609888375,-0.2043060809,-0.0711418837,-0.2010960132,-0.0482372604,-0.0284556802,-0.1856873482,-0.1149243787,-0.0027949645,0.1295734644,0.0713541433,0.1034571752,-0.0078550652,0.0627548248,0.0340692103,-0.1976721585,-0.3248773217,-0.0097692236,0.0504568182,-0.1847912818,-0.1112390459,0.0518960580,0.0053268978,-0.0191676002,0.0816997588,-0.0407470353,-0.1230936497,-0.0031144551,0.2029011995,-0.0885241404,-0.2022424787,-0.1208542362,0.0308265239,-0.0539143197,-0.0047204965,-0.0695980266,-0.0207301509,0.0268618036,-0.1540652812,-0.0351463333,0.1378888339,-0.1357575804,0.1066817120,-0.0322779827,-0.0216562822,0.0402566865,-0.0017070469,0.2476123124,-0.0255319886,0.1245362237,-0.0834336579,0.2097025514,-0.0969428122,-0.0518699773,0.1375899315,0.0298025683,0.0370224304,-0.1522827595,-0.0339469016,0.1395353079,0.0610818900,-0.0758247972,-0.0895358175,-0.2190981358,0.0902116448,0.1238614768,-0.0279235281,-0.0651694983,0.0935221165,-0.1623022258,-0.0765711591,-0.0442654863,-0.1354868710,0.1977497041,0.0572652780,0.1902214587,0.1741435379,-0.1734857112,0.0420110822,0.0536911860,0.1416205466,-0.0366781354,0.0441836342,0.0379801840,0.0836868733,-0.1029526591,0.0179513507,-0.0991518050,0.0229693670,0.0822642371,-0.2145477831,0.1551260650,-0.1414220333,0.1466089636,-0.0702992901,0.1525964141,0.1546739042,0.0547741279,-0.0109786242,0.1232407838,0.0824172571,0.1503453851,0.0883055031,0.2177444696,-0.0115756691,0.1538634300,0.0341963135,0.0709653869,-0.0223100465,0.0232776161,-0.0813186765,0.0532277524,0.0960546434,-0.0464571640,-0.0202517547,-0.0972437933,-0.0323872492,-0.1143959016,0.1275853813,0.1747121811,0.1409742534,0.0806590021,0.0596113205,0.1515498757,-0.1344863623,-0.0125159891,-0.0791992322,0.0434398651,0.0192569122,-0.1642758697,-0.1849220246,-0.2002061158,0.0370379500,0.1793946922,0.0717037842,0.1286497861,-0.0891199037,0.0299609341,-0.1235887259,-0.0804425701,-0.0345737264,0.2125386745,-0.1254564077,0.1235024408,0.0501652472,-0.0786129981,0.1172184721,0.0950687528,0.1878115237,-0.1193259805,0.0359626748,-0.0171127599,-0.1591382027,-0.0457571745,0.0399251245,0.0798670575,0.0119470339,-0.0084797479,0.0536322556,-0.1946210861,-0.0045164526,0.1048988178,-0.0369106680,-0.0224787015,0.1874383241,0.0838814899,-0.1326922178,0.0663378164,0.0868988931,-0.1233611032,0.0836234689,-0.0303171277,0.0128233554,0.0507254303,-0.1200564876,0.0943752900,0.0722522736,0.1730020195,0.0861981660,-0.0218416322,0.1554369479,-0.1873609722,0.1685421616,0.0846871361,0.0761675611,-0.0163303502,0.0596854985,-0.0224088281,0.0285069626,0.0142317954,-0.1790909618,0.0594138689,0.0545193180,0.0596588925,0.1599662453,0.0944729745,0.1558257490,-0.0336465947,0.0172187909,-0.1137399971,0.0886986181,-0.2256872952,0.0565370470,-0.1471332461,-0.1055659875,0.0549655408,-0.1053852364,-0.0172334630,0.1406868845,0.1025304496,0.0444825329,-0.0071820249,0.0107529582,-0.0361721627,-0.0440006480,0.1279787123,-0.0820071772,0.0936746225