0.0148893707,-0.0793209523,0.1749787480,-0.1191388220,-0.0250126701,0.1741564572,0.0351546668,0.1510068625,-0.0254216343,-0.0990180150,-0.0027716160,-0.0183536112,-0.0547652990,-0.1813490391,0.1413597465,0.0668931529,0.0330745019,0.0805603564,0.0409748182,0.1464626789,-0.1493257284,-0.0917657539,0.0624134615,-0.0073206411,-0.0601476468,-0.0332204513,-0.1794994026,0.2030838132,0.1753996462,0.0385608040,0.0030942655,0.0381491818,-0.1729346216,-0.0155859543,0.0137925399,0.0033635909,0.0658860058,-0.0966339782,-0.1760034114,-0.0683482140,-0.1227676570,-0.1813910902,-0.0195913054,0.1472283453,0.0993722379,0.0823863670,0.0523063503,-0.1210100651,-0.1262816489,0.0720300600,-0.0211355835,0.0247194991,-0.1071979105,0.0625135750,0.0748176277,-0.0985155106,-0.1439362317,0.0654197559,0.1618928611,-0.1722635478,0.2290157974,0.0597991869,0.0203881338,0.0687759519,-0.1025164053,-0.0633117184,0.0249008257,0.0305824671,-0.0215352848,-0.1538480371,-0.0049237274,-0.2080138475,-0.0376406163,-0.1562540978,0.0604368076,-0.1383677572,0.0603785478,0.0332419649,0.0337779075,0.0296756439,-0.1690859497,-0.1006046981,0.1415026635,0.0227271263,0.1663637757,0.0401175208,0.1963795573,-0.1768075377,-0.1635350585,-0.0081587695,-0.0374743901,-0.1008123830,0.0453218482,0.0719839707,0.0683241710,0.0522767417,0.0535731092,0.0976975933,-0.1114991978,-0.0384622253,0.0386079811,-0.1630464643,0.1453294307,0.0419948921,0.1940836012,-0.0454074182,-0.0841536671,0.0614637770,-0.0839325339,0.0036075716,0.0618582778,0.0927398279,-0.0300516840,-0.1352436244,0.0342718288,0.1450219303,0.1870519519,-0.2271155417,-0.1486861110,-0.0714533031,0.0809792653,-0.1619670987,-0.1315982789,-0.1577701867,-0.0477799028,-0.1365953684,-0.0811129659,0.1458644867,0.0079615694,0.0118919257,-0.0070034214,-0.0629860461,0.1314476132,0.0230384693,-0.1173645556,0.0794946477,-0.0542392582,0.0308675785,0.1045605987,0.1050595045,-0.0142905023,0.0553991608,-0.0802914277,0.2027367800,-0.1871081591,-0.0086029898,-0.0612150803,0.0217324626,-0.1022097990,0.0436109863,-0.0138251837,0.0236410946,0.1787697226,-0.0760358796,-0.0606462024,0.0784036741,-0.0068733571,0.0476089679,0.0943224505,-0.0756548122,-0.0383237191,0.1575932950,-0.2073820233,-0.1511332542,0.1282930821,-0.0665680841,0.0022726962,0.0265054479,0.0053735971,-0.0182380304,0.1132388487,-0.0941123292,0.0316561088,-0.1149305105,0.1667975336,-0.0430378877,-0.0630154759,0.0704813525,0.0273960251,0.0056949961,-0.2310890257,0.1127888858,0.0367826894,-0.1234211773,0.0583470091,-0.0530970953,-0.0758809000,0.0350183062,0.0503318943,0.0797686130,-0.0219579358,0.1385912448,0.1731379479,0.1468275189,0.0162603147,0.1225924194,-0.0392826833,0.0025445218,-0.0645001605,-0.1532358676,0.0569851063,-0.0621196590,0.1227794215,-0.0089969803,0.0642446950,-0.0712594688,-0.0552716926,0.1739858240,0.0243434906,0.0271637253,0.0272789933,-0.0843413621,0.0078682499,-0.0784013346,-0.0565269105,0.0072774752,0.0533686280,-0.0728143826,0.0040494082,0.0578993671,-0.0926612988,-0.0399961993,-0.0887007788,0.0882918984,-0.1284853220,0.0473471545,-0.0082028229,-0.0209716018,0.0257438738,0.0786838084,-0.0918577537,0.1347084790,0.0061946642,0.1274532229,0.0449060835,-0.0901187658,0.0238289535,0.1058736816,0.0018249910,0.0257026758,-0.0268284045,0.0962771773,-0.1339039505,0.1287177056,0.0746656433,0.1372885406,0.0936747044,0.0820594653,0.1429740787,-0.0569724850,0.1673096716,0.0674883202,-0.0469242781,-0.1588604152,-0.1663167775,-0.0044871019,-0.0184741914,-0.1253632903,0.0287271291,-0.1693571806,0.0505644754,0.1279396713,0.0771202445,0.0945658460,0.1236560345,0.0679706857,-0.0656999946,-0.1092581525,-0.0164493006,0.1176320240,-0.1059778854,-0.0264517013,-0.2414726168,0.0410255268,-0.0958024785,-0.1028404683,-0.0522790402,-0.1232467368,-0.0838120729,0.0650583953,-0.1746229380,0.0660478026,-0.0330141932,-0.0866895914,0.0724144280,0.0701755062,0.0485275090,0.0349010937,0.1495122612,0.1072807387,-0.1673889905,-0.0150233777,-0.0491983704,0.1185704544,0.0417008214,0.1261710078,0.0320014507,0.1241254807,0.0700482726,-0.1142459959,-0.1581913531,0.0380950719,0.1226762906,-0.0056920829,0.0830349773,-0.1055071205,-0.0366889760,-0.1409911960,-0.1938389689,-0.0127735520,0.1314155012,-0.0723257735,0.0684667155,-0.0290421825,-0.0318901129,0.1321543604,-0.1046087369,0.0940179825,0.1590433568,0.0296288040,0.0130887702,-0.0463417508,0.0893111229,-0.0578820892,0.0441705585,-0.1867128015,0.1538637429,0.0680395737,0.0973143876,0.1243774369,0.0006854742,-0.0004996425,-0.0589380711,-0.1362352222,0.0556757785,0.0317416340,0.0081423586,0.0986703634,-0.0310599897,0.0935484469,0.1134800687,-0.1426925212,0.0510023721,-0.0040135342,0.1602974087,-0.0368194357,-0.0740821511,-0.0192239545,-0.0818683133,-0.1670189798,0.0280913077,-0.0383210033,0.0607103966,-0.0311437324,-0.0335201956,0.0487691760,0.0267846305,0.1136496440,0.0452190340,-0.1476685405,-0.0416751057,0.0731520280,-0.0763224065,0.0389097519,0.0421275645,-0.0603885874,0.1140373498,-0.0709480420,-0.0478918292,0.0885066539,0.1157732978,0.0036259687,-0.1344144344,0.0036392314,-0.0629837736,0.0497993082,-0.0090568839,0.0619692169,0.1721995324,-0.0987298489,0.0066532060,0.0161175244,-0.1956853718,-0.0066512232,-0.0985730514,-0.0312142931,-0.0322621875,0.0484293215,0.0279856250,-0.0283670314,0.0240805838,0.0224276185,0.0833665505,0.1132510230,-0.1822078824,0.1408825219,-0.0733971819,0.0161947329,-0.0117175858,-0.0452640690,0.0556584634,-0.0140176853,0.0145427966,0.0660681278,0.0802702531,-0.0328179076,0.0200881530,-0.0352454968,0.0822866410,-0.0018436735,0.1171796843,0.1562756300,-0.0374364927,0.1357682198,0.0666586459,0.0171410348,0.0162165407,0.0305361860,-0.0198804867,0.1190307364,0.0200221594,-0.0494172350,-0.1526024342,0.1875578165,-0.0517259724,-0.0657775477,-0.1377823800,0.1296881884,-0.0034267020,0.0031386705,0.0905674249,0.0770608112,-0.1752640456,0.1977694929,0.0151150627,0.0807488188,-0.0280789137,-0.0059397272,-0.0250180066,0.0797519088,-0.1243593916,0.0666657165,0.1316023469,0.0325976089,0.0694967434,0.0498312823,-0.0788386911,0.1238283589,0.0300371982,-0.0226585083,0.0132886162,0.0082756216,-0.0362405069,0.1523683965,0.0159854554,0.0326706134,0.0274703167,0.1115166172,0.0727456212,0.1216442138,0.0448789448,-0.1736353636,-0.0681760609,-0.1626079679,0.0208521150,0.0025719001,-0.0337917358,-0.1719501019,-0.2115925997,-0.1149969622,0.1258997470,0.0301914364,0.0390071534,0.0190461967,0.0331448130,0.1595461518,0.0111713056,0.0988947824,0.0190465599,0.0348526090,-0.0294533875,0.1315140724,-0.0536036268,-0.0108037256,0.0039744577,0.0285684075,-0.0703900456,-0.0936322808,-0.0717790350,-0.1426590383,-0.0529004522,0.1601721793,0.0080507072,0.1738047451,-0.0116402181,0.0665414333,-0.0199705455,-0.0634010136,-0.0461810604,-0.0613369420,0.1486545205,0.0503041297,-0.0731831342,0.0336459987,0.0833729580,-0.1761222929,0.0308735911,0.0105499532,-0.0755333602,-0.1740190089,-0.0071795406,0.0117582623,-0.0554669648,-0.0377501100,-0.0924374312,-0.0222314894,0.0027679312,0.0024940802,-0.0292834304,-0.0127116051,-0.1024043113,-0.0071927072,0.0864220858,-0.1010131240,0.0950460061,0.0402896330,0.0611570589,-0.1218152270,0.0628885329,-0.0150936684,0.0274848379,0.1226481795,-0.1427274495,-0.0730337501,0.0589762665,-0.1080124751,-0.0236499086,0.0458516702,0.0442019589,-0.0487222746,-0.0014549408,0.0635237917,-0.1550090760,0.0881749690,-0.0361605138,-0.1384011209,-0.0401889049,0.0295293033,-0.1969794631,-0.0808100998,-0.0980277732,-0.1919619739,0.1908283532,0.0588855259,0.0456759855,0.0392617695,0.1419342309,-0.0494821183,-0.1329623610,0.1641845256,-0.1335585415,0.0770645961,-0.0060414299,-0.2390589267,0.0387255140,-0.0647216067,0.0574509166,-0.0424279459,0.1422458291,-0.0493026376,0.0133766271,-0.0354068317,0.0520164408,-0.0022358333,0.1384745836,0.0633145198,0.0740017965,0.1042636558,-0.0746438503,0.1552700996,-0.0830555931,-0.0005981569,-0.0872335657,-0.1471178532,0.1304800957,0.0539447963,0.0703084618,0.1976711452,-0.0453196652,0.1249250695,-0.0358604006,0.1276842952,0.0591663830,0.1229944974,0.1187346578,0.0133486735,0.2124370784,0.0950434357,0.1665934771,-0.0212259330,0.0370089374,0.1155482456,0.0811512917,-0.1460348517,-0.0004516921,0.1355917901,-0.0258287452,0.0488224588,0.0008988676,0.0055873902,0.0095381029,-0.0588551164,0.1236183792,-0.1624906361,-0.0631350353,-0.0477213897,0.0945933461,0.0930450559,0.0603414923,0.0705502033,-0.0805751905,0.0688621923,-0.0001943734,0.1079232544,-0.0869870558,-0.1410794109,-0.0759774223,0.0332268476,-0.0095667243,-0.1047342792,0.0567607358,0.0462533683,-0.0336129777,-0.0538104773,-0.1065419838,-0.0463396274,-0.0385552384,-0.0802318230,0.0434481129,-0.0816807449,0.1628579646,0.1925504357,0.0569669046,-0.0449984036,-0.0012115082,0.0420382805,-0.0747337118,0.1258768588,0.0847728476,0.1268876344,0.1138857529,0.1265098453,0.0775264427,0.2203692943,-0.1305734962,0.0840923637,0.2030569613,-0.0204414204,0.1134515703,-0.0576651022,-0.2195062935,-0.1478279084,-0.0689383149,-0.2192560285,-0.2248649895,-0.0562099963,-0.0149845565,0.1876299232,0.0768874884,0.0891038477,0.1400201023,0.0226119831,0.0052020303,0.0980323851,0.0184916649,-0.0125704734,-0.1119404361,-0.0977829173,-0.1083577946,0.0497413948,0.0511091724,0.0238475818,0.0991322920,0.1439607143,-0.1520636976,-0.0543364882,-0.0262746140,-0.0507278107,-0.0078924298,0.0004774615,-0.0082536489,0.0069781411,0.0257969610,0.0743678138,-0.1356286854,0.0761899650,0.0838085338,-0.0411525369,0.0735441893,-0.0936269537,-0.0143959336,0.0373634771,0.0012502816,-0.0475935712,-0.0345745534,-0.0389156006,0.0007883246,0.1157762334,0.0674457401,-0.0258945264,0.1155358329,-0.1207752824,0.1196005642,-0.0811475515,-0.0622604117,-0.1760554612,0.0948996842,-0.0281678103,0.1657451987,0.1698759198,-0.0134785483,-0.0829969868,0.0888636783,-0.0298110470,-0.1195778623,0.1797585785,-0.0659556985,0.1042098477,-0.0682794377,0.0460312515,0.0321420915,-0.1221996769,-0.0407230183,-0.1311469078,-0.1138714701,-0.0603026785,-0.0472626053,0.0404700488,0.0525544100,-0.1968137771,0.2157955170,-0.0891350433,-0.0770591125,-0.1300782263,-0.0106085399,0.1513354927,-0.0474971421,0.1308691651,-0.1017236635,0.1365878284,-0.0543084294,-0.0270428713,0.0215727016,0.1050469950,-0.1321573555,-0.0261592641,0.1690668166,-0.0058954712,-0.0363138244,0.0621567145,-0.0770195723,-0.1040076539,0.0780721977,0.1669505686,-0.0673693046,-0.0469959006,0.0000914845,-0.0641150922,-0.0547092631,-0.1854348034,-0.0535745919,-0.1450552791,0.0635665283,0.0135550825,-0.1139170378,0.1150247008,-0.0777784660,-0.0592549741,-0.1547827125,0.1731585711,0.0886441618,-0.0919277966,0.0149405189,0.0878648981,-0.1164781153,-0.0051426236,-0.0832683370,-0.1727049649,0.1261093915,0.0256669447,-0.1294252425,-0.1395476013,-0.0486095287,0.1086496413,-0.0197981521,-0.0415972359,-0.1528256088,-0.0178683624,0.0650334880,0.0084754815,-0.0044931932,0.0195721090,-0.2107911408,-0.0836853087,0.0270601232,0.0636735111,0.0209584963,0.0374124907,0.1469894648,-0.0938036069,0.0891286433,0.1851092428,-0.0379948020,0.0670546219,-0.0063814311,-0.0240765177,-0.1631021947,-0.0257786456,0.0264685098,0.0578269549,0.0336859562,-0.0826932639,0.0420154817,-0.1958976090,-0.0362042673,0.0624021068,-0.1114701405,0.1782585680,-0.0482033789,0.0548569039,0.1395600140,-0.0884821638,-0.0038651258,-0.1078356877,-0.0326083824,0.1744031459,0.1176266447,-0.0508712716,0.0491531342,0.0605565757,0.0069249882,-0.1009984165,0.1472190768,-0.0628252476,-0.0499117710,-0.0247436333,0.0287989527,-0.0682582259,0.1527426839,-0.0877533555,-0.0468983240,-0.1381921470,0.1695062518,-0.1000544280,-0.0943673253,-0.0444215350,-0.0298091955,0.0981206149,0.0588676184,0.0934162289,-0.1089864001,0.1285911500,0.0895369574,-0.1482184380,0.0016437012,-0.0468477719,0.0273768976,-0.1280749142,-0.0211399384,0.2350244224,0.0831178054,0.1347614080,0.1052153260,-0.1383210123,0.1007420719,-0.0339839309,0.0496717654,-0.1307634860,-0.0482342057,0.0598400310,0.0740394890,-0.0602165349,0.0124540478,0.0452269316,-0.0544908307,-0.0793509185,0.1135047823,-0.0546493344,0.0552657992,-0.0731593668,-0.0576379672,-0.0274348892,-0.0419701077,0.0401796550,0.2346856147,0.0907991230,0.0710692927,0.0359244943,0.1023435518,-0.0126854246,0.1262504011,-0.1346930116,0.0491626337,-0.0250331182,-0.0543512516,0.0489258394,-0.1135321185,-0.0099060386,0.0896990672,-0.1737735122,0.2007658184,-0.1143802330,0.1124692634,0.0220697876,0.0513432175,-0.0906195194,-0.0260860883,0.0251633227,-0.1346111298,-0.0562499911,0.0539850108,-0.0257332530,-0.0016370416,-0.1302525252,0.0811666995,-0.1581949890,0.0644581392,-0.0374014601,0.0486477539,-0.1399110705,0.0338978916,0.1008903235,-0.0445794202,-0.0265300330,-0.0913798809,0.0245800707,-0.0530370660,-0.0219559148,-0.0069878860,0.1671211272,-0.1101512238,-0.0435524993,0.0955805033,0.0684717596,-0.0125452289,0.1603862345,-0.0492885932,0.1015628278,0.0601664074,-0.0738188699,0.1333899796,-0.0172775276,0.0241746139,-0.0508963354,0.0075489092,0.0141750090,-0.1700592339,0.1386654824,0.0300555043,-0.1444419473,0.1753487885,0.2011334896,-0.1160997525,-0.0516707078,0.1419625580,0.0203684624,0.0594057888,-0.1922014207,-0.0747424960,-0.1101659089,0.0903282836,-0.0455295146,-0.0378123485,0.1226128936,-0.1497648954,-0.2222163230,-0.0379843079,0.0898121297,-0.2015414983,-0.0873359889,0.1174658686,-0.1239554361,0.0304442272,0.0819224939,-0.1807032079,-0.0512991287,0.0661115572,-0.0115142800,-0.1127995104,0.0450633019,0.0074729058,-0.0936179608,0.0742979497,-0.0157936569,0.0255670305,0.0414620750,0.0381079093,0.0321496427,-0.1396658421,0.1504092664,0.1258515269,-0.1143338457,-0.0607141182,-0.0045671416,0.0916132554,-0.1424655020,-0.1994104385,-0.0187964160,0.0098469807,0.0272128209,-0.0097867856,0.0717118680,-0.0311556980,0.0969195589,0.1254650801,-0.0666314363,0.1590882689,0.0393155403,0.1126940548,-0.0349314287,-0.0573373735,0.1123160943,-0.0070486763,-0.0433761701,-0.0393174887,0.0759283751,0.0149229961,0.0876417905,0.0267577246,0.0362695903,-0.0780892596,0.1180668026,-0.1380229592,0.1159921065,0.1980975270,0.0564561263,0.0663174763,-0.0314088725,0.1241135299,-0.1873212457,-0.0850995332,-0.0201293994,-0.1095917150,-0.0624712966,0.1210264117,0.0024793963,-0.0264820941,-0.1460564733,-0.1244124621,0.0870462656,0.0402353033,-0.0067714537,-0.1654862165,-0.0729733780,-0.0504958145,0.0569827929,-0.0005858220,0.0376144946,-0.0651744306,-0.2083290219,0.1385487765,-0.0962127000,0.0809564888,0.0377560146,-0.0956570059,-0.0775193125,0.0615767911,0.1174800023,0.0346885435,0.0933414251,0.1088062152,0.1570359468,0.0651382133,0.0778622478,-0.1425610185,0.0175748076,0.0868370235,0.1403993219,-0.0358855724,-0.0090781599,-0.0643285215,-0.1372887343,-0.1332986355,-0.1181623861,-0.1074862033,0.0605887510,-0.0054969755,-0.0409909487,-0.0133384122,0.0641694739,-0.0475504920,0.0556274801,0.0968094915,-0.0021226108,-0.0373463705,0.0656825155,0.1072869748,0.0687174797,0.0392729230,-0.0168451332,0.1934791803,0.2701836824,-0.1227280274,0.0585922338,-0.0289358199,-0.0891807303,0.1416868269,-0.1732036471,-0.0535470732,0.0017088951,0.0411596596,0.0384996608,-0.0029963530,0.1796375513,0.0831049234,-0.0239095688,0.0093446188,-0.0766824484,0.1563301235,0.1390808970,-0.0446462706,0.0770236552,0.0371160582,0.1165382713,-0.0053328895,-0.0202495158,0.0730282515,-0.1045641676,-0.1564801484,0.0857411250,-0.0384218358,-0.0853221491,-0.0939296708,0.1885335743,0.1422678232,-0.0366785787,0.1368240565,-0.0192792770,-0.1332304925,0.0772221535,-0.0562288053,0.0870826319,0.0068391310,0.1129768267,-0.0702305138,-0.0201475341,0.0060271570,-0.0539583638,-0.0190180708,0.0401192307,0.0027608266,-0.0803302974,0.0081875455,-0.1047181487,0.0426278822,-0.1131398529,0.1379804462,0.0030570773,-0.0188363492,0.0936386734,0.0699258298,0.0136636589,0.0354631804,-0.1500573009,0.0531933084,0.1013038680,-0.0196002517,-0.1666233242,-0.1055476442,0.0733582899,-0.0430959649,0.0094389198,-0.1505521089,-0.0023004042,0.0106421420,0.0877306685,-0.1221650541,-0.0111716790,0.0162528101,-0.0564480722,-0.0596226938,-0.0196268484,0.0864653811,-0.0631700158,0.0258331019,0.0170573555,-0.1101323366,0.0364777334,0.0955697224,0.2581418157,0.1502868682,0.0246277098,0.0447393358,-0.1208738685,0.0991293415,-0.1639747322,0.0543420836,0.0002730127,0.0647493899,-0.1348342299,-0.2029338628,-0.0043313252,0.0786587596,-0.0444325395,0.1593083739,-0.0874999017,-0.0604077727,0.0061140964,-0.0147059383,-0.1048533767,0.0787299126,0.0291296225,-0.1344448775,-0.0674520656,-0.0810594559,-0.1109418944,0.0434791259,0.0790046379,0.0416609682,-0.1376815289,0.0331074223,0.0975198299,0.0045185550,-0.0634403676,-0.0645640045,-0.0947885364,0.1171494126,0.1193990111,0.0317638740,0.1384473145,-0.0324818045,0.0494604260,0.0291978847,0.0588838570,0.1041304916,-0.1651338041,0.0519917235,-0.0084393471,0.0289468970,0.1984692961,-0.0354686417,-0.1763930470,0.0196941532,-0.0467486084,0.1281093955,-0.0176921804,-0.0878478885,-0.0837290436,0.0512065552,0.0662592947,0.0281452797,0.0429103002,0.1267845333,0.0558622777,-0.1929606795,-0.0376889482,0.0705697685,0.1173041388,-0.0468511917,0.0398332700,-0.0468618684,-0.0538673773,-0.0410278328,0.0272488780,-0.0181968268,0.0343291909,-0.0013296861,0.0109589826,-0.0247462206,-0.1275662631,-0.0860889331,-0.0264208000,-0.0767576545,-0.0155338328,0.1701873243,0.0613147356,0.1854731292,0.0571288280,0.0697088316,0.1045806333,0.0017394457,0.0209394358,-0.0490297936,0.0392445922,0.0939555243,0.0086049121,0.0952115878,0.0060073389,0.1392647177,-0.1786604226,-0.0429974273,0.0148387328,-0.0406214595,0.0854074061,0.1282735318,-0.1150957346,-0.1628313065,-0.0685698092,0.0692536831,0.1221997440,0.0954886973,0.1090000495,0.0242213979,-0.0874471888,-0.0226946957,0.2296520323,-0.1017392352,-0.0121160056,-0.0874059722,-0.0996801928,-0.0432663932,-0.0486936085,-0.1271886826,-0.0177099817,0.1229948327,-0.1092652231,-0.0275675710,0.0517949015,-0.0857988745,0.0058563128,0.0392912887,0.0497454964,-0.1015283167,0.0377947465,-0.1887597442,-0.0377611630,-0.0657218620,-0.1278429329,0.0111523587,-0.0040324745,0.1182898134,-0.0205296688,0.1018871814,-0.0506426096,0.1636900902,0.1603749096,0.0470685661,-0.0070429752,-0.0288800821,-0.0146320732,-0.1481680274,0.0566104613,0.1894506663,0.0108229816,0.0615558922,0.0080708591,0.0653234720,0.0717035532,0.0896596909,-0.0788044631,0.1879776865,-0.0289687011,0.0500403494,0.1305607706,-0.0001678947,-0.0292843133,0.0822236836,-0.0253775176,-0.0924220234,0.0585329421,-0.0594002865,-0.2186513245,0.0966992155,0.0120341741,-0.0486702323,0.1759380847,-0.0875759795,0.0221507344,0.0158807151,-0.0927206948,-0.0565279424,0.0227621198,-0.0086644581,-0.0166411139,0.0931783989,0.1026605293,-0.0926917121,-0.0458753370,0.1181468368,-0.1263141483,0.1543552876,-0.0151762124,0.0040673842,-0.0366177596,0.1619606763,0.0434577726,-0.0118473889,0.0181415975,0.0452470072,-0.0324818529,0.0247768071,0.0438953377,-0.1585959494,0.0585805029,-0.0495205671,-0.1385909617,-0.1396793723,0.0630880967,0.0031518578,0.1092482582,0.0050082821,-0.0869541764,0.1902742833,-0.0420074239,0.0531544350,-0.1136661097,0.0114141665,0.0201685987,-0.1059451401,0.0152793666,0.0533161499,-0.0172009300,-0.0086561898,0.1449977905,-0.0612017885,0.0854803771,-0.0429785699,0.1603040248,-0.1118134558,0.1242438480,-0.0545606650,-0.1105604917,0.0292751659,-0.0066203857,-0.0147066601,-0.0691231489,0.2119345665,0.1119613424,-0.0844307020,-0.1223143488,-0.0683720484,-0.0103871068,-0.1237419248,-0.0881738365,-0.0638042465,-0.0681243911,-0.0412324630,-0.0446364209,0.1759253144,0.0390586779,-0.1258867532,-0.1362964213,0.0200778488,0.0077566877,0.1156863049,-0.0222527478,0.0043412396,0.2287327349,-0.0561256744,0.2226803005,-0.0180718787,-0.0895023271,-0.0065107099,-0.1150235832,0.0344844759,0.0775828138,0.0396947749,0.2094698697,-0.0701159388,-0.1087175086,0.0096062161,0.2165518999,0.1070070118,0.0337826610,0.0522014275,0.0084252832,0.1534984559,0.0204952620,0.0730765536,0.0773122087,-0.0473405086,-0.0021652824,-0.0141334683,-0.1031890512,0.0050753835,0.0347273946,0.0946205631,0.0511482581,0.0149957892,-0.1646448225,0.1223558486,0.1028266847,-0.1107014716,0.0596228465,-0.0395727865,-0.0380324535,-0.1340578645,-0.0259020794,0.0560903028,0.1043006182,-0.0024685040,0.0089879744,0.0659448281,-0.0876744241,-0.1054463759,-0.0600269437,0.1142170578,-0.0070904624,0.0468516573,-0.1084808335,0.0607658997,0.1381528974,-0.1031469554,-0.0640173554,-0.0994077474,-0.0750090554,0.0097503997,0.1922368407,0.0839118436,-0.0256452374,-0.1489021778,-0.0332407579,0.0118866302,-0.1200276762,0.0056349686,-0.0439783148,-0.0696636811,0.0358488895,-0.1660989374,0.0242496822,0.0447385684,0.1362763494,-0.1203206554,0.1172432974,-0.0135099068,-0.1240945235,-0.0653500482,0.1624587774,-0.1689503491,-0.1535646766,0.1782448143,0.1711802930,-0.1274421364,0.1296760291,-0.0750773922,-0.0307774935,-0.0216127709,-0.1632879078,-0.0141156698,0.0237803385,0.0087049715,-0.0028049473,0.0210313909,0.0029479328,0.1882688403,-0.0080190953,0.1735433042,0.0279562473,-0.1053212732,0.0459477082,0.1047856808,-0.2269817442,0.0052087056,-0.1341704726,-0.0639037564,-0.1071018130,-0.2117768675,-0.0360808261,-0.1325647682,0.0705583915,-0.1028224081,-0.0875300243,-0.0426492952,-0.0526292957,0.1381755918,-0.0080605270,0.0070291525,-0.0859176442,0.0226337370,0.1232432425,0.0291536637,-0.0012798388,-0.0328179747,0.1098700762,0.1194059327,-0.0665106997,-0.1170046106,-0.0247744694,0.0393898077,0.0066338028,0.1822672337,0.1490123719,-0.0839750618,-0.0869492814,0.0544862002,0.1656059474,-0.1218576580,-0.0435845703,-0.1624863744,-0.1738520116,0.0425678417,0.1662956923,0.1791567951,-0.0810509622,-0.1066656560,-0.0049589174,0.1262988150,0.0612364188,-0.1210837439,0.0858596191,0.1626527905,-0.0997325405,-0.0197545774,-0.1440393925,-0.1246914268,-0.1346888542,-0.0779480413,0.1136210486,-0.0625624433,-0.0517806001,0.1968385130,0.1723303795,0.0600188375,-0.2111111134,0.0552363880,-0.0442217253,-0.1665344983,0.0036929969,0.0267046075,-0.1015624702,-0.0656911805,-0.1400349587,0.2138535678,0.1283078194,0.0859003514,-0.2180709988,-0.0688485131,-0.1179344356,-0.0482449383,0.0506358594,-0.1134894490,0.0000663353,-0.0611120239,-0.1059954688,0.0026871194,-0.1047409773,0.0114521105,-0.1618766934,0.1253174096,0.0595113263,0.0927695334,0.1515760720,0.0331187658,-0.1105409116,0.1372517347,0.0716523454,-0.0456771962,0.1361231655,-0.0842921585,-0.0689185262,-0.0344951004,-0.0166299175,-0.0691378638,0.1926150173,0.0870083421,-0.1689234376,0.0748985037,-0.0198348649,0.0064999308,0.0178760421,0.0042423708,-0.1304572523,0.1069016680,0.0648526549,-0.0527187772,0.0089826509,-0.0168386586,0.1720439196,-0.1375645250,0.0185264666,0.0803525820,-0.0849906653,0.1415423751,0.0364018753,0.0129234847,0.1834726781,-0.0633720458,-0.0201844890,0.0641579628,0.0536236167,-0.0653558746,-0.1151896119,-0.1395660788,0.0413583517,-0.1447499245,0.0958592296,0.1397742480,0.1452195644,0.0998041183,0.1334546953,-0.0302309003,0.0973175839,0.1117678359,0.0271913335,-0.0597724952,0.0890399963,0.0161099229,-0.0053300210,-0.1975561380,0.0704835281,0.1627213955,-0.1246230006,-0.0735856816,-0.1871940494,0.0635221899,-0.0369558036,0.0156014636,-0.0958634540,-0.0828949660,-0.0441484936,0.0056431177,-0.0467585661,0.1208472177,0.1636458486,0.0695530921,-0.0850786120,0.1786218733,0.0233939365,-0.1177008525,-0.0142274192,-0.0087513421,0.0268736333,-0.0884947404,-0.0955044553,0.0881381482,-0.0754286200,-0.0628601387,0.1151627898,0.0634094253,-0.0385971628,-0.0792763829,0.1496473551,0.1334690005,0.0298590418,0.0599251650,0.0485921241,0.0174262486,0.0114200981,0.1849550307,-0.0344495587,-0.0080246152,0.1252319068,0.1408420354,0.0070685544,-0.1845588833,0.0502958260,0.0672382638,0.0998892337,-0.0170876347,0.0361144841,-0.0202544890,0.0163452625,0.0577951297,0.0397117212,0.0592782535,0.0122408820,-0.1097430438,0.0179808456,-0.0958970785,-0.2103468180,-0.0269223172,0.1095815226,0.1409560144,0.1066527069,-0.0287190005,-0.0537415221,-0.0898629278,-0.0080088144,-0.0193400215,0.0613896176,0.0370066129,0.0726965740,-0.1421464235,0.0308642760,-0.0150360288,0.0040115146,0.0299393591,0.1327536851,0.0523253046,-0.0319384485,0.0446734987,-0.0302713178,0.1616530120,0.1689225286,0.1455803812,0.0401123315,0.0870585963,-0.0705717877,-0.1355597079,-0.0062923129,0.0051049115,-0.0780099109,-0.1540717334,-0.0503490977,0.0257246122,0.1033566147,0.0022485917,0.0328615271,0.1800942123,-0.1497003585,0.0382215753,0.1704289466,0.1286211163,0.0316078402,-0.1823768318,0.0888564065,0.1581754982,0.0261148252,-0.0430027060,-0.0371000357,0.0871443525,-0.0164163448,-0.0261944272,-0.0201921314,0.0269548856,-0.0465328321,-0.0311802570,-0.0403598286,0.0091244504,-0.0020049538,-0.1825668961,-0.1563147008,-0.2040127516,-0.0889831632,-0.0383395515,-0.2065646946,-0.0990736783,0.1131483689,0.0600708388,0.1328324676,-0.1063811779,-0.1267909110,0.1422121674,0.1587401778,-0.0164920688,-0.0446191505,0.1269938350,-0.1739710867,0.0504561886,-0.0538355373,0.0762801915,0.0584057420,-0.0457871296,0.0706063733,-0.0681640506,-0.0204246473,-0.0100891152,-0.0496175624,0.1426999718,-0.0615507290,-0.1306180209,-0.0180704631,-0.1704963446,0.0076422272,-0.0949618220,0.1088651642,-0.0674494877,0.1089824736,-0.0207257010,-0.0462634750,-0.0736035779,0.0359093323,0.1310623884,0.1094681993,0.0565115847,-0.1109422594,0.1016895697,-0.1118613631,0.0321205333,0.0780176073,0.1761284322,-0.0576180443,0.0545565225,0.0267246552,0.1612933129,0.1422022879,-0.2048847228,-0.0216939095,-0.0361625366,-0.0615281500,-0.0141558209,0.1694956124,-0.0728661567,-0.1229354963,0.0062748496,-0.0895226896,-0.0136793815,-0.0593026765,-0.1395321637,0.0590791442,0.0139332302,0.1402811408,0.0699445978,0.1475748420,0.1315986663,0.1287064254,-0.0328901969,-0.0938281417,-0.0507759564,0.0815684423,0.0015286412,0.0196241625,-0.1307016462,-0.0817697868,0.1724789441,-0.0709957257,-0.0089062601,0.0706593320,-0.0206807610,-0.0093657281,-0.0953033566,-0.1157395840,0.0121737896,0.0122448849,0.0888023898,-0.0942603946,-0.0582211651,0.0240349956,0.0030644978,0.0069791717,-0.1187289804,-0.0955139622,-0.1254353821,-0.0086886324,0.0048177047,0.0330803469,0.1693430245,0.0789423138,0.1187649891,-0.0041084541,0.0101042511,0.0421583317,0.0483048968,0.0286892019,-0.1027706712,0.0671622977,-0.1780029684,0.0762600675,0.0084364545,0.0189822186,-0.0542014018,-0.0071102302,0.0039706128,0.0064621395,0.0716126114,0.1530247480,-0.0448605493,0.0307113454,-0.0215382855,0.0964074731,0.0636845902,0.0755733550,0.0548751727,0.1223809570,-0.0278343335,-0.0581674688,0.0243634023,0.0440475307,0.0907705724,0.0475067347,-0.1593615860,0.1008164510,0.1100758836,0.1199595630,-0.1453929991,-0.0665602610,-0.0193963274,0.1154263765,0.1002760455,-0.1205319539,-0.2131929100,0.0074872030,0.0149906771,0.0207674019,-0.1098017842,-0.0092742685,-0.0128725283,-0.0112251202,-0.0167739112,0.0667842627,-0.1311834306,-0.1091018170,-0.0028130200,0.0195131861,0.1040882468,0.0704298466,0.1444779038,-0.0840225071,0.0393148698,0.1038553715,0.0073929061,-0.1042418331,0.0699201003,0.1125436872,0.1066172272,0.1626508683,-0.0085961521,0.1713746190,0.0401864089,-0.0413209796,-0.1641112119,0.0373516344,-0.0631735027,-0.0267960168,-0.1392776966,0.0671369508,-0.0231809597,0.0715165585,0.0125202807,-0.0568951257,-0.0230486803,-0.1456754357,0.0622358136,-0.0347603820,-0.0777937323,0.0602020994,-0.0689513832,-0.1562947780,-0.0045494358,-0.1143128797,0.0085312221,0.0226576831,-0.0202462170,-0.0192653090,0.1100088060,-0.1125484258,-0.1789566129,0.1170040444,0.0947655514,-0.1607183367,-0.0616153665,-0.1293279976,0.1099306569,0.2193518728,-0.0230742991,0.1765677035,0.1079692468,0.1086575538,0.1226398945,0.0550960377,0.0149532454,-0.0830835104,0.0089779450,-0.0048987949,-0.1716787964,-0.1570079178,0.1247828379,-0.0608025678,-0.1270049959,0.0016455618,-0.0239433553,-0.0689092800,0.1189810187,-0.0947360247,-0.0816167817,0.0112327449,-0.0763316527,-0.0435036495,-0.0566613190,-0.0912466943,0.0061240923,0.1089876518,-0.0184660498,0.0507242344,0.0274049938,-0.1641386151,-0.0278150961,0.1291302145,0.0861225277,-0.0267973896,-0.0605696142,0.0066252914,-0.0471666940,0.0024904276,-0.0926499441,0.1326006353,0.1319104731,0.0201723762,0.0000624706,-0.1399133652,0.1906669289,-0.0757527575,0.0682427436,0.0085966839,-0.1142668724,-0.0162852611,0.0329514630,-0.0124778375,-0.0933550149,-0.0075577628,0.0074150874,-0.0668523386,-0.0031016879,0.0998503417,0.2622319460,-0.0327303447,0.0995250791,0.0427387692,0.0817445517,-0.0573165603,0.1404489726,0.0359659456,-0.1170929819,0.0403979868,0.0668788105,-0.1209007055,-0.0469891317,0.1402484477,-0.0104246717,-0.0368851982,0.0704129562,-0.0427291989,-0.1689032316,-0.0371088050,-0.0197060369,0.1354725063,0.0871729180,-0.2155555934,-0.0005457386,-0.1166085079,-0.0088333385,0.1635873020,-0.0519187562,-0.0717223883,0.1046399698,0.0453085750,-0.0358365476,-0.1076144800,0.0122826500,-0.1469215155,-0.0035476533,0.0199992154,-0.1027337983,-0.1254765242,-0.1776538938,-0.0985240489,-0.1050201580,0.0631181151,-0.0229851492,-0.0155952489,0.0989426151,0.0060210531,-0.0081625739,0.1344597340,0.0308936276,0.0385772288,0.0845154002,0.1699304879,-0.0967387483,-0.0336811952,-0.1036978066,0.0642840713,-0.1602555513,-0.0985975862,0.0571668148,0.1383118629,0.1176309809,-0.0867809579,0.0639067143,-0.1114190295,0.1610887200,0.0850662068,0.0626398921,0.1960139424,-0.0303236246,-0.0244424194,-0.1124040335,-0.1114151031,0.0294159893,0.0968106464,-0.0726190433,-0.0449246429,-0.1310855895,0.0455390513,-0.0016223959,-0.0168144312,-0.1681762189,-0.1876098961,-0.1092279926,-0.0436931029,-0.0223786049,-0.1290244460,0.0078939060,-0.0849528760,0.0066148099,0.0047990144,-0.0586154386,0.1617168784,0.1295407414,0.0545206703,0.0574463382,0.1608241051,0.1045929417,-0.1028745919,0.1640805751,-0.0074462034,0.1283409148,-0.2055985928,0.0076104347,0.0357542746,-0.0279019140,-0.1486373544,-0.0269720815,-0.0890334994,0.0298782010,-0.0074690282,0.1555009931,0.0685614198,0.0359887928,-0.2213263512,-0.0750008151,0.0723013431,0.0808687508,-0.0391989164,0.1804744601,-0.0598533414,0.0312779546,-0.0444363765,-0.0669376776,-0.0447383523,-0.0130412737,-0.0077420427,0.0097522894,0.0890169889,0.1465449631,-0.1118369848,0.1323487908,-0.0031799206,0.1323344857,0.0766976178,0.1995473951,0.1130175591,-0.0314170644,0.0582359210,-0.0590066798,-0.1086862534,-0.0417709537,-0.0887082368,0.1328611821,-0.1057979465,-0.0408459790,0.1704576463,-0.1864044964,-0.1039617658,0.0141668441,0.0700620115,0.0762007684,0.1083823144,-0.1150536612,-0.0679843873,0.0780832469,0.1767896712,0.0569335558,-0.0009985756,0.1251233965,0.1633510441,0.2099608928,0.0738485083,-0.2065939456,0.0601155609,0.1412795931,-0.0295998212,-0.0600647405,-0.0508109443,0.0368228443,0.0550982244,0.1201392487,-0.0402456112,-0.0813322514,0.1721174717,0.1682447791,-0.1546523124,0.0734697729,0.0759711713,0.0789488927,-0.1587869525,-0.0582041331,0.0030122525,0.0321352333,0.1235936582,-0.0945357531,-0.0185624566,-0.0391432047,-0.1433072984,0.0200615190,-0.0878799036,-0.0777161941,0.0485930443,-0.1081086472,0.0282806773,0.0198390037,0.0950608701,0.1386253685,-0.1063098758,-0.0715259761,0.1806765050,-0.1778162271,-0.0301837176,-0.1482255310,0.1332938820,-0.0135992859,0.0894617140,0.0980006903,0.1627888381,0.0343481638,0.0147309089,0.0357419588,0.0703763738,-0.1611763388,0.0193173084,0.1533430070,0.0071418085,0.0118861124,-0.0927583054,0.0968398601,-0.1363447011,0.1488761753,-0.0685914457,-0.0663174465,0.0767643601,-0.0352978259,-0.0042729191,-0.0526510477,-0.0252003353,0.0315347090,0.1402740330,-0.0227596033,0.1851998419,-0.2024576366,-0.0024362556,0.1115077585,-0.0531790741,0.1145754233,0.0579648204,-0.0649922788,0.1302815527,0.1125205010,0.0507785901,-0.0734113082,0.1281659603,-0.0892036185,0.1620136350,-0.1437469870,0.0748824254,0.0446276776,-0.0575514399,-0.0409233123,-0.0364749916,0.0182951186,-0.0162357334,0.0690143257,0.0799353421,0.0470321402,-0.1123328507,0.0667197853,-0.0591287576,-0.1405051649,0.0142516568,0.0018303309,0.0247136001,0.0235233121,-0.0036832343,-0.0138251325,-0.0493189171,0.0196374394,-0.0957426578,0.0480039306,0.0629087016,-0.0863880515,-0.0456075482,-0.0516429543,-0.0759819746,0.0460943505,-0.1341981590,-0.1989349872,-0.0356608629,0.0721657053,0.0188324079,-0.0441881679,-0.1761190593,0.1424885988,-0.2195982486,0.1835071146,0.0227537602,-0.0175031908,0.1771460772,-0.0092857536,0.0697686002,-0.0913621411,0.0125234229,-0.0658523664,-0.0100190109,0.1129929572,-0.0148319481,0.0067820116,0.1132860929,-0.0441377386,0.0418527722,-0.0759530067,0.0728632957,0.0217658300,-0.0345673189,-0.0939451233,0.1139831170,-0.0730922744,-0.0931800306,-0.0110136084,-0.0789070129,0.1251946092,-0.0602868721,0.0030214032,-0.0888374969,0.0268048644,0.0826194212,0.1040912196,-0.0096399225,0.0136246597,0.0425666608,0.1658597887,0.0331102759,-0.1594133377,0.0523433201,-0.0146425497,-0.0496454649,-0.0030079805,0.1708107293,-0.0978200883,-0.0277199596,-0.0948801339,0.0700634122,0.1735299677,0.0465462804,0.0937762782,-0.0656113327,0.0176979136,-0.0288094692,-0.0880296752,-0.0197574068,-0.1030297279,-0.1187507212,0.0853220373,-0.0519184321,0.0057436023,-0.1786834449,-0.0839923099,0.1660261899,-0.0572916754,0.0575935394,-0.0479512177,-0.0292358994,0.0907512382,0.0810121521,-0.1152489483,-0.1093387157,-0.1300521791,0.1286676526,-0.1536785364,0.0554697700,-0.1559721828,0.0463955812,-0.0668863952,-0.1307269037,0.1926356554,-0.1934313327,0.0752531439,0.0355694480,0.0257440768,-0.0052448325,0.0781833306,0.1207678542,-0.0759230629,-0.0038852240,-0.0561776049,-0.2021265477,0.0503865927,0.1252496392,0.0927007124,0.0040169121,-0.0656731203,-0.0393968411,-0.0222824439,-0.0013409420,-0.0282834116,-0.1649507582,0.0727957636,-0.0053633521,-0.0619272180,0.1201342866,0.0013326758,-0.1678219438,-0.0278882552,0.1220532656,0.0340883061,0.2357414067,0.0910123512,0.0106784515,-0.1501068175,-0.0581429526,0.0090223346,0.1091653854,0.1443183273,0.0935629234,-0.1053109691,0.0141292121,0.0942420438,0.1491797417,0.0339944772,-0.1259085238,0.0552183315,-0.0885945335,0.0362194180,0.0393776745,0.1466380656,0.0281258151,0.0955331773,-0.0620464608,0.1437430829,-0.0654841214,0.1532044411,0.1472267359,0.1386427134,-0.0270227268,-0.0980320275,-0.0376498252,0.0810816512,0.0745764449,0.0110990899,0.1713876277,-0.1122057587,0.0339696296,-0.0018333469,0.0419529378,0.0255075395,0.0800910890,0.0441915169,-0.0909517035,0.0057003559,0.1295604557,-0.1055358201,-0.0868576169,-0.0238949079,0.1146195978,-0.0247466229,-0.1709723473,-0.0813366324,0.0679237098,0.0031538154,-0.0214215238,0.0490350649,-0.0499331281,-0.0615194067,0.1073957756,-0.0461187027,-0.0932295546,0.0791024342,0.1983514577,0.0650291368,-0.1371364444,-0.0315646566,0.1156466678,0.1395014971,-0.0505979285,0.0511875898,-0.0556648485,0.1901109815,0.0407252051,0.0710846707,0.2041738331,-0.1916053146,-0.0381846875,0.0624478497,-0.1724983305,-0.0321582705,-0.1102550998,-0.0723648816,-0.0444427915,-0.0968306512,-0.0876313820,-0.0012240784,0.0635410249,0.0244634170,-0.1112267971,0.0202622600,0.0477681383,0.0412763171,0.0768850520,-0.0500026755,-0.0678860620,0.0119729331,-0.0450878330,0.0222773701,0.1095578596,-0.1530177742,-0.0016102637,0.1872024089,0.1287139207,0.1364468485,-0.0422614478,-0.1315621436,-0.1289541423,0.1418137997,-0.1216401085,-0.0020810154,0.0649830401,0.0136946728,-0.0295557585,0.1155783087,0.0009324465,0.1500763446,0.0784122199,-0.0688581169,0.1415493786,-0.0885732174,-0.0228074212,0.1336506456,-0.1330178231,-0.1156726927,0.1708020270,0.1022136211,-0.0037775664,-0.0248379633,0.1627716720,-0.0094951801,-0.0941948518,-0.0408510230,-0.0333199725,-0.1123914942,0.0843596682,-0.0865100324,-0.1189593598,0.1692559868,0.0733870342,-0.1805320829,0.0852195323,-0.0216918178,0.0101508647,-0.0521115474,-0.0604371130,0.0142052090,0.0219130367,0.0659676120,-0.0114834486,0.0508788824,-0.0150094964,-0.0737372190,-0.0968906879,0.0543054827,0.0382864513,0.1586697698,-0.0727096498,0.0604476295,0.0498853549,0.1297029704,-0.0650216565,0.0021731120,0.0541552715,-0.0132110734,-0.0865989849,-0.0424358398,0.0366954580,0.1664902121,0.0818753466,-0.0546010844,-0.1125895157,0.0616120696,0.1030345410,-0.0574472994,0.0767669380,-0.0603237301,0.0052156146,-0.0384854041,0.0634968877,-0.0283710659,0.1571464390,-0.0188168325,0.0167174581,0.1088817492,0.1049469709,-0.1836073697,0.0468289368,-0.0366976522,0.0183690134,0.1581789851,-0.0246989820,-0.0053193886,-0.0212805998,0.1935585588,0.0359667353,-0.1464626044,-0.2081372887,0.0202660132,0.1078504175,0.0947320163,0.0639557093,0.0529875420,-0.1103781983,0.1509596556,0.0719497949,-0.0347856283,0.0557341203,0.0486762971,-0.1203542650,-0.0825122222,-0.1118306220,-0.0605472177,0.0053298795,0.0190096013,0.0434662886,-0.1966387779,0.0024754039,0.1235830188,-0.0605881326,0.0031518964,-0.0701692924,-0.0465606526,0.2201114297,0.0695165247,0.0259974692,-0.0067570936,-0.1464116722,0.1090812311,0.0823221579,0.0165083800,0.0860283449,-0.1922484189,-0.0634544939,-0.0410583541,0.0844488963,-0.1528528482,0.1050161347,0.0151096424,-0.1254789978,0.0014902898,0.0049519106,0.0741693452,0.1045182347,-0.0159230456,-0.0519359857,-0.0604957119,-0.0353618935,-0.0095463200,0.0654400885,-0.0446994528,0.1637191176,0.1355548799,-0.0533410124,0.0749883577,-0.0946180746,-0.1427654624,0.1199622080,-0.0108466633,-0.0233922582,0.1602183282,0.0440078489,0.0523977242,0.0720940530,0.1970819533,0.1617170572,0.1380878836,-0.0799058303,-0.1411814690,0.1994541585,0.0135177327,0.0986239314,-0.1046245024,-0.0615508854,-0.0530558527,-0.1164751649,-0.0531760454,-0.0878138840,-0.0811692998,-0.0163298994,-0.0599281341,-0.0957846940,0.0978808478,0.0263876282,-0.0464320891,0.1872955263,-0.1287236065,-0.0458485410,0.0913986489,0.1557704210,0.1468212754,0.0459911786,-0.0961499140,0.0241081249,0.1033946052,0.0585578457,-0.0682430342,-0.0803895146,-0.0099119181,-0.0704252943,0.0271398630,-0.0383801423,-0.0471860543,0.0141696194,0.1015083119,-0.0250111595,0.1504117399,-0.0300364345,0.1220287830,-0.0444389880,-0.0091754086,0.1917995811,0.0523593500,0.1976273656,0.0105605284,-0.0763537362,-0.0015091511,0.1109732985,0.0543190055,0.1175042912,0.0327443406,0.0695400983,-0.1344505399,-0.0389228575,0.0802599192,-0.0304824486,-0.0113199623,0.0835762098,-0.0015435938,0.0635933131,-0.0633679405,-0.1112177521,-0.1189542413,-0.0411250070,-0.1386196762,0.0714887604,0.0254315920,-0.1523775756,-0.0278302208,0.0809513181,-0.1051277593,0.0177706741,-0.0794906467,0.1154453605,-0.1409065723,-0.0547720157,-0.0295598768,-0.0794809312,0.1608052701,-0.1562288553,0.1563797593,-0.1389309317,-0.1579206437,0.0783015192,-0.0962202847,0.0091235945,0.0000047699,0.1667364836,0.0633791909,0.0892899409,-0.0452718399,-0.0129704634,0.0177205279,0.0062877764,0.0705445558,0.0384252742,-0.0379121974,-0.0038338641,0.0586495139,-0.0283398814,-0.0407875963,-0.1433759779,0.0928972960,-0.0534161627,-0.0228725169,-0.1823839843,0.0749133602,-0.0052771671,-0.0144110313,-0.0049717557,0.0165575817,0.1442302465,-0.1453089267,0.1014726833,-0.0889287367,-0.1043423787,-0.0198225211,0.0806532502,0.1359535307,-0.0159095246,0.0256359279,0.1799200177,-0.0197955687,0.1354466826,-0.0038894552,0.0672579557,0.1451859325,-0.0526380949,0.0733660385,-0.0325670131,0.0783696175,-0.1896881908,-0.0743771344,-0.0113480901,-0.0661576837,-0.1174860746,-0.0697058290,0.0561106876,0.1204948351,-0.1277982891,0.0611975640,-0.0535321832,-0.1176038161,0.1465568244,0.0826519951,0.0685778111,-0.0640920773,-0.1568602175,0.0880228281,-0.0028706349,0.0069416100,-0.0706018507,-0.1370643824,0.1516588777,0.1527973562,-0.0189747754,0.1537332237,0.0893993676,0.1227473915,-0.0563153476,0.0449883826,0.2315383852,0.1804172248,-0.1253215969,-0.0623970069,0.2080402970,0.0588612221,-0.0856981874,0.0704078898,0.1086056903,-0.0530945286,0.0526826046,0.0194150452,-0.1023533270,-0.1984726936,0.0689408183,0.0338103734,0.0163327120,-0.0480663665,-0.1156568602,0.1221090779,-0.1135311350,-0.1104966030,-0.0524716787,0.0186457671,-0.0141866906,-0.0105678290,0.2524640262,0.1649133712,0.1224157289,-0.0701017678,0.0678670853,0.1193110719,-0.0887302980,-0.2632733285,0.1769888699,-0.1044027954,0.0556119345,-0.0757253394,0.2097771615,0.0134410178,-0.1622151583,-0.1739059985,0.0263569970,-0.0700214356,-0.1182626486,0.0530003533,-0.0726583302,0.0374085233,-0.1690679044,0.0533027798,0.1067297831,0.2358046174,-0.0189867355,0.0725493580,0.0162198655,-0.1348142922,-0.0904104784,-0.0612824894,-0.1347067207,0.0287362579,0.1467902511,0.0279629044,-0.1106478050,0.1232939288,0.0611478351,0.1120487079,0.2049336582,-0.0543768406,0.1841814220,-0.1147953346,0.1101336479,-0.0981563106,-0.2277257591,0.0126528740,0.0493475869,-0.0010591815,0.0859936550,-0.0974636152,-0.0722020715,0.0175059736,-0.1854300499,-0.1927845478,-0.1379079819,0.0168501548,-0.0505649373,0.0246345904,0.0177421384,-0.0270956755,-0.0038084995,-0.0343426988,-0.1305022985,-0.0484807640,-0.1182449758,-0.0407419279,-0.1492788047,-0.0363541991,0.0946470052,-0.0445127711,-0.0762533769,-0.1101769060,-0.0927611217,0.1075909212,-0.1199865490,-0.0757046342,-0.0339581035,0.0039238981,0.1594140530,-0.0026775301,0.1425215751,0.0671273321,-0.0754581839,0.0345948860,0.0471068807,-0.0793938488,-0.0345141478,0.1013081819,0.0068441615,-0.0735997185,-0.1128362492,-0.0904474482,0.0474497303,0.0729636177,0.1576019377,-0.1092971414,-0.0399178416,-0.0696065351,-0.1500177979,-0.0956423879,-0.0041734995,-0.0034258692,0.2217963487,-0.1043864563,0.1517646015,-0.0922879949,-0.1140543371,-0.1760155112,-0.0554635413,0.2498289794,0.1168092340,0.2139758319,0.1033286676,-0.1084838957,0.0854220688,-0.0246069804,0.0256414562,0.0314330794,0.1440295577,0.0093423380,-0.1423906833,-0.0958692431,-0.1090354472,0.1168309301,-0.0356857032,-0.0605576038,0.0442266837,0.0184052214,0.0528055988,0.0684069693,0.1293651015,0.0145222815,0.0028655876,0.0252523385,0.0260508638,0.1882034540,0.1295808256,0.0396758951,0.1279818416,-0.0073373257,0.0016570331,0.0699356943,-0.0314985067,-0.1907397658,-0.1429555714,0.1377662420,0.0786223710,-0.0256484002,0.0665914640,-0.0210464001,0.0449752249,-0.1326640248,-0.1608877033,0.1029017791,0.0145075032,0.0361451879,0.0574493334,-0.0670323744,0.1164021939,-0.0180997159,0.0472748689,-0.0348737910,0.1323855072,-0.0412600450,-0.1039132699,-0.0864042863,-0.1770253181,0.1053866297,0.1407354474,0.0094567668,0.1470564008,0.0475614369,-0.1493227035,0.0158756468,-0.1221996248,-0.0086043235,-0.1526901722,-0.0583901517,0.0783881322,-0.0916159600,0.1401677728,-0.0562318191,-0.1584927589,0.0011007739,-0.0401594527,-0.0922853723,0.0121442862,0.2331659645,0.2726220787,-0.0370666571,0.0168523937,0.0129852751,-0.0590119511,-0.1785354763,0.0995160416,0.0463658050,0.0281718094,0.1274018884,0.0722154602,-0.1740547717,-0.1522414684,-0.0900429785,-0.0238002390,-0.1551329941,0.0263826419,-0.0218762085,0.1706676185,0.2022283524,0.0545952320,-0.0178971589,0.1557086706,0.0145902913,0.0913728327,0.1468622535,-0.0390793011,0.1312500536,0.0116290320,-0.0813193023,-0.0077143610,0.0024430393,-0.1198346242,0.1549607366,-0.0585613549,-0.0360699482,0.1537457854,0.1313599348,-0.0789022073,-0.0325034223,0.1296412200,-0.0461252630,-0.0360334553,0.0064636073,0.0524184667,0.0589311346,-0.0247023497,0.0498467796,0.0341844000,-0.0641926229,-0.1178148091,-0.0799343809,-0.0743438527,-0.0465593897,0.0281712264,0.0606041811,-0.0434561335,-0.1661121398,-0.0846483111,-0.0882625729,-0.0725672394,-0.0579946712,-0.0642533749,-0.0022094555,-0.0258859769,-0.0706275925,0.1489218175,-0.0078925462,0.1577975303,-0.2290164530,0.0694583282,0.1972570121,0.0429537147,0.1919424534,0.0335404314,0.0826211199,-0.1507683396,-0.0319472365,0.0072679976,0.1031160206,-0.1332823783,0.0655891225,0.0783435330,0.0654346123,0.0624277666,-0.0528989732,-0.0779369771,-0.0144375386,-0.0951856449,0.1086953208,0.0010297021,0.0174681228,-0.0117637198,0.1460623294,0.0876762941,0.0699618012,0.1760087460,0.1295020580,-0.1496033967,-0.0619171560,0.0578447804,0.0599810109,-0.0335217044,-0.0286145676,-0.0551159494,-0.0028202764,0.2207949460,0.1742299497,0.1642102748,-0.0277181938,0.0757090673,0.1654587835,-0.0013533664,-0.0053167925,-0.1028492302,-0.1665900350,0.0112571651,0.1087693274,-0.0152392769,0.1727994382,0.0446795672,0.1391094774,-0.0409031063,-0.0320282020,0.0106474115,-0.2039072961,-0.0223218556,-0.0474384353,0.1317367554,0.1704164296,0.1765901744,0.1101591215,-0.1313504726,0.0427121110,-0.0078856023,0.1029605195,0.0195728317,-0.0064490177,0.0286960900,0.0770539418,0.0020022788,-0.0711620003,0.0581862070,0.0990948752,-0.1007296667,0.0054009054,0.0532598123,0.0269429386,-0.0520905815,0.0409972332,0.0109173078,-0.0534850322,-0.0788511559,-0.0517105460,0.0457868204,0.1760119349,0.0083865300,-0.0646706447,-0.0751089826,0.0060631088,-0.1340164989,-0.0028521649,-0.1322732717,0.1016352326,0.0706345141,0.1883077472,0.0493442565,0.0031615328,-0.1587619931,-0.0881535336,-0.1060435176,0.1263325661,0.0301525481,0.0419876501,0.0559274778,-0.1187711805,0.1053249016,0.1945983320,0.0482716411,0.0549577661,-0.0751994327,-0.0513208956,0.0209204406,0.0532893799,-0.2016182989,-0.1255934983,-0.2443825752,-0.0586426333,0.0150116449,0.1149455830,-0.0366589166,-0.0770192817,-0.0505046844,-0.1299239099,-0.1109800562,0.0325195342,0.0257766414,-0.1680312902,0.0440726727,0.0240741074,0.0370572358,-0.0573056675,0.0277659371,-0.0127197159,0.0753725395,-0.0017171953,-0.1816309392,0.0023424525,0.1177219003,0.1051459834,0.0542789549,0.0518816188,-0.1472604573,-0.0160845667,-0.0760161802,-0.0201224387,-0.0360990204,-0.0047480878,-0.0598861910,0.1175448671,0.0703488141,0.0002637810,-0.0313959457,0.0108167594,-0.1053409800,0.1873915344,0.0563969649,-0.0196422096,0.0572850220,-0.0573541857,-0.1713911593,0.0421241149,0.1440776736,0.1892395020,-0.0057928278,0.1341113299,-0.0834120885,0.0890069157,-0.0321241952,-0.0006354486,-0.1019779518,0.0165321082,-0.1358279288,0.0239266790,0.0767965019,-0.0198494494,-0.0171580706,0.0723277107,-0.2039961666,-0.1477970332,-0.0497601144,0.1294721663,0.0578052551,-0.0111798802,-0.0261965524,-0.1386753768,0.1356047988,-0.0334680527,0.1624968201,0.0098084826,-0.1475851089,-0.0354212038,0.0604070388,-0.0164135192,0.1503112614,-0.1421021670,-0.1814728528,0.1514111161,0.0938125849,-0.0324793532,0.1236686036,0.1703505069,-0.0760897249,-0.1574752331,-0.0609484985,0.0566003919,-0.0297891852,0.0887795687,0.1982670426,0.0693691149,-0.0559122302,0.0772652775,0.0920258537,-0.0120634204,-0.0720823109,0.0385146886,0.0594943278,0.1468652785,-0.0739112943,-0.0702216327,0.1644257754,-0.0029958121,0.0762702152,0.0684199333,-0.0104946531,-0.0031044898,0.0513515435,-0.1016203389,0.0818895400,0.1367450058,0.0886064544,0.0773799717,-0.0475899875,-0.0305843037,0.0108606545,0.0785526782,-0.0034649202,-0.0166315325,0.0841359943,-0.0110813780,0.0591330677,-0.0224783290,-0.0077740639,0.0051042903,-0.1087616608,0.1272036284,0.0299133677,0.0072828089,0.0359843560,0.1583157182,0.0574368574,-0.0915408507,-0.0647697374,0.0866813287,0.0741083845,-0.0716426820,0.1123009995,-0.1442348063,-0.0409901254,0.1193487495,-0.0969734490,-0.0622543953,-0.0320522897,-0.0794910640,-0.0097110551,-0.0603046454,-0.0957693905,-0.0906098410,0.0371070541,-0.0697120577,-0.1314711869,-0.0490828939,-0.0255349204,-0.1025508195,0.0498825200,0.1386957169,0.1778799146,-0.2023081034,-0.0486574881,0.0921129882,0.0529161058,-0.0169897974,-0.0912623852,0.0301995203,-0.0947501957,-0.0424351394,0.1268347651,0.0894593000,0.0568855964,0.1901225597,0.1871697605,-0.0398213863,0.0712326020,0.1156925783,0.0062203989,-0.0245083570,-0.1049253717,0.0125079351,-0.0523080900,-0.1463038474,-0.0650329813,0.0775395632,-0.0243334100,0.0280696936,0.0460520424,-0.1181420311,0.0595793277,0.0658467039,-0.1193250194,-0.0430364944,-0.1381993890,-0.0968103483,-0.1238844767,-0.0382821821,0.1508609056,0.0734055117,0.1069574654,-0.0978704542,0.0253532883,0.1924926788,0.0154442787,0.0445918962,0.0523007996,-0.0249644835,-0.0217297319,-0.1308675557,0.0100542549,-0.1062588841,-0.0523726083,-0.0555397868,-0.2120715380,-0.0122235902,-0.1397636384,-0.1046064794,0.1699994057,-0.0320657529,-0.0339372903,0.0826877281,0.1305930018,0.0540415719,-0.0454868004,0.0773425177,-0.0218010694,0.0662834719,-0.0841414332,-0.0922647044,0.0540494621,0.1035393700,0.0667478815,0.0626901686,-0.0146007892,0.0354528464,0.1612453908,0.0598587655,-0.1825297326,0.0227141995,-0.0472284183,0.0540405437,-0.1224477962,0.0274743885,0.0986374989,-0.0520575978,-0.0116566084,-0.0806235522,0.0846313313,0.0685523972,0.0535143986,0.1407670379,-0.0574709997,0.0559578575,-0.0365784504,0.0693544522,0.0803703517,0.0181271881,0.0568265133,0.1012997553,0.1031212658,-0.0441247225,-0.1265522689,-0.1867217720,0.0095810005,0.0548247881,-0.0459819920,0.0212564040,0.0395408943,-0.1107378751,-0.0615350865,0.0916948840,0.0516554303,-0.0436391123,0.0192232896,-0.1474683881,0.1428292394,-0.2185702324,-0.0401229598,-0.0688962117,-0.1370432079,0.1643363237,0.0125896139,-0.0692957640,-0.0061398209,0.0189197063,0.1033984274,0.0113706933,-0.1512400508,-0.0667675510,0.0748693421,0.0773678049,0.0207990166,-0.0822980031,0.1016529426,0.0378896445,-0.0989549607,0.0402093194,0.0829198584,-0.0035721282,0.0666561052,0.0554849319,0.0260988977,0.0635301843,0.0499546081,-0.0363259614,0.1366332620,0.0007459924,-0.1884010434,0.0188268814,0.0409815535,0.1311542690,0.0492551625,-0.0230961498,0.1327928901,0.0031780554,0.0460484922,-0.0102157984,-0.0253940951,-0.1581034958,0.0461837314,0.1341096014,0.0194823276,-0.1542502642,-0.1336358190,-0.1467598826,-0.0392475165,0.0569214895,0.0483582988,-0.0948792174,-0.0003941889,-0.0369139910,0.1667862982,0.0206819661,0.0618724376,0.0230679940,-0.0803086981,-0.0259290561,0.0657287762,-0.0469001122,0.1246809736,0.0186415669,0.0120097063,0.0667038113,0.0356773883,0.0143348845,0.0732373968,-0.1264664531,-0.0630250052,0.1112047508,0.0027080264,0.1583641022,0.0724519268,0.1240072101,0.1530525982,0.0551638305,0.0331260562,-0.0645198375,-0.0920416266,-0.0416704416,0.0748917535,-0.0685003251,-0.1038580313,-0.0269328263,-0.0455846488,0.0658173040,0.0706638768,0.0898834690,-0.0636360496,-0.0947787613,-0.1596293896,-0.0221756622,0.0729037151,0.0169332810,-0.1792870611,0.0295604840,0.0262246393,-0.0664479658,-0.1005806401,0.0225337613,0.0304994415,0.1202965155,0.0791318193,-0.0432678498,-0.0931102112,0.0751734972,0.0749437511,-0.1609871686,0.0210547838,0.1272528619,0.1584865749,-0.1354767382,0.1040421203,0.1286984086,0.0586014017,0.0525362454,-0.0706982613,-0.1104889214,0.0761580467,0.0151580516,0.1617646366,-0.1942662299,-0.1257759035,-0.0814234987,-0.0775362104,0.1730648428,-0.0038760006,-0.0356163271,0.1392287016,0.1020463184,0.0626564324,0.0340380669,0.1139448509,0.0947036892,-0.0718728974,-0.0627915189,-0.0222207867,0.1864080876,0.0226434581,-0.1272192746,0.0699729770,-0.1992949396,0.0969936624,-0.0529670194,0.0161742438,0.0722325593,0.1254680455,0.0586275496,-0.0986301526,-0.0970962197,0.0558181591,0.0657253936,-0.1497321278,-0.0639677718,-0.0209908392,0.1290222853,-0.1938211471,-0.0796427727,0.1670807600,-0.0608584769,0.0257111825,0.1285190433,0.0420180410,-0.0802654400,-0.0484957583,-0.1279393137,-0.0411932580,-0.1532176435,-0.0417586863,-0.0284499116,-0.0147138098,0.0909049660,0.0728132054,0.0171769522,0.0399068147,0.0052453722,0.0054966346,-0.0983639210,-0.0939774364,0.0629911423,0.0357878581,0.0313565023,0.0659404024,0.1519953758,0.0117360605,0.0136335334,-0.1638288796,-0.0326206088,0.0128771421,-0.1414993256,0.0624844134,0.0535513945,-0.0663115904,0.2104340047,0.0259151310,-0.0571359172,0.0761461779,-0.0956128389,-0.1720110029,0.0791685730,-0.0112837581,0.1134150773,-0.1118800491,-0.0985888541,-0.0212377142,-0.1305323243,0.1039253250,0.0054949527,-0.1652031243,-0.1753197610,-0.0764189884,-0.2096144110,0.0495156571,-0.0330652185,-0.0065852925,-0.0843321607,0.0012450718,-0.1211372465,0.0327410847,-0.0097510098,0.0367766879,-0.0874667391,-0.1665178835,0.1007357761,-0.1209740490,0.0616558492,-0.0383017361,-0.0956018195,0.1352630109,-0.0942978188,0.0168241784,-0.0935521498,-0.0426840186,0.0344809629,0.1178837940,-0.0013149530,0.0350957438,-0.0301117450,0.0015850753,0.0159235653,0.2139779329,0.0048313434,0.0305956025,-0.1331914961,0.0408271626,0.0185744539,0.0261191186,-0.0708382949,0.1423988491,0.0444075167,0.1229179278,-0.1097065508,-0.0537867062,0.1122959852,-0.0321196280,0.0114973048,-0.0358967856,-0.1377835125,-0.0271719471,-0.0184021816,0.1530624032,-0.0723649785,0.0370449983,0.0805899724,0.1331036240,0.0476302058,-0.0096058426,0.0297476370,0.1498291343,0.1033367142,-0.0435867608,0.1416723579,-0.0085752159,-0.0878006220,-0.0137232700,0.0212789811,0.0599124618,0.0607290231,0.0571365505,0.1047358513,0.1698407382,0.0539435856,0.0614659078,0.0338093825,0.0206445511,-0.0596963875,-0.2042996734,-0.0028179910,0.1337260455,-0.0350597948,-0.0310414750,0.0685649365,0.0485281348,0.1619104892,0.1138094738,0.0583072156,-0.1550819129,-0.0747623220,0.0564568415,0.0110698240,0.0996221378,-0.0475977398,0.0341197848,-0.0215411745,-0.1064078733,-0.1260664463,-0.1926969737,0.1381106824,0.0223669838,-0.0890548825,0.0855244696,0.0798500851,0.0828107148,0.1075730547,-0.0510748886,0.0955790207,0.1741228104,0.0113340439,0.1085339338,-0.1565993875,-0.1832420677,0.0586760975,0.0889458731,0.0286418777,0.0517903790,-0.0320030488,-0.1101270765,0.0051720468,0.0534266755,0.0568792634,0.1032091305,-0.1160401180,0.0921566039,0.0620956384,0.0780603588,0.0418232717,-0.0682771206,0.1219645739,0.1297816187,0.0133471424,0.0683310851,0.0145617956,0.0489925928,-0.0140896002,-0.0960559249,0.0507453457,-0.0647504777,0.1115041077,-0.1558503211,-0.1300173253,0.0919428542,-0.0702550039,-0.0305264443,-0.0271903183,-0.0377990380,-0.1330264211,-0.0905358568,-0.2124078572,0.0733073056,0.0521375574,-0.0829839781,0.0655956268,-0.0548019148,-0.0683553442,-0.0102463253,0.0595324636,0.0952378362,-0.0620504394,0.1538586617,0.1508820206,0.1488241851,-0.0791054443,0.0490574203,0.0254288502,-0.1014360785,0.1087415889,0.0004416732,-0.1290767938,0.0812576786,-0.0644908547,-0.1397188753,-0.0091691017,0.0725947320,-0.1027441844,-0.0207873546,0.0490732454,-0.0423962176,-0.0684260055,-0.0884185582,0.1146815121,0.0505365729,-0.0796919987,-0.0448662266,-0.1005591005,-0.0172872543,0.0349229202,0.1135130674,0.0056361612,-0.0623354502,0.0975204557,0.1530137658,-0.0058960905,0.0363861583,0.0373880714,0.1755166203,0.0726207718,-0.1228098944,-0.0499546230,-0.0048959842,0.0075122979,-0.0960041061,-0.0337970257,-0.0274985731,0.0504228771,0.0149164060,0.0246032439,0.1162550077,-0.0239551179,-0.0689792335,-0.0047185700,0.0512820072,0.0289637800,0.0177839641,-0.0557323210,0.1608168483,0.1615622789,0.1895070970,0.0288929623,0.0242798477,0.2177333981,-0.1387972832,-0.0580929630,-0.0377365984,-0.0684883744,0.0571846217,0.0436117351,0.1132536605,-0.1973094344,-0.0031157774,-0.0157456789,0.0135713136,-0.0536346659,0.0420052633,-0.0401534513,-0.0604232028,0.0157804098,-0.1034418344,-0.1338462830,-0.0872506499,0.2023240179,-0.0032089707,-0.1039958447,-0.0850828439,-0.0451472439,-0.0290132780,0.0823033974,-0.1162802354,0.0926734135,0.0460871868,0.0312044844,0.0354193226,0.0085204979,-0.0850570202,0.1238377839,0.1025477946,-0.1438992023,0.0248692390,0.0882183462,-0.0226209555,-0.0075863823,-0.1460919082,0.0767304227,-0.0004644877,-0.0369860269,-0.0671933442,-0.1452845782,-0.0417861715,0.0211602468,0.1659047753,0.1826659590,-0.1290642321,0.1078795940,0.0343557969,0.0166716836,-0.0788706318,-0.0749951750,-0.0768962726,0.1055946201,0.1374277920,0.0173117723,-0.0174624342,-0.0258784872,-0.0960818753,-0.0869133174,-0.0541488156,-0.1352120787,-0.0032719043,0.2068969607,0.0839733258,0.0233281255,0.1188891605,-0.0912412480,-0.0432376713,0.1492399871,-0.1609379649,-0.0440040976,-0.1275208592,-0.1904148012,-0.0593051948,0.1343995780,0.2185098678,0.0332335122,0.1834891289,0.0537024774,0.0691537261,0.0285047553,0.2141338587,0.2142713070,0.1789708138,0.0384722054,0.0598424338,0.0033722187,-0.0829626322,0.0261253938,0.0575854592,0.0543257780,-0.0884695575,-0.0815486610,-0.0766149834,-0.0283746719,-0.0689853951,-0.0265772790,-0.0060629738,0.0273294225,0.0303428639,-0.0083081461,0.0175018180,0.0036694659,-0.0052582803,-0.0339726247,0.1888638437,-0.0063643334,0.1036128253,0.0290959906,0.0752933398,0.0314626060,-0.0858483985,0.0189610347,0.0013314608,0.0535724759,0.0773540810,0.0102377869,-0.0677668303,-0.0954699069,0.0160787757,0.1432217807,-0.0436320752,-0.0391893126,0.0394141860,0.0750891566,-0.0186497755,0.1387114376,0.0784968361,-0.1929908395,-0.1264784038,-0.0522144809,0.0421032496,0.1578380466,-0.0661065355,0.1418347955,0.1359980255,-0.0642499477,0.0633868128,-0.0371252522,0.0824322551,0.1727606654,-0.0792237297,0.1672322452,0.0369483829,0.0017237967,0.1776620299,0.2108093351,0.2046782970,0.0804200098,0.0777423978,0.0811521038,0.1331656128,0.0552807525,-0.0216891970,-0.0458838642,-0.1738023162,0.0910747647,-0.0142391473,-0.0932705626,0.0920628160,0.1497157365,-0.1173299626,-0.0294832047,-0.1174173877,-0.1219149083,-0.0540246330,-0.0247630011,-0.0055400501,0.0198129285,-0.1693947315,-0.0555013306,-0.1575741023,-0.0585191548,-0.0357375741,0.0988653824,-0.0379142836,-0.0236708131,0.0076636262,-0.1418086141,-0.0075959940,-0.0378979482,0.0593338050,0.0728903487,0.0755445957,0.0344880745,0.0518009514,0.0852060169,0.0085608400,0.0730626285,-0.0824773982,-0.0528781824,-0.0854304209,0.1369729191,0.0138731869,0.0214153714,0.0225502532,-0.0886502787,-0.1222401783,-0.0841528699,0.0066627744,0.0560965165,-0.0945846662,-0.0906262398,0.0145438910,0.0660442486,0.1198931113,0.0706792921,0.0715492442,0.1540717632,-0.1701048017,0.0085865660,0.0439853221,0.0914064571,0.0392272137,-0.0040903767,0.0898384228,0.0650883168,-0.1018435583,-0.0034281050,0.0858166069,-0.0903812721,-0.1394777894,-0.0851555467,0.1479009688,0.1293581873,0.0010868186,-0.1504944712,0.0355117321,0.0194506180,0.0486001000,0.2327831388,0.1167822778,0.0780637264,-0.1370927840,0.0136831095,0.0474526621,0.0563062727,-0.0963895395,0.0444445312,0.0075635444,0.0213630907,-0.0421418659,-0.0075024753,0.0231332947,-0.1485286206,-0.0475047380,0.0181686692,-0.0030396320,0.1510123760,-0.0615491718,-0.1122828424,-0.0535371788,-0.1045809537,0.0540471338,-0.0525949001,0.0826745927,-0.0283216517,0.1490246803,0.2093931288,-0.0409232453,-0.0740600899,-0.0874420851,0.1422634125,0.0125903357,-0.0617124140,0.2007800192,0.0349729471,-0.0111850509,0.1011670008,-0.1862777174,-0.1863919050,-0.1009197831,-0.0220795982,-0.0914062336,0.0320864730,0.0523961335,0.0289801881,0.0867818892,-0.1466745734,0.0248165391,-0.0610912405,-0.0222395137,-0.0728244707,0.0426317155,-0.0471479893,-0.0215656813,0.2171364129,-0.0658758432,-0.0914232209,0.1429949999,-0.0512001626,-0.0270345546,-0.0134046739,-0.0656844303,0.0166609231,-0.0628991723,0.0899147168,-0.0491531342,-0.0309040826,-0.0646337420,-0.1071910188,-0.0439473279,0.0406293571,0.1248925999,0.0600734465,0.0055953655,0.0195743106,0.0139479684,-0.1146181375,0.0638479814,0.0429871939,-0.0379406214,0.0347827747,0.0615537465,0.0170567986,-0.0117518334,-0.0269682351,0.1736360490,0.1606241912,0.1097588241,-0.1032124162,-0.1542997807,-0.1756656170,-0.1990214884,-0.1302755773,0.1135999560,-0.0953876749,0.0600640997,0.0778819174,0.1569395661,0.0799483657,-0.0820499361,-0.1352681369,-0.1482416391,0.0095320111,-0.1151581034,-0.0429510586,-0.0292107221,-0.0197013505,0.1230970994,-0.0135193886,0.0886500627,0.1515377015,-0.0078968490,0.1468918324,0.1035032496,0.0339447334,-0.1683464944,0.0098640602,-0.1653106809,0.1199618429,0.0393372849,-0.0745342821,0.0359898694,0.1708622873,-0.0075327954,0.0471380465,0.1128140762,-0.0964086056,0.0286905617,-0.1209102869,0.0748324916,0.1342541724,-0.0519602373,-0.1000649109,-0.0553323105,0.0750692785,-0.1366338730,0.0226496812,-0.0284783319,-0.1280713677,-0.1053585932,0.0460990034,0.0868111551,0.0276344176,0.0207697395,-0.1107157618,-0.0103367148,-0.0413579568,0.0659609213,-0.1150511354,0.1205103993,0.0961164832,0.1731962860,0.0671725795,0.1660612822,0.0175846126,-0.0192857981,0.1513826251,-0.0787615851,0.0666016713,0.0161593575,-0.0742953420,-0.0240186881,-0.0289923530,-0.0890789926,-0.0564752594,0.0310729146,-0.0322123542,-0.0802472606,-0.0743576810,-0.0002198114,0.0815278590,0.1023902744,0.0776149109,-0.0166922100,0.0986237377,0.0673588291,0.0494059511,0.1605253220,-0.0610160492,0.0255182013,0.0335149951,0.0198689010,-0.0985992700,0.1611746550,0.0232962798,-0.1392955333,0.1764753759,0.0636830032,-0.0048392350,0.0912498161,0.0660536662,-0.0300788172,0.1342210919,-0.0791240484,0.0569863580,-0.0644414723,-0.0173382275,0.1796080768,0.0298057944,0.1392314583,0.1454060227,-0.1546512395,0.0281862244,0.0965816453,-0.0520392582,-0.0280750133,-0.1312774569,0.0650995448,0.0060085892,0.0172269270,0.1994591206,0.0166225284,-0.0536310226,0.0857207924,0.0878093764,-0.0557842329,-0.1264737993,0.0992017388,0.1298860013,0.0809187293,-0.0683484524,-0.1440757215,-0.0528722852,-0.0424288027,0.0177724287,0.0443743020,0.0066644428,0.0167957507,0.2023306638,-0.0445806384,0.0638569817,-0.1311122477,-0.0791481063,-0.0447542369,0.0593549982,0.0536862575,-0.0232233256,0.0278185382,-0.0665011331,0.0080314968,0.0573381633,-0.0425527394,0.0025000426,-0.0143959261,-0.1722860634,0.0248164535,0.1435947865,0.0285072122,0.0269726664,0.0779686719,-0.1348482370,0.0046653394,0.0546107441,-0.0405572616,-0.0613060892,-0.0934659392,-0.0106003331,0.0164965000,-0.0486843176,-0.0585528538,0.0769313648,0.0225924589,0.0635150298,0.1020260230,0.0113362148,0.0416303650,-0.1633099765,-0.2008691579,-0.0159840994,-0.0085208565,-0.0122021055,-0.1805258691,-0.0584769994,0.2031857371,-0.1200477481,-0.0952842087,-0.0477662571,0.0200962927,-0.0796058029,-0.1777937114,0.0583118498,-0.0183116347,0.0479142591,0.1559970677,0.0427665003,0.0018074323,-0.1980065554,-0.0117793838,0.1065997630,0.0357297808,0.0961572751,-0.0066903806,0.0928138793,0.1625443995,0.1002012342,-0.1935489625,0.0244453736,-0.2078053206,0.0712966472,-0.0860933512,0.0495191328,0.1337599158,0.1285835505,0.0834188312,0.1333243698,-0.0017201040,-0.1379937828,0.0655862391,-0.0835843906,-0.0502061173,-0.1280528903,-0.1156475097,-0.0439569168,-0.0424648970,0.0861722305,-0.0085337628,0.1125419214,0.0369320810,0.0172222387,-0.0531524345,-0.0506817661,0.0593285002,0.1133862659,0.0200035088,-0.1419838667,0.1122585237,0.0370265357,-0.0466050357,-0.0994760692,0.0352046601,-0.0283947699,-0.0001657038,0.1255738437,-0.1386875957,0.1691036373,-0.0219974518,0.0821468681,0.1783208847,-0.1080270335,-0.0036578632,0.0924168304,0.0919881314,0.0698504075,0.0129021229,-0.1254733354,0.0050914818,-0.1535865217,-0.0726454556,0.0921026319,0.0638394654,0.0145364041,0.0108246254,-0.2232922465,-0.1047526598,0.0296201967,-0.0140794562,0.0684430823,-0.0995019898,0.0895836577,-0.0146690719,-0.0247610528,0.1556013674,0.0091620199,-0.0893193185,-0.0631055310,0.0105606513,0.0726198107,-0.1223544180,0.0153772850,-0.1186759248,-0.0748657808,-0.0202192441,0.0970157683,-0.0682782680,0.0670706630,0.1166952774,0.0249416307,-0.1316951662,0.0831955001,-0.0243125893,-0.0047081066,-0.1005676612,-0.0140315834,-0.0670551732,-0.0767357275,0.0902574584,0.0265808702,-0.0181550886,0.1923734248,0.0378465056,-0.0834065005,-0.0944565237,-0.0059319618,0.0329763778,0.0455341600,-0.1889864504,0.0518232025,0.1350513846,0.1169928089,-0.1202770099,0.0904212818,-0.1184894890,-0.0540238060,-0.0060532941,0.0067567560,0.0847161785,-0.0409790836,-0.0650620759,-0.0717977583,-0.0517841019,0.1343284547,0.0906656981,-0.0750845894,0.1589554101,0.0070517031,0.0554979593,0.1036332622,0.1666947156,0.0986950174,0.0268398803,-0.0401898846,0.0538352132,0.0301987156,-0.0269238260,0.0055174213,-0.0728528425,-0.1563320309,0.0531271212,-0.1058017984,0.0841282159,-0.0274570826,-0.1104820594,0.1175248101,0.0042831642,0.0720668808,0.0654731467,0.0336295627,0.1108293608,-0.0613071211,-0.0443814434,-0.0996712744,-0.1032121256,-0.1047296301,-0.0468615182,0.0851535872,-0.2161680311,0.1533645391,0.1862752587,0.1251612306,-0.0896468386,0.1200333238,0.0295068081,0.0204191078,0.1164476573,-0.1008992419,-0.0619507693,0.0327446833,0.1511490792,-0.0776134133,0.1606905758,-0.0166740902,0.1315184981,-0.1604272872,0.0048661786,-0.0601277538,-0.1068035290,0.0014916569,-0.0797001868,-0.1279942095,-0.1451232135,-0.0856666714,0.0666999221,0.0424549840,0.0913630053,-0.1285255551,-0.0836052895,-0.0422437340,-0.0358892195,-0.0586278439,0.0764391348,-0.0166914109,0.0922536105,-0.0168094691,-0.0855487734,0.0622002669,0.1425859481,0.0139414016,-0.0475429296,0.1063986123,-0.0413275920,-0.0731133595,-0.0896373913,0.0244459473,0.1991066784,-0.0650920123,0.0040670880,0.1459784955,0.1164448783,0.0870442763,-0.0481121875,0.0867467895,-0.2115376741,0.0374314934,-0.1227632463,0.1150939539,-0.0179575589,0.0118058156,0.1206714436,-0.0170184635,-0.1542196870,0.0361779518,0.1930298656,0.0780690089,-0.0500799268,-0.0968909338,-0.0010536985,0.0995713025,0.1143876016,0.1506065279,-0.0964269191,0.0641651228,0.0079098921,0.0606643967,-0.0845012739,-0.2138555944,0.0680887178,-0.0674174353,0.1011984348,0.1474631578,-0.0205954276,-0.0455029979,0.1714604199,-0.1621305048,0.0974598601,-0.1767847985,-0.0854148716,0.1119148210,-0.1372341961,-0.0550095253,0.0303464085,0.0012912817,-0.1101149768,-0.0831253156,0.0110148331,0.1327808052,0.0713065118,-0.0056469436,0.1147930548,0.0424175076,-0.0919044912,0.0590183698,0.0311771967,0.1826677024,0.0612436645,-0.0986696333,0.1424801797,0.1522280425,-0.0477846861,0.0341780968,0.0391833149,-0.2195979208,-0.1254263669,0.1403807402,0.0061394442,-0.1153926775,0.1051009074,-0.1744315177,-0.0970046446,0.1919247508,0.1329507679,-0.0657588392,0.0085929250,-0.0738829151,-0.0907076746,-0.0162327159,0.0031601146,-0.0927615389,0.1536089331,0.1790036112,-0.0221478064,0.1642870009,-0.0219469778,-0.1593184322,0.1124267057,0.0467604361,-0.0980458707,0.1055520400,-0.0520916209,-0.0942848027,-0.0044406801,0.0995991752,-0.0714206100,-0.0226091631,-0.0612433776,0.1055220589,0.0001203853,0.0331980251,0.0633476377,-0.0648529977,0.1082679853,-0.0360050462,-0.0458409972,0.0703584254,-0.0742456093,-0.1193474531,0.1689545661,0.1318520159,0.0289337747,0.1091790125,0.0375990309,0.1584342122,0.1470591873,-0.0656292737,-0.0147234872,-0.1294491589,0.0979014114,-0.0701749325,0.1720046103,-0.1043803766,-0.0529787615,-0.0552003346,-0.1154696569,0.1415484399,0.0681653172,0.0139610572,0.0612950698,-0.1584172398,0.1526189446,0.0380300432,-0.1686568111,0.1695235074,0.0769660771,-0.0435481220,-0.0789693668,0.0779252425,-0.1496179998,-0.0748979449,0.0495823137,0.1147095412,0.0418725014,-0.1602549106,-0.1466204971,0.0870161578,-0.0831594840,0.1646939963,-0.1234583184,-0.1166349351,0.1920076609,0.0088874362,0.1753929704,-0.0378946327,-0.1810117662,0.0378004499,0.1800701320,-0.0539590381,-0.0186403003,0.0423936658,-0.1120234430,0.1159476265,0.0341259129,-0.1671153754,-0.0052990438,-0.0307809319,-0.1003339589,-0.0528465137,0.0077513731,0.1438917816,-0.0639832988,-0.1019843072,0.0433697701,0.0652847961,-0.0835197717,0.1105803549,-0.1309079975,0.1766488701,-0.0808696300,-0.0156030962,-0.0141002219,0.0706317499,0.1131862849,0.1776768714,-0.0384052545,-0.1485986859,-0.0848993286,-0.0192345772,0.0620984994,-0.1045154706,-0.1295236349,0.0244900286,-0.0564494804,-0.1476242393,-0.1080886275,0.1123694554,0.0753339082,-0.0529955700,-0.0576249808,-0.0831072479,-0.0018539669,0.0417094007,-0.0559619591,-0.0512847491,0.0291310623,0.1439684778,-0.0337986462,-0.0403049216,0.0509874448,-0.1077345088,-0.0565378554,0.0981833860,-0.0274214093,0.1881743670,0.1793126762,-0.1804276705,0.0996890217,-0.1003974155,0.0889806375,-0.1315192729,0.0245544929,-0.2343236804,0.0053427313,0.0969987884,0.1375394613,0.0651424155,-0.0684691295,-0.0234367587,0.0395568497,0.1032136604,0.0687709823,-0.0077311308,0.1508047283,-0.0218271315,-0.0334121287,0.0092858123,-0.0848256722,-0.1200651526,-0.0243745483,0.0225372445,0.1440599859,0.0091593703,-0.1175363734,-0.1171418205,-0.0284732729,0.1841079742,-0.0436159596,0.0531795621,-0.0232752766,-0.2184450328,-0.0498341210,-0.0713462010,-0.0595738180,-0.0485248081,-0.0064798798,-0.1190669015,0.1419589221,0.0121317888,0.0750411078,-0.0719165206,0.1844285429,0.1530909687,0.0322919078,0.1414674222,0.1664460301,-0.0155065749,-0.0812203735,-0.0051625557,-0.1320022792,-0.1174165979,0.0365394317,0.0462384708,0.0873685852,0.1276888102,-0.2097087055,0.0956867337,0.1000910923,-0.0808487609,-0.0052919062,-0.0361122862,0.0133861918,0.1209721565,0.0526677817,-0.0350622088,0.0750249252,-0.0996796265,-0.0261121169,-0.0630736202,-0.0589758046,-0.0111374659,0.0959998369,0.0441931039,0.0457840636,0.0755860731,-0.0456937477,-0.0849565268,-0.1673436910,0.1193049252,0.0914049968,0.1281296760,-0.1685433537,0.0476852991,0.0811736062,0.0298005752,0.0067647733,0.0685268715,-0.0545381531,0.0850168467,0.0563970767,0.0772034526,-0.0057707108,0.1370201558,0.0933890119,-0.0506747030,-0.0961524695,-0.0425571986,0.0498845465,-0.1101413295,-0.0269543100,0.0351686105,-0.0805762112,0.0240516942,-0.1220815405,-0.0956632867,-0.0582056977,-0.0832569674,-0.0255910531,0.0199595708,0.1031095088,-0.0844056085,0.0563179217,-0.0327189527,-0.0656056851,-0.0927872807,0.0766058713,-0.1526632309,0.1715111583,0.0066915024,-0.0343309753,0.0918016583,-0.0920765027,0.0001709955,0.0331175476,0.0495171770,-0.0175518524,0.1212936416,0.0231269524,-0.0502561666,0.1069985107,-0.0785177499,-0.0100964522,-0.0102064321,-0.1456195712,-0.0040162676,-0.0063375724,-0.1111743376,0.0179188587,-0.0126198735,-0.1279314458,0.0128441034,0.1253719330,-0.0276253298,-0.0659192950,0.0579554737,-0.0210143179,0.0904178694,-0.1354404539,-0.0543896891,0.1306353956,0.0112382630,-0.0089130187,0.1117447391,0.0465280451,-0.0004452606,0.0130145466,0.0595288351,-0.0236576796,-0.0687716678,0.0363281667,0.1509446204,-0.0149089070,0.0976405442,-0.0351692736,-0.0484978706,-0.0901495293,-0.0393424109,0.1242017224,0.0283365119,-0.0127287982,0.1920082420,-0.0293956641,0.0068377834,0.0180904008,0.0057880222,-0.0648972094,-0.0842173696,0.0297600422,-0.1303619593,-0.0146487989,0.1661561728,0.0433420837,-0.0385510400,-0.0587521605,-0.0454680994,-0.0951023027,-0.0733131543,-0.0818021074,-0.0204288624,0.0367991999,-0.0931214765,0.0182738248,-0.0779461488,-0.2259817421,0.0301677883,0.1562394649,0.1699202508,-0.0933228731,-0.0464581959,-0.1365325004,0.0666274428,-0.0974952132,0.1805205792,-0.0533438884,-0.0524924621,-0.0069501945,0.0863189548,0.0257854424,-0.1008880585,0.0858609453,-0.0942141339,-0.0340874568,-0.1351201385,-0.0942514911,0.0408258922,0.0076384055,-0.1550737172,0.1045800075,0.0296895728,-0.0729678720,0.1136842445,0.0083586378,0.0578644201,0.0643591434,0.0650470629,0.0272752326,0.0575842410,0.0461824983,-0.0763261318,-0.0883709490,0.1459930986,-0.0192524996,0.0506901555,-0.1009903997,0.0187586509,-0.1416511238,0.0160485227,0.0005027159,-0.1506463438,-0.1268204600,-0.0612541474,-0.0902677551,-0.0230859034,-0.0268490333,-0.1425267756,-0.1803767681,0.1627786756,-0.1331331283,-0.0988627151,-0.0576612130,-0.0369021036,-0.0873373896,0.0697737560,0.0674502179,0.0038061175,-0.0105673494,0.1123948246,-0.1443468183,0.1887000054,-0.0069446228,0.0926530510,-0.0507158525,0.0749935061,-0.0128567088,0.0749330819,0.1067944691,-0.0124013498,0.2111968696,-0.0769883767,0.1109042317,-0.0808647275,-0.0761181042,0.0256064422,-0.0357667729,-0.0750728995,0.0296598561,-0.0288596638,0.0914688855,-0.0926114768,-0.0572244748,-0.0482780375,-0.0896677002,-0.0313845612,-0.1998095214,0.0658515692,-0.2151407599,-0.0629989281,-0.1416933239,0.1256374568,-0.2146524638,0.0876132324,-0.0511160567,-0.1486797631,-0.0709956959,-0.1094489917,0.0487788431,0.0793985873,0.1469238698,-0.0645743161,0.1025832668,0.0585197471,-0.1159534603,-0.0733268112,0.1512683183,-0.0286708083,0.1605616957,0.1114752889,-0.1651138961,-0.2286731750,-0.0470337085,-0.0508106053,-0.0916225091,-0.0988563001,-0.1315629184,-0.0892878026,-0.0828243345,-0.1288231611,0.0772631764,-0.1576774716,0.0534100793,0.0831197277,-0.0084054545,-0.1617058516,0.0880597085,-0.1873083711,0.0959377661,0.1968847215,0.1469664425,0.0006411480,0.1303258538,0.0044305008,0.0619753413,0.1715009809,0.0410941951,-0.0606442317,0.0554437451,0.1370038390,-0.0025822925,0.0916094780,-0.0109308092,0.1570359766,-0.1104904786,0.0474925935,0.0764354989,-0.0405353457,-0.0735503584,0.0759466738,0.2172329575,-0.0212151781,-0.0673228502,0.0261613037,0.0677938759,-0.1032450795,0.0436026864,-0.0781256706,-0.0670004487,0.0661963150,-0.0213723369,-0.0513353162,0.0309990197,0.0127519695,-0.0758357719,0.1388725191,0.1093720496,-0.1274247020,0.0890481398,-0.0363664366,-0.1361953020,0.0283893831,-0.0185908023,0.0091375187,0.0646685511,-0.0220270734,0.0399305671,-0.1379507780,-0.0095146690,-0.1263949722,0.0563677177,0.0814641267,-0.1329802573,-0.0802069828,0.0809814781,-0.0094376616,0.0639311597,-0.1048395336,-0.2313620448,0.0699303374,-0.1120355427,0.0003989335,0.0112581523,-0.0687026754,-0.1264189184,-0.1325495392,-0.0397609249,0.0840856135,0.0533555970,-0.0692482442,-0.0135249505,0.1244743690,0.0840381607,-0.1975364387,0.0693451241,-0.1060763970,-0.1387029737,0.0765688866,0.0971537083,0.0174312554,-0.1332350373,0.0123562682,-0.0194395240,0.0770286098,-0.1230524704,-0.0984158590,-0.1001893058,-0.0398559831,-0.1162609234,-0.1386531591,0.0570770539,-0.0438589826,-0.0419840962,-0.0718518719,0.0937121138,0.0083938371,-0.1402394176,-0.0436623320,0.0484998375,0.0045447671,0.0116329808,-0.0819915384,0.0544163585,0.0798030272,0.1445139647,-0.1149567738,-0.0989274383,-0.1231156290,0.0224270299,-0.0953052044,-0.2181129307,0.1230180338,0.1589555442,0.0171860829,0.0121988598,0.1121035814,-0.0068230382,-0.0158950649,-0.0969789550,0.1707680225,0.1368882358,0.0604268722,-0.0000528157,-0.0087183760,0.0094250236,0.0769250914,0.0179191697,-0.1507068276,0.0247002877,0.0305180307,-0.0060482654,0.0047765272,0.0986075178,-0.0529817902,-0.1819279194,0.0714619309,0.1400151402,-0.0357592106,-0.1724663973,0.0648119077,0.0815454051,0.0615441725,0.0272826087,-0.0300836936,-0.0517672151,-0.0420558751,-0.1201667786,-0.0435650796,-0.0440402962,-0.1241304502,-0.0036529156,-0.1630411744,-0.0887733996,-0.0138982004,0.0199215356,-0.0650471747,-0.0904661044,0.0377486348,0.0712754205,-0.0733502358,-0.1021456122,-0.0189961996,0.0781379491,-0.1271784604,-0.0054166717,0.0290062800,0.0340276137,0.0249281414,0.0641471893,0.0415876880,-0.0995842591,0.1130473837,0.0737457350,-0.1021149680,-0.0176511202,-0.0656426325,-0.0456790179,0.0980771407,0.0895993039,-0.0224150941,0.1451993585,0.1331632882,0.0629843399,-0.0041072858,-0.0768017769,0.0328644626,0.0909598172,-0.1199316233,0.0629641041,0.0740733892,0.0268941317,-0.1537582576,0.1338274628,-0.0830719396,-0.2179710418,0.0083118686,-0.1808638424,-0.1341397762,-0.0506823622,0.0874749273,0.1075255424,0.0255038980,0.0388996974,0.1024615988,-0.0176604018,0.0083528319,-0.0209528692,-0.0212394912,0.0041268454,0.0161547326,-0.1392688006,-0.0302752182,-0.1510693133,0.1216200888,0.0986890569,0.1523895562,-0.0794814602,-0.0998395681,-0.0240008235,-0.1081238464,-0.0521489047,0.0952203423,0.0405055508,0.0800594091,0.0885181949,0.0412212238,-0.0477973334,-0.1576470584,0.0101855444,0.0848914087,-0.0156707894,0.0826501176,-0.0597205199,-0.1274928302,-0.0036973169,-0.1797978133,0.1023680940,0.0263496898,-0.0110236146,0.1827464104,0.0860193297,-0.0987580195,-0.0699349120,-0.0563495867,-0.0352110192,-0.0035188554,-0.0430278666,0.0022155698,0.1221033484,-0.0054881088,-0.0769467056,-0.0109116323,0.1645398885,0.0231045149,0.1036717743,0.0603049807,0.0736946091,-0.0977914631,-0.0794663206,0.1075352952,0.0144824591,-0.1032147706,-0.0280513205,-0.0591852218,-0.0077958801,0.0636796355,-0.0659155250,0.0701423585,-0.0703944638,-0.0976059735,0.0415278785,-0.0865495354,0.1053432748,-0.0613760352,-0.0325304195,-0.0126578305,0.1444563121,-0.2149289697,-0.2478044480,-0.0408286490,-0.0560500063,-0.0806950033,-0.0498903915,0.0614926293,-0.1530920714,0.1344399452,-0.1148806587,-0.0168944634,-0.0608520955,0.0613549761,-0.1557398140,0.1898462027,-0.1620397866,0.0262209065,0.0680631697,0.0904816836,-0.0532692075,-0.1028773338,0.0618307367,0.1053796262,-0.0348678753,-0.0395843312,-0.1838103235,-0.0313796699,0.1180333793,-0.1624936014,0.0696781799,0.0902700946,0.1481158286,0.0988461152,0.0118545843,0.1194278374,0.1792963445,0.0544214658,-0.0045372890,-0.0010511109,-0.2104369700,0.1372044086,-0.0202907342,-0.0002521365,0.1958379298,0.1180280894,0.0706420243,0.0028350742,0.0531028807,0.0822402462,0.0062179146,0.1225192174,0.0954870135,0.1257389635,-0.0907086208,0.1223089769,-0.0469732508,0.1294990778,0.0025641820,0.0172932353,-0.0145747336,-0.0539451018,0.1280599087,-0.1442720294,-0.1908432543,0.0492777340,0.0029892139,-0.0747098029,0.2088314891,-0.1424130201,0.0817864165,-0.0194291919,0.1014402360,0.1192367151,-0.1253936142,0.0394990891,-0.0457155630,0.0004525476,-0.1304187775,0.0088704880,-0.1000696421,-0.0873374343,-0.0127036152,0.0867174342,-0.1025074795,0.1130934432,-0.1726222485,0.0074141934,0.1380766034,-0.0477801822,0.0116054630,0.0190872885,-0.0444812849,-0.0539952368,0.1015059203,0.0812058523,0.0708803162,0.0255799424,-0.0724354982,-0.0026591765,-0.0964809805,0.0731078610,0.0317392573,-0.1375969350,0.1618598849,-0.0908351839,-0.0506616943,0.1812741309,-0.0679790750,0.1081371531,-0.0838155895,0.1158594191,-0.0009075726,-0.1095420718,-0.0295825787,0.0061505707,-0.0282116104,-0.0452833511,-0.1356822550,-0.0899877250,0.0709636062,-0.0899777487,0.1244351417,-0.1490589082,0.0285512507,0.0108617358,0.0142488983,-0.0176564753,0.1164693162,0.1023806930,0.0574786775,0.0894080997,0.0626892596,-0.1147773787,-0.0925967097,0.0128404442,-0.0614302009,-0.0465248227,-0.0465312339,0.0147549482,0.1587564498,-0.0480673164,0.0279993322,0.1133632138,0.0382513888,-0.1604858041,-0.0174998790,0.0267101545,0.1320361495,-0.0665067658,0.0047674091,-0.1835557669,-0.0899607912,0.1446825564,-0.0666858852,0.0775896981,-0.0168756675,0.0550709553,0.0328975879,-0.0453539900,0.0185487494,-0.0009690880,0.0693395212,-0.1648024172,0.0325683616,0.0491102897,0.1635836363,0.0289414786,0.0706915930,0.0034151047,0.1254076213,0.0501657277,0.0211896561,0.0216534212,0.0909656510,-0.0403945297,0.1433086246,-0.0306881331,0.0653273687,-0.0137308184,0.0922857299,0.1085967869,-0.0829850733,0.0608534403,-0.0411542319,0.0390202366,-0.0911759287,-0.0607025921,0.0611525290,-0.1210353822,-0.1285557896,-0.0289275274,0.1661163270,0.1067330390,-0.0899909809,0.0538835824,0.0758530721,-0.0037953828,0.0510024689,0.0938582271,-0.2337921411,-0.0626155138,0.0639776811,-0.0354339555,0.1360202134,-0.1110209972,0.2120163143,0.1020028666,0.0383315124,0.2439158410,0.0182107016,0.0619051419,-0.1468581110,0.0108463103,0.0788532123,-0.0014103483,-0.0367425308,0.1496185660,-0.1173377186,-0.0170058031,-0.1030123383,0.0374596678,0.0482314229,0.0410681553,-0.0407454446,-0.1401865035,0.1083024219,-0.0601243749,0.1042167768,0.0573699847,-0.1115946472,0.2510178983,-0.0634084344,-0.1639369428,0.1414250433,-0.1665956825,-0.1152014211,0.0485643148,-0.1738502979,0.0773057863,0.0735185668,0.0396202356,-0.0534106232,0.1303179264,0.1912192851,0.0798494443,0.0200471990,0.0396608599,0.1428354979,-0.0349277258,-0.2436652780,-0.1174561754,0.1602574736,-0.0325835794,0.2423484921,-0.0324578136,0.0722847506,0.1059586629,-0.0009374502,-0.1426236331,-0.0645903945,0.1430395544,-0.0579276457,0.0384868644,-0.0110856052,0.0506170131,0.1838835925,-0.1496988684,-0.0934134647,-0.0105700586,0.0028704971,0.1856753081,0.0567982644,0.0717405528,0.1724796295,-0.0240387321,0.1366553605,0.0087756282,-0.0235999711,-0.0341364704,0.1044639125,0.0476081371,-0.1993370652,-0.1077814624,0.1061127409,-0.0652697906,0.0490140691,-0.1643606424,-0.0859683231,0.0422665961,-0.1060253307,0.2685838938,0.0464670844,-0.0500299409,0.1200593039,0.0063241026,-0.0161875915,-0.1175522432,0.0997500941,0.0163187310,0.0389728658,0.0332134366,0.2280910313,-0.0289243385,-0.0500491969,-0.0494920313,0.0691069961,-0.1552822590,0.1440250725,-0.1085138246,-0.1796603799,0.1196011081,-0.0281577818,-0.0817923322,0.0606204383,0.0311595369,0.0087123774,-0.1345805377,0.1441868395,-0.0694296360,-0.0673554912,-0.1831843704,-0.0785755068,-0.0489469357,0.2035535872,0.1140923053,-0.0143361837,0.0810022578,0.0576167479,-0.1778164804,-0.0607815608,0.0062017371,0.0919436291,-0.1309033930,-0.0221825298,-0.0969165564,0.0496952794,0.1646404564,0.0779630467,-0.1595931202,-0.0005793390,0.0866860077,0.0317076445,-0.0146498764,0.0993944854,0.1214258447,-0.0734493732,0.1454479843,-0.0771285370,-0.0463234968,0.1068093255,0.1393543780,0.2119800895,0.1246839091,0.0172173586,-0.0721123144,-0.0257864520,-0.1055940539,-0.1082919016,0.0732735097,0.0972586647,0.1356357485,0.0523447581,-0.0712303668,0.0862036422,0.0785049871,-0.1323790550,0.0035207449,0.0177097488,-0.1696930975,-0.0478491597,0.0135931773,-0.0240326822,-0.1082843915,0.0480493419,-0.1379512697,0.0447723716,-0.0792085677,-0.0885170028,0.0276656691,-0.1916895509,-0.0903871059,-0.0370650738,-0.0693363026,0.1900451481,0.1395333707,-0.0323173366,0.0083481530,-0.0262500644,0.0155342035,0.0952306837,-0.0435542166,-0.0261682589,-0.0491476282,-0.1014565602,-0.1328853369,0.0197026320,-0.1691928655,0.0662649795,0.1371155530,-0.1575553119,0.1242978796,-0.0084323380,-0.0647510290,-0.1459344774,0.0892058834,0.0955781862,0.1602001041,0.0322097614,0.0472217761,-0.0071482472,-0.1421915591,0.0538458340,0.0063320980,0.0249185525,0.2288076729,-0.1829675436,-0.0754396766,-0.1340218186,-0.0737951547,-0.0325210392,0.0067932326,-0.1080156639,0.1194929630,0.1434788257,-0.0715845302,0.1021233425,-0.0644659773,0.0176244359,-0.0708432272,0.0020993678,-0.0489768125,-0.1140058711,0.1123572886,0.0834424049,0.1386988610,-0.2007820755,0.0015988473,0.1687461585,0.0669434369,0.0136704808,-0.0032821705,-0.1120114028,0.0641563833,-0.0600971989,-0.0638444275,0.0619710386,0.0941660106,0.1479717195,-0.1308052242,-0.1114428863,0.0155893564,-0.0547105819,-0.0542384833,-0.1422054321,-0.0487150662,0.0192766655,-0.1544574201,0.0585736409,0.0971028358,0.1752400249,0.0968601257,0.0294694807,0.1200659350,-0.0647503212,-0.1028120294,-0.0786141157,0.1497753263,0.0953698456,0.0936289653,-0.0191537384,-0.0685695857,-0.1473635137,-0.0906125233,-0.1473402977,0.0448190458,0.0783268437,-0.0978516117,-0.1530941725,-0.0320684090,-0.1497229636,-0.0005338021,-0.0032545214,0.0975453705,-0.1275304854,-0.0623059422,-0.0961783379,0.0379002392,-0.0430300273,0.0686485693,-0.0366506912,-0.1023991331,0.0487288125,-0.1411997527,-0.0292348396,-0.0276508182,0.0528444871,0.0479590856,-0.0978267938,0.0672410205,0.1861763895,-0.0091546159,-0.1646606922,-0.1338500232,-0.0880300552,0.0731120259,0.0629908144,0.1509665698,-0.0900067687,-0.0873853713,0.1081475541,0.1825723350,0.1005011573,0.0688950121,0.0217486452,-0.0294861700,-0.0800635070,0.0466073863,-0.1179152876,0.0301009323,0.0999643654,-0.0344637968,-0.0108914683,-0.0966927558,0.0815150365,-0.0071751485,-0.0680207089,0.0365682617,0.0231726449,-0.0506539345,0.1661404222,-0.1680315882,-0.1023007184,-0.0443633720,0.0018407512,0.1241577342,-0.0758681297,0.2441281229,0.1123805717,-0.0583713315,0.0074113617,-0.0904243514,-0.0110044228,0.0390773155,-0.0681157559,0.1407262087,-0.0213192273,-0.2122023255,-0.1524958611,0.0055847298,0.0639099479,0.0066402624,0.0615243241,0.1256850362,0.0000209093,-0.0589321703,-0.1187989637,-0.1107347310,0.1397908181,-0.0161801707,0.0595337749,-0.1125446334,-0.1088002473,0.1122015119,-0.0584091172,-0.2281064242,-0.1920797527,-0.0570453927,0.1331420392,0.0049504139,0.0689865574,-0.0019396532,-0.0337368473,-0.0131626390,0.0279003885,0.0359500200,-0.0713838041,0.0648843125,0.0124320770,-0.0164514929,0.0756951496,0.0342122167,-0.0847250894,-0.0220997334,-0.0852186382,-0.0862830728,-0.1190714091,0.0725279078,-0.0049463576,-0.0887441412,-0.1909383237,-0.1297551990,0.0651186034,0.0102977687,0.0929364115,0.1269103289,0.0537837073,0.0022671400,-0.0775834993,-0.1775160134,-0.0160093512,0.1224201769,0.0932221264,0.0077038202,0.0939557850,-0.1341353357,-0.0773775280,0.0935831293,0.0130654825,-0.0894544497,0.0698636398,-0.0175741725,-0.1019633114,0.1410259157,0.0163396355,0.0985164940,0.1095023081,-0.1071576625,-0.0471910201,-0.1069481298,0.0185655486,0.0819431543,-0.0841846317,0.1674120277,0.0327642821,-0.0635419488,0.1723849624,0.0771217495,-0.0763101354,-0.0658873841,-0.0505110957,-0.0143099707,0.1389797032,0.0243461579,0.0158808529,0.2007422596,-0.0837442726,0.0840275511,0.1606537551,0.0210353937,0.0534635261,0.0024076472,0.0005526372,0.0610092096,-0.0162644368,-0.0485117137,-0.1962667704,-0.1143664643,-0.0247023031,-0.1837118119,0.0569247380,0.1040089652,0.0379967466,0.0674919859,0.1399145722,-0.0504962355,0.0809869543,0.0221145041,0.1730071306,0.2035878003,-0.1230356395,0.0418740883,-0.0437262803,0.1392131299,0.1205953881,0.0037180721,-0.0838279203,0.1944404542,-0.0547222346,-0.0792231113,-0.1382093877,-0.0449455120,0.1058866233,-0.0451543294,-0.0752322078,-0.0530050434,0.1342175901,-0.0168044847,0.0695342645,0.0610854737,-0.1512100250,-0.0546857603,0.0582170896,-0.2117606997,-0.0717483386,0.0579381026,-0.0389976948,0.0464961529,0.0047711032,0.0706895590,0.0633217916,-0.0595695972,-0.0007376483,-0.0696381480,-0.1942674071,0.0654478744,0.1501177847,0.1017675623,0.2151983827,0.1070041060,0.0710604712,0.0726785511,0.0476507694,0.0515787080,-0.0495628640,-0.0549208447,0.0785530508,-0.0880218893,0.0347748101,0.1780769080,0.0309812631,-0.1775145829,-0.1762844026,-0.1793782562,-0.0766300261,-0.0827776417,-0.0409611166,0.0716989413,0.0763228238,0.0032198115,-0.0163761880,0.0084263226,-0.0470079258,0.0017444893,0.0356074162,-0.0344230868,0.1058034301,-0.0380180515,0.0323268063,0.0630930513,-0.0613633990,0.1046750098,-0.1217716038,-0.1565122753,0.0121367034,0.0404682718,-0.0025659930,-0.0043562497,-0.1412647367,0.0223323777,-0.1289049685,-0.0209670719,0.1273758560,0.0691025853,0.1194538325,-0.0995046496,-0.0534516610,-0.0986528099,-0.0573341027,-0.0668429360,-0.1872917414,0.0003496143,-0.0386983790,-0.0404665843,0.0250516627,0.0425055623,0.0717961416,-0.0193306059,-0.0423631221,0.0728010312,0.1724158973,-0.0044803103,-0.0897401571,-0.0978156477,-0.0631992891,0.0195664689,0.1148546338,0.1002065018,-0.0684130490,0.1116737500,0.1316210628,0.0850228295,0.0030234109,0.1026161760,-0.0195564087,-0.0473702103,0.0246894807,0.0374307930,0.0601479709,0.0587057695,-0.1687918156,-0.0065191099,0.0079581449,-0.1037753969,0.1369061023,-0.0410179682,0.0481724665,0.0964287370,0.0335402004,0.0172024406,-0.1738326848,-0.0489725024,-0.0363743231,0.0718248412,0.0128993262,0.0061262972,-0.0308746994,-0.0174933858,-0.0060574068,-0.0553117804,0.0589513071,0.1346642077,0.1329089105,-0.1115664467,0.1585348547,-0.0348782763,-0.0297689997,0.0818435699,0.0209805351,0.0461668782,0.0512751862,0.1228038669,0.0272569675,0.0513131432,0.1476295739,-0.0115020303,-0.1100910753,0.0209762510,0.0700173005,-0.1424105614,-0.0718775168,-0.0846920162,0.1291341782,-0.1338645965,0.0868515894,0.0176850948,-0.0730039105,-0.0315770172,-0.0094983215,-0.1311709881,-0.0104721263,-0.1006310135,0.0779552832,0.1585013717,-0.1245765612,0.1352230012,0.1592960507,-0.0002224248,0.1641965210,-0.1690601259,-0.0385820679,-0.0167131647,-0.1882487983,0.0513770245,-0.0283822548,0.0495104194,0.1392025054,0.1161030307,0.1709331423,0.0416127034,0.0188560691,0.1377989799,0.0959590897,0.0298997778,0.1321316063,-0.0975693241,0.0462613404,0.0639137626,-0.1277613342,0.0134260412,0.0631675497,0.1020061001,0.0632115752,0.2011479586,-0.0561831035,-0.0192739628,-0.0773543864,-0.0839584023,-0.0192317255,-0.0092917345,-0.1350328773,0.0865770802,-0.0970496312,0.0928474516,-0.1280305237,0.1065966934,-0.0892790854,0.0975361690,0.0748203024,0.1019054502,0.0994274542,-0.0111702913,-0.1100586951,-0.0830446631,0.1703457981,-0.0483953655,0.1294225007,-0.1456888616,-0.0387861878,-0.0039272867,-0.0885685235,-0.0734535605,0.0554974154,-0.1370148063,0.0023296233,0.1772966534,0.0337673724,0.0488870889,-0.0643594190,0.0122722751,-0.1072559655,-0.1543737501,-0.2002485096,-0.0513603948,0.0965227336,-0.1056327447,0.0281885378,-0.0355796777,0.0630108863,0.0835670009,0.0227470864,-0.0898266435,-0.0178902876,0.0433810651,-0.1225477755,0.0438750871,-0.0373340659,-0.0233912636,0.0683836117,0.1361991167,-0.1109779924,0.0650224015,-0.0506535955,0.0741846338,0.1624976546,-0.0523668826,-0.0016154946,0.0973499864,-0.0678037554,-0.0795119032,0.0770246312,-0.1681199521,0.0409962647,-0.0169202946,0.1051327661,0.1756415963,0.1259290576,-0.1215562671,-0.0243871454,0.0121653955,0.0887462199,-0.0180281159,-0.0195747297,-0.0621706881,-0.1045341045,-0.0447254553,0.1834550351,0.0940160528,0.0667137653,0.1264934838,-0.1292305887,-0.1207612604,-0.0985976085,-0.1540966928,0.1378195882,-0.0776761323,-0.1771554649,0.1459875703,0.0223736390,0.1384093910,0.1951153576,-0.1157107204,-0.1049234271,-0.0291060638,-0.0065765986,-0.0841199607,-0.0314664952,0.1275076419,0.0614280030,0.1815845519,0.1784790009,-0.0793287680,-0.0179209076,-0.0554829501,-0.1791054606,0.2208375782,-0.0195392370,0.0143792881,-0.0356961340,-0.0882192031,-0.0559791885,0.0491828248,0.1710728109,0.0719298422,0.0319330059,-0.0577629134,-0.0469948873,0.0794983059,0.1552095860,0.0955231711,-0.0222218558,-0.1528023928,-0.1657359749,0.1613425612,-0.0425794125,0.1082071587,-0.1066942737,0.0663887188,0.1301767826,0.0092778476,0.1404518783,-0.0216176733,-0.1127554774,0.0764216706,0.1269889027,0.0150506850,-0.1558096856,0.1185551062,-0.0599596761,-0.0241849478,0.0156944990,-0.0851549730,0.0551796742,-0.0232853834,0.1035369858,0.0932803378,0.0406691730,-0.1485529095,0.0582764931,-0.0687214211,-0.0019323203,-0.1602322012,0.2469468713,-0.0298082046,0.0459548421,-0.0476386920,-0.0783919841,0.0680531859,-0.0654289275,-0.0571319573,0.1502141058,-0.0817826912,-0.0255158879,0.0814680606,0.0705617815,-0.0215028282,0.0387892649,-0.0570374988,0.0632125512,-0.1423573941,-0.1271765530,-0.0921063721,0.0807559416,-0.0413885601,0.0038618546,-0.0818904117,0.0794067234,0.1707547605,-0.0008283451,-0.0269288793,0.0316256322,-0.1306762695,0.2114812136,0.1334977746,-0.0879125819,0.0647416115,0.2169829160,-0.2638815343,-0.2141692489,0.1726062149,0.1251400560,0.1639775038,0.0987423286,0.0371256955,0.0572834574,-0.0200750362,0.0550111085,-0.0446605384,-0.1751433611,-0.0454292484,-0.1411817223,0.1494889408,-0.1105250642,-0.0637282357,-0.0128456214,0.1371896118,0.0795505494,-0.0917962790,0.0338892862,0.0293050148,0.0112193637,0.1861290783,0.1013557613,0.0060177683,-0.0118272137,0.1183426157,0.0925780460,0.0093964310,-0.0285876058,0.0761636049,-0.0150441304,0.0580291934,-0.0252831951,-0.0066128885,-0.1242297366,-0.0122800302,-0.1438874155,0.1058880538,-0.0548614562,-0.0637205020,-0.0300034676,-0.2460217327,-0.1113851517,0.1140092164,-0.0176591761,-0.2380373180,-0.0692036077,0.1276311874,0.2107810229,-0.0781104341,-0.1843701750,0.0253904257,0.0198404975,-0.0714969859,-0.0090009812,0.0453249142,-0.0556351505,0.0440122671,0.1349341571,0.2230946124,0.0365099348,-0.0385410301,-0.0401768200,-0.0410481989,0.0052718814,0.0062672552,-0.0694501996,-0.1460381448,-0.1216077507,0.1399271041,-0.0354314446,0.0587418377,-0.0415552892,-0.1253854036,0.0804131404,-0.0461843126,0.0749380141,-0.0343724191,0.0173185039,-0.1222473159,-0.0559712946,-0.0112369070,-0.0367786251,0.0584148988,0.1267880499,-0.0455634482,-0.1283812523,0.0727887005,0.1143658385,0.1674298942,0.1682017446,0.0511140637,-0.0383291021,0.0745749846,0.0297398139,-0.1505849063,0.0085411873,-0.0456701368,-0.0053820112,0.0689720139,-0.1941545010,-0.0104576638,0.0911555141,0.0728287548,-0.0885761455,0.1316010356,-0.0069967075,-0.0125115849,0.0615005940,-0.0010951983,-0.1063388363,0.1694658101,-0.0255085900,0.0064002927,-0.1884902567,0.1023056060,0.1090590432,-0.1360709220,0.1164814457,-0.0236609504,-0.0028960395,0.0064469315,-0.0318061262,0.0031345473,0.1204377934,-0.1072095633,0.0011664828,-0.2377626151,0.0060643987,-0.1128772721,-0.0603221506,-0.0324276388,0.0866518393,0.0747150183,-0.0316077545,-0.1408808678,0.0051476266,-0.0381505303,-0.0183677860,0.1020100117,0.0009139739,0.0213364903,0.0335920863,0.0068716309,0.0132172788,-0.1211618185,0.0433228165,-0.0676447153,0.1194218919,0.1425369680,-0.0512271672,-0.0394156091,0.0414864644,0.0959633589,0.0919398963,-0.1326125413,0.1491216123,0.0379002802,-0.0246792026,-0.1639767587,0.1401919127,-0.1030125692,0.0054109250,-0.1694859415,0.0278777760,0.0111940457,0.0161030311,-0.0130038168,0.1083250865,-0.0715401769,-0.0011691847,0.0113832084,0.0455525592,0.0021712044,-0.1432629526,0.0015827990,-0.0421739854,0.0949109569,-0.0144746006,-0.0486637168,-0.0619069971,0.1360765696,-0.0829352215,-0.0412824564,-0.0452015400,-0.1087151915,0.1834399402,-0.0143269617,0.0888750628,-0.0811320916,0.0716137886,0.0633065030,0.0098323813,0.1273798347,-0.1217707023,0.1063111275,0.0104883621,-0.1008645371,0.0846474245,0.0033294770,-0.1792933196,-0.0509430170,0.0073732645,-0.0178902093,0.0497893654,-0.0584773161,0.0791615024,-0.0394886881,-0.0792616531,-0.1407843232,-0.1720368713,-0.2075266689,-0.0061875088,0.1647008359,0.0273606274,-0.1089296043,0.0128115946,0.0428889096,0.0704150423,0.1566462368,0.0438369028,0.0053115212,-0.1717512757,0.1093463004,-0.1665193886,0.0044618943,0.0132336430,0.1132177934,0.0370159708,0.0067887087,-0.0317811444,-0.0857364535,-0.0804960504,0.0837620348,0.0350912847,-0.1984227747,0.0743679851,0.0423214175,0.0596163720,-0.0161129013,-0.0892584920,0.0690924302,0.0870019272,-0.0141317090,-0.0545823723,0.0402859524,-0.0048769033,-0.0360993594,0.0109263593,-0.1738722920,0.0028877170,-0.0208460335,-0.0492793955,-0.0342624821,-0.0224625263,0.1475446522,-0.0481502004,-0.0105208335,-0.0968476534,0.1605991274,-0.0788986757,-0.0140325902,-0.0186036006,-0.0936639681,0.1359086186,0.1329825073,0.0533098094,0.1237502918,0.0738064647,-0.0084277783,0.0166056138,-0.1928515583,0.0470448248,-0.0989961028,0.0272868518,0.1561179459,0.1541930288,0.1200681105,0.0148508372,-0.0890067741,0.0555743463,-0.1389849186,-0.0800063983,-0.0751897395,-0.1430040300,0.1875815988,0.0371008664,-0.1987147480,-0.0393532477,0.0702644065,0.0807000920,-0.0544217713,0.0199398007,-0.0319748856,0.0370475166,-0.0346700326,0.0714984834,0.1279392242,0.0233352222,-0.0896285325,0.1151008904,-0.0971512422,0.1616152972,-0.1715511978,-0.0270348620,-0.0995985642,0.0276284777,-0.0562512241,-0.0748510435,-0.0088277590,-0.0574382879,0.0990226492,0.1534004807,0.1465933472,-0.0083253970,-0.0189439952,0.0506023988,0.1860429198,-0.0656297430,-0.0559445508,-0.0243135337,-0.1083126217,0.0909882560,0.0136272041,0.0455169529,-0.1148517579,-0.0870693251,0.1449580044,-0.0119400062,-0.0934055671,0.1204322577,-0.0299424194,0.0589799881,0.1220732182,-0.1603860408,0.1304740310,0.0177925397,-0.0874579474,-0.0054965257,0.1164737493,0.1357707381,0.0343080498,-0.1189931855,-0.0284997243,0.0042588422,-0.0550276563,-0.1318774521,-0.0019366003,-0.0063203722,0.1943913549,-0.0454772674,0.1355328858,-0.0805973932,0.0106037362,0.1430225670,-0.0343899056,-0.1257753968,-0.0528920814,0.0324720778,0.1210007966,-0.0857001469,0.0734080076,0.1080633402,-0.0127161173,0.0356587991,0.1155576780,0.1665830314,-0.0705176741,0.1695134342,-0.0210522059,-0.1344783902,-0.1806692779,-0.0400864519,0.0191194545,0.1179169118,-0.0869602263,0.0818022564,0.0289754346,0.0689688697,-0.0119889574,-0.1435021311,-0.1113725379,-0.1731549203,0.0249451324,-0.0159827322,-0.0105934329,0.0420843735,-0.0242659617,0.0591233633,-0.0700412095,-0.1338727176,-0.0289667454,0.0033325446,-0.0663166493,0.0331705026,0.0523616597,0.0466686673,-0.0166018698,-0.0124228271,0.0854504406,-0.0942083895,-0.1456799805,0.0581316873,0.0707874969,-0.0425149053,0.1257340610,-0.0575909764,0.0342015810,-0.0113494918,-0.0145432111,0.0748857111,-0.0462175906,0.1792959720,-0.0084645487,-0.0198413003,0.0755319148,0.1143420637,-0.0901011527,-0.1636283100,0.1584395766,-0.0448497832,-0.0272524506,-0.0991381630,-0.2014342844,-0.0447565429,0.0067610713,0.0830423087,0.0334088169,0.1913487315,-0.0818598866,-0.1065870598,0.0898358896,-0.0267209467,-0.0059751826,0.0897302404,0.0027477599,0.0000161272,0.0487564541,0.0945938379,-0.0923825204,0.0151624046,0.0249929279,0.0397612639,0.0639448613,0.0419510603,-0.0472885370,-0.0080024479,0.1370457411,-0.0935411155,0.1293306351,0.0676305965,-0.0312007219,0.1104105785,-0.1346263885,-0.0355029814,0.0184775498,-0.0575252846,-0.0071746847,0.0307776984,0.1280671805,-0.1981746554,0.0444939211,-0.1326151490,-0.0674928948,-0.0454081483,-0.0625712648,0.0127487788,-0.0106771523,-0.1421536058,0.0751469061,0.0009901358,-0.0916216597,0.0694600120,0.0689112395,0.1320375055,-0.1533648968,0.0002909227,0.0265033040,0.0498662144,0.0110406252,0.1011888385,0.0521000065,-0.0462979227,-0.0162678994,0.0787548348,-0.0307885800,-0.1003978774,-0.0121623380,0.0744601712,-0.0264449436,0.0723963454,0.0520848595,0.1051470637,-0.0383695737,-0.1803145856,-0.0832787827,0.0653074235,-0.0317878947,-0.1367544830,0.0552680418,0.0046586869,-0.0487431362,0.1082398668,-0.0398091599,-0.0742047951,0.0992390439,0.2132420242,0.1566697657,-0.0383639708,-0.0610010289,-0.0532191209,-0.0117126638,-0.0990366265,-0.0518996231,-0.0611109957,-0.0063736741,0.0658543780,0.0670356005,-0.0386473350,-0.0305837952,-0.0258431453,-0.0987581760,-0.0947953463,0.1870289296,0.1081216708,0.1051620618,0.0738649219,-0.0098286243,-0.0446176119,-0.1129071042,0.0916635394,-0.0982267037,0.0820829645,-0.2593450844,0.1235632896,-0.0412042737,-0.0856144577,-0.0814908743,-0.0185936447,-0.1185077578,0.0030645304,-0.1096987277,-0.0580358505,-0.0306599326,-0.0210720487,0.0393015072,-0.1147009507,0.0801505297,0.0774161443,0.0629895106,-0.0463781022,0.0060819155,0.0883462951,-0.1555131525,0.1262775064,0.0385958701,0.0886638388,0.1561705172,0.0888680071,0.2213574797,0.1341563314,-0.0838435963,-0.1204766557,0.0632959753,-0.0192661881,-0.0587147772,0.0379502475,0.0450647883,0.0289410613,0.0403187685,0.0201227702,0.0656183064,-0.0211795364,-0.0602917559,0.0106144212,-0.0505355299,-0.1027571112,-0.1995689869,-0.1712260246,0.0628158823,-0.0624465980,0.1861298084,0.0775197297,0.1108418480,-0.0093269609,0.0836406797,-0.0314859152,-0.1336242259,-0.0942143500,-0.0176551603,0.1579583436,-0.1337430626,0.0849395245,-0.0247875843,0.0984587744,0.0452316999,-0.0839870423,-0.0357905440,0.0419802591,-0.0239314847,-0.0312567428,-0.0404229760,0.0001388357,0.1877015978,-0.0157877989,0.0453185812,-0.1191394776,-0.1989123672,-0.0549479425,0.1673626304,-0.1316682398,-0.1101203710,-0.0191813353,0.0459733866,0.0787496567,0.1209290028,0.0605520085,-0.0876791179,0.0083623333,-0.0109732421,0.0599657260,-0.1528082043,-0.2093745470,0.1154011339,-0.1620676666,-0.1105670258,-0.0547022335,-0.0197409149,0.0123325679,0.1817622781,-0.0269574020,0.0350944735,-0.0366046801,-0.0416232385,0.1578867584,0.1440301836,0.0513500087,0.1002022475,0.0017765592,-0.0953145549,-0.0857687816,-0.1145096347,-0.1576897949,-0.1438409686,-0.0437741987,0.1330330223,0.2541955411,0.0504336283,-0.1238953024,-0.1462073326,0.0289649330,-0.0037212067,0.0679414123,-0.0577351823,0.0186794754,0.0508357212,-0.1342713237,0.0096403733,0.0921080858,0.1006930247,-0.0922140852,-0.1360023618,-0.0528310314,0.1159244776,-0.0763709173,-0.0708562583,-0.0056339973,0.0993282050,0.0069418107,0.0959256142,-0.0854954422,-0.0312434155,0.1106549203,0.0908091739,-0.0002261926,0.0854557157,0.1296993494,-0.0933039114,-0.0636709556,-0.1151845306,-0.1173082963,-0.1245669052,-0.1115240231,-0.0229759365,0.0848053247,-0.1078180894,-0.0575414784,0.0711924136,-0.0701420158,-0.1081822067,-0.0506884456,0.0762655959,-0.0210869219,-0.1479878277,0.1375505775,-0.0104000345,-0.0412304923,-0.0605124980,-0.0509830005,-0.1852587461,0.0536225103,-0.1133817434,0.0660104081,-0.1352212876,-0.1778099686,0.0197643284,-0.1452772319,0.0254176650,0.1025352478,0.0926774442,0.0635073110,0.2143314481,0.1589788795,-0.1385428309,-0.1524661034,0.1126464307,-0.0386563838,-0.0807545781,0.1352162212,0.0090884967,0.0333743170,0.1765993536,0.1272037178,0.0219606347,-0.1836375743,0.0777373761,-0.0381624773,-0.0177555382,0.0867598802,0.0811043754,-0.0926158875,0.0175617523,0.0614703894,0.1527858078,-0.0506520234,-0.0903494284,-0.1318766177,0.1854845583,0.1124530286,-0.2112949640,-0.0327237621,-0.2730897069,-0.0552341864,-0.1090947315,0.0909511968,0.1844812036,0.0905565470,0.1677049100,0.1734946519,-0.0136494199,0.0336595066,-0.0614845157,-0.0924120024,0.0715602711,-0.0701188743,0.1148781329,0.0452870764,-0.0324223302,-0.0257240478,-0.1230668798,0.0108395526,0.0123747066,