-0.1294385642,0.2035040110,0.1314105093,0.0078373095,-0.1267387718,0.1630862206,-0.1166721061,-0.0664513782,0.0853948891,0.0464014411,0.0166770834,-0.1424782872,0.2163225561,0.1802462190,0.0338570401,-0.2455990314,0.0155306794,-0.1486517042,-0.1672800481,-0.1653365940,-0.0435343832,0.0535504483,0.1584529579,0.0886745378,-0.1537985951,-0.0326394290,0.1380481720,0.0610262863,0.0597648881,0.0661561191,0.0135516226,0.1191442758,-0.1772710979,0.1505900621,0.1102718860,-0.2024033666,-0.1740712821,0.0441403873,-0.0345360078,0.0685810596,-0.2752103806,-0.2438209951,-0.0126562072,-0.0579973236,0.1246288121,0.0730668306,-0.0934548527,0.2305746675,-0.0730694383,0.0479314886,-0.0967543572,0.0496660806,0.0059664329,0.0406499095,-0.1701222658,0.0858502463,-0.1946095824,-0.0069798315,0.1051227301,-0.0137546780,-0.1881495118,0.1722941399,-0.0016056431,-0.1485621035,-0.0708589628,-0.1357380152,-0.1340654790,-0.0467165858,0.1064322740,0.1387822181,0.1159175336,0.1097093150,-0.1712530106,-0.2114277184,-0.0184128117,0.0976377875,0.0454131030,-0.2159195542,-0.0176309496,0.1150848791,-0.1980429739,0.0487483293,0.0426951572,-0.0980104581,0.0173621923,-0.1822000593,0.1221199483,0.0483640693,-0.2744970322,0.1137696654,0.0753412098,-0.0194566585,-0.0678613931,0.0282511860,-0.2454044074,-0.1047178134,0.0864577964,0.0460023731,0.1407535970,-0.0565915331,0.0748179033,0.0496056154,-0.0256483052,0.0394743681,-0.1505122483,-0.0641731769,0.0784246400,0.0004958041,0.0479733162,-0.0558034815,0.0810241476,0.0941105932,-0.1422516108,-0.0813134238,0.1047344506,-0.2821601927,-0.0524321347,0.1059569344,0.1112079397,0.0528898984,-0.2164428085,0.0706854016,0.0707392767,-0.2533845305,-0.1355730742,-0.2184355706,0.1724536717,0.0297204424,-0.1796995550,0.1478578597,-0.0787588358,-0.0569237024,-0.0032982300,0.1253414452,0.0345544592,0.2274132073,-0.0309381019,0.1040437073,0.0527506471,0.1033755690,0.0535920635,0.0210127719,-0.1158466637,0.0385591425,0.0224558748,-0.2161056399,-0.1004773900,0.0583313778,0.2275312841,0.0388693586,-0.0515876524,0.0853625238,-0.0571627207,0.1240599602,0.1362410784,-0.2049875557,0.0832474232,-0.0068783658,-0.2278055400,-0.0661587268,-0.0899202377,0.0336752497,0.1483402103,0.0623089820,0.1571484506,0.1711887121,-0.2474278957,-0.0635520369,-0.0235314965,0.2283797860,-0.0215794723,0.1163471639,0.1237415299,-0.1601373702,-0.0053387233,-0.0984539613,0.1287879795,-0.0475489013,-0.0514705628,0.1686122268,0.0619186163,0.0193058886,0.1112465933,0.0704860762,0.0446568318,-0.0474289209,-0.0432059690,-0.2170412242,-0.1243318543,0.0421567857,0.0722419545,-0.2604091167,0.1236359403,-0.1875950694,-0.0494669043,0.0865163952,-0.1225628480,0.0116035352,0.1598069519,-0.1764696240,0.0316985548,0.2160302699,-0.0012978228,-0.0244182069,0.1086576208,-0.0714353994,-0.0210408941,0.0946399793,0.1479013413,0.1581691653,-0.0397178121,0.2201543003,-0.1132189929,-0.0427287184,-0.0880910605,0.0226238705,0.0617288277,0.1135941222,0.2136379480,-0.0027444351,-0.0761560053,-0.0575795919,-0.0385717824,-0.0389296599,-0.1673262715,0.0825404078,0.0431681350,-0.0197851621,-0.1418430358,-0.0745129809,0.1711815298,-0.0469159372,0.2425380498,-0.0542891957,-0.1043812186,-0.2340463698,-0.0393475443,-0.1238790676,0.0652521327,-0.1193090528,-0.0172558818,0.1411813647,-0.1301899552,-0.0148280095,-0.0914032236,0.2031410933,-0.0556584299,0.1739892513,-0.0980949029,-0.0670503899,0.1381023228,0.0052837082,-0.1119220331,-0.2624096274,-0.1149015203,0.1670940220,0.1160587817,-0.0072448701,0.0276062880,0.2154136002,0.0096258344,-0.0949742049,0.0489583984,0.1064519063,-0.1507004797,0.1263255626,0.0762465075,-0.0750789046,0.1270750612,0.1088671237,-0.2426565439,-0.2258545905,0.1167657152,0.0758281052,-0.0111854784,0.0089358138,0.0161897279,0.0159120802,0.0288701858,0.0201212391,0.0757017359,0.0212961379,0.1147318929,0.0854600891,-0.0391998999,-0.0107977437,0.0728240684,-0.1863677055